{"learner":{"attributes":{"scikit_learn":"{\"_estimator_type\": \"classifier\"}"},"feature_names":[],"feature_types":[],"gradient_booster":{"model":{"gbtree_model_param":{"num_parallel_tree":"1","num_trees":"191"},"iteration_indptr":[0,1,2,3,4,5,6,7,8,9,10,11,12,13,14,15,16,17,18,19,20,21,22,23,24,25,26,27,28,29,30,31,32,33,34,35,36,37,38,39,40,41,42,43,44,45,46,47,48,49,50,51,52,53,54,55,56,57,58,59,60,61,62,63,64,65,66,67,68,69,70,71,72,73,74,75,76,77,78,79,80,81,82,83,84,85,86,87,88,89,90,91,92,93,94,95,96,97,98,99,100,101,102,103,104,105,106,107,108,109,110,111,112,113,114,115,116,117,118,119,120,121,122,123,124,125,126,127,128,129,130,131,132,133,134,135,136,137,138,139,140,141,142,143,144,145,146,147,148,149,150,151,152,153,154,155,156,157,158,159,160,161,162,163,164,165,166,167,168,169,170,171,172,173,174,175,176,177,178,179,180,181,182,183,184,185,186,187,188,189,190,191],"tree_info":[0,0,0,0,0,0,0,0,0,0,0,0,0,0,0,0,0,0,0,0,0,0,0,0,0,0,0,0,0,0,0,0,0,0,0,0,0,0,0,0,0,0,0,0,0,0,0,0,0,0,0,0,0,0,0,0,0,0,0,0,0,0,0,0,0,0,0,0,0,0,0,0,0,0,0,0,0,0,0,0,0,0,0,0,0,0,0,0,0,0,0,0,0,0,0,0,0,0,0,0,0,0,0,0,0,0,0,0,0,0,0,0,0,0,0,0,0,0,0,0,0,0,0,0,0,0,0,0,0,0,0,0,0,0,0,0,0,0,0,0,0,0,0,0,0,0,0,0,0,0,0,0,0,0,0,0,0,0,0,0,0,0,0,0,0,0,0,0,0,0,0,0,0,0,0,0,0,0,0,0,0,0,0,0,0,0,0,0,0,0,0],"trees":[{"base_weights":[2.971638E-8,-1.0677863E0,6.850043E-1,-1.1952019E0,5.3205436E-1,1.2201801E-1,1.1429319E0,-1.300933E0,-3.7040663E-1,9.1458656E-2,1.1971639E0,-5.6685656E-1,9.4089764E-1,1.2129874E0,-3.165636E-1,-1.42237E0,-9.511476E-1,-7.8877145E-1,1.6180104E-1,-2.4039204E-1,6.186613E-1,1.2206178E0,-7.672616E-1,-8.3553886E-1,-1.7601494E-1,4.8331958E-1,1.2832711E0,8.2282037E-1,1.5173442E0,1.695162E-1,-6.797674E-1,-4.5458248E-1,-3.6391333E-1,-3.2334006E-1,-1.59406E-1,-2.8366432E-1,2.1487774E-2,-2.258565E-2,2.4459228E-1,-1.4904043E-1,1.145131E-2,1.6289841E-2,2.307603E-1,2.710449E-1,4.1978517E-1,-2.8355318E-1,9.797109E-3,-2.756497E-1,4.7958955E-2,-1.6673683E-1,1.5013222E-1,-5.1643524E-2,3.41079E-1,2.6589695E-1,4.5024332E-1,3.385177E-2,4.1398403E-1,4.7137582E-1,1.1182815E-1,1.5661469E-1,-4.4875458E-2,-3.564175E-2,-2.7683E-1],"categories":[],"categories_nodes":[],"categories_segments":[],"categories_sizes":[],"default_left":[0,0,0,0,0,0,0,0,0,0,0,0,0,0,0,0,0,0,0,0,0,0,0,0,0,0,0,0,0,0,0,0,0,0,0,0,0,0,0,0,0,0,0,0,0,0,0,0,0,0,0,0,0,0,0,0,0,0,0,0,0,0,0],"id":0,"left_children":[1,3,5,7,9,11,13,15,17,19,21,23,25,27,29,31,33,35,37,39,41,43,45,47,49,51,53,55,57,59,61,-1,-1,-1,-1,-1,-1,-1,-1,-1,-1,-1,-1,-1,-1,-1,-1,-1,-1,-1,-1,-1,-1,-1,-1,-1,-1,-1,-1,-1,-1,-1,-1],"loss_changes":[3.8417758E4,4.184879E3,8.248898E3,1.6575488E3,4.4382156E2,8.09728E3,1.8044824E3,7.144707E2,4.8144962E2,1.5976305E2,2.874469E1,8.185332E2,1.0268047E3,1.9981133E3,1.4293121E2,2.4139062E2,2.3048975E2,1.6334857E2,1.4759967E2,4.0061787E1,2.9924133E1,3.2552795E1,1.1317129E0,3.8317358E2,8.165248E2,1.203395E3,3.2255322E2,2.9191758E3,5.8295703E2,3.9085564E1,6.302951E1,0E0,0E0,0E0,0E0,0E0,0E0,0E0,0E0,0E0,0E0,0E0,0E0,0E0,0E0,0E0,0E0,0E0,0E0,0E0,0E0,0E0,0E0,0E0,0E0,0E0,0E0,0E0,0E0,0E0,0E0,0E0,0E0],"parents":[2147483647,0,0,1,1,2,2,3,3,4,4,5,5,6,6,7,7,8,8,9,9,10,10,11,11,12,12,13,13,14,14,15,15,16,16,17,17,18,18,19,19,20,20,21,21,22,22,23,23,24,24,25,25,26,26,27,27,28,28,29,29,30,30],"right_children":[2,4,6,8,10,12,14,16,18,20,22,24,26,28,30,32,34,36,38,40,42,44,46,48,50,52,54,56,58,60,62,-1,-1,-1,-1,-1,-1,-1,-1,-1,-1,-1,-1,-1,-1,-1,-1,-1,-1,-1,-1,-1,-1,-1,-1,-1,-1,-1,-1,-1,-1,-1,-1],"split_conditions":[-4.267072E-1,4.1356468E-1,6.921494E-2,-2.507393E-2,7.423467E-1,4.2837644E-1,2.2170944E0,-5.3635087E-2,-2.2883493E-1,-3.804317E-1,2.7409573E0,-2.5955075E-1,-6.498926E-1,5.4728603E-1,1.1036375E0,-4.7911134E-1,-3.1692007E-1,3.9619142E-1,2.9530948E-1,-5.479656E-1,-1.3703429E0,9.200948E-1,1.2032132E0,8.931536E-1,-5.364702E-2,1.7965233E0,8.626231E-1,-1.4430133E-1,2.4468784E0,5.31866E-1,9.248405E-1,-4.5458248E-1,-3.6391333E-1,-3.2334006E-1,-1.59406E-1,-2.8366432E-1,2.1487774E-2,-2.258565E-2,2.4459228E-1,-1.4904043E-1,1.145131E-2,1.6289841E-2,2.307603E-1,2.710449E-1,4.1978517E-1,-2.8355318E-1,9.797109E-3,-2.756497E-1,4.7958955E-2,-1.6673683E-1,1.5013222E-1,-5.1643524E-2,3.41079E-1,2.6589695E-1,4.5024332E-1,3.385177E-2,4.1398403E-1,4.7137582E-1,1.1182815E-1,1.5661469E-1,-4.4875458E-2,-3.564175E-2,-2.7683E-1],"split_indices":[24,17,17,14,17,14,17,17,17,14,17,17,17,17,9,18,14,14,14,18,26,17,5,20,14,14,14,14,16,22,16,0,0,0,0,0,0,0,0,0,0,0,0,0,0,0,0,0,0,0,0,0,0,0,0,0,0,0,0,0,0,0,0],"split_type":[0,0,0,0,0,0,0,0,0,0,0,0,0,0,0,0,0,0,0,0,0,0,0,0,0,0,0,0,0,0,0,0,0,0,0,0,0,0,0,0,0,0,0,0,0,0,0,0,0,0,0,0,0,0,0,0,0,0,0,0,0,0,0],"sum_hessian":[5.2521586E4,2.0525627E4,3.1995957E4,1.9011734E4,1.5138932E3,1.4352251E4,1.7643707E4,1.6851016E4,2.1607197E3,9.1132916E2,6.02564E2,7.7950493E3,6.557202E3,1.6835762E4,8.0794476E2,1.2506125E4,4.3448896E3,1.2094764E3,9.512433E2,5.596183E2,3.5171088E2,5.958289E2,6.735112E0,4.6187637E3,3.1762856E3,2.8074668E3,3.749735E3,7.3794526E3,9.45631E3,3.4575293E2,4.6219183E2,8.657453E3,3.8486724E3,3.3366497E3,1.0082399E3,1.0229771E3,1.8649939E2,6.9866016E2,2.5258311E2,2.9098834E2,2.686299E2,7.4347694E1,2.773632E2,2.1689471E2,3.789342E2,5.3611164E0,1.3739958E0,4.2621885E3,3.5657513E2,2.0343456E3,1.1419401E3,1.4021129E3,1.4053539E3,1.3292714E3,2.4204639E3,3.2451528E3,4.1343E3,9.030606E3,4.2570316E2,1.6396909E2,1.8178383E2,1.4014868E2,3.2204315E2],"tree_param":{"num_deleted":"0","num_feature":"28","num_nodes":"63","size_leaf_vector":"1"}},{"base_weights":[5.549527E-4,-7.458039E-1,5.266718E-1,-8.7053585E-1,2.4942125E-1,1.3614845E-1,9.210623E-1,-9.861803E-1,-3.611383E-1,-8.04853E-2,8.0002993E-1,-4.4414666E-1,6.314868E-1,9.939648E-1,-1.04590796E-1,-1.0853102E0,-7.631924E-1,-5.9548104E-1,1.2865962E-1,-3.2955578E-1,4.9290562E-1,5.56671E-1,1.0006613E0,-5.194317E-1,5.2105165E-1,3.192368E-1,9.7400534E-1,7.6736647E-1,1.2147996E0,3.370269E-1,-4.226914E-1,-3.4992403E-1,-2.838723E-1,-2.7162322E-1,-1.8634945E-1,-2.2129223E-1,-2.2338986E-2,-3.883067E-2,1.7093413E-1,-1.492655E-1,-5.6555932E-3,3.244816E-1,1.0007427E-1,1.0251389E-1,2.458594E-1,3.112275E-1,-5.391294E-2,-2.2079663E-1,-8.3410166E-2,-3.565504E-2,2.415681E-1,-6.0319204E-2,2.4203095E-1,9.584549E-2,3.319576E-1,4.8472244E-2,3.115469E-1,3.8235554E-1,1.182122E-1,1.9296257E-1,1.6378846E-2,-3.5918778E-4,-2.0365925E-1],"categories":[],"categories_nodes":[],"categories_segments":[],"categories_sizes":[],"default_left":[0,0,0,0,0,0,0,0,0,0,0,0,0,0,0,0,0,0,0,0,0,0,0,0,0,0,0,0,0,0,0,0,0,0,0,0,0,0,0,0,0,0,0,0,0,0,0,0,0,0,0,0,0,0,0,0,0,0,0,0,0,0,0],"id":1,"left_children":[1,3,5,7,9,11,13,15,17,19,21,23,25,27,29,31,33,35,37,39,41,43,45,47,49,51,53,55,57,59,61,-1,-1,-1,-1,-1,-1,-1,-1,-1,-1,-1,-1,-1,-1,-1,-1,-1,-1,-1,-1,-1,-1,-1,-1,-1,-1,-1,-1,-1,-1,-1,-1],"loss_changes":[1.9977582E4,2.6114443E3,4.595923E3,1.1008105E3,4.2576086E2,4.31051E3,1.1102344E3,3.3590527E2,3.972253E2,2.0958069E2,4.2318665E1,5.0209216E2,8.6494165E2,6.927119E2,1.3867792E2,1.178125E2,9.419922E1,1.733017E2,1.2764989E2,5.3382652E1,4.132776E1,2.2269043E1,2.1019073E1,3.3471863E2,9.105162E1,1.0740621E3,3.342422E2,1.123957E3,3.4349805E2,3.5719963E1,6.1943893E1,0E0,0E0,0E0,0E0,0E0,0E0,0E0,0E0,0E0,0E0,0E0,0E0,0E0,0E0,0E0,0E0,0E0,0E0,0E0,0E0,0E0,0E0,0E0,0E0,0E0,0E0,0E0,0E0,0E0,0E0,0E0,0E0],"parents":[2147483647,0,0,1,1,2,2,3,3,4,4,5,5,6,6,7,7,8,8,9,9,10,10,11,11,12,12,13,13,14,14,15,15,16,16,17,17,18,18,19,19,20,20,21,21,22,22,23,23,24,24,25,25,26,26,27,27,28,28,29,29,30,30],"right_children":[2,4,6,8,10,12,14,16,18,20,22,24,26,28,30,32,34,36,38,40,42,44,46,48,50,52,54,56,58,60,62,-1,-1,-1,-1,-1,-1,-1,-1,-1,-1,-1,-1,-1,-1,-1,-1,-1,-1,-1,-1,-1,-1,-1,-1,-1,-1,-1,-1,-1,-1,-1,-1],"split_conditions":[-4.0146923E-1,3.2577726E-1,1.655172E-1,-1.3239296E-1,6.5172905E-1,2.1066302E-1,1.968303E0,-5.385915E-1,-1.1686259E-1,-3.028302E-1,8.8149816E-1,9.888768E-1,-4.600966E-1,6.8066716E-1,1.4927679E0,-2.934511E-1,-3.3042622E-1,2.4549434E-1,1.3667335E-1,-4.9809015E-1,-6.9693804E-1,-4.1054252E-1,2.2170944E0,8.10988E-1,-9.07224E-1,1.3220097E0,1.3804732E-1,-3.2167628E-1,1.0822676E0,2.7409573E0,1.2325785E0,-3.4992403E-1,-2.838723E-1,-2.7162322E-1,-1.8634945E-1,-2.2129223E-1,-2.2338986E-2,-3.883067E-2,1.7093413E-1,-1.492655E-1,-5.6555932E-3,3.244816E-1,1.0007427E-1,1.0251389E-1,2.458594E-1,3.112275E-1,-5.391294E-2,-2.2079663E-1,-8.3410166E-2,-3.565504E-2,2.415681E-1,-6.0319204E-2,2.4203095E-1,9.584549E-2,3.319576E-1,4.8472244E-2,3.115469E-1,3.8235554E-1,1.182122E-1,1.9296257E-1,1.6378846E-2,-3.5918778E-4,-2.0365925E-1],"split_indices":[24,17,17,14,17,14,17,24,17,14,17,20,17,17,21,23,23,14,14,18,25,14,17,26,22,14,26,14,14,17,16,0,0,0,0,0,0,0,0,0,0,0,0,0,0,0,0,0,0,0,0,0,0,0,0,0,0,0,0,0,0,0,0],"split_type":[0,0,0,0,0,0,0,0,0,0,0,0,0,0,0,0,0,0,0,0,0,0,0,0,0,0,0,0,0,0,0,0,0,0,0,0,0,0,0,0,0,0,0,0,0,0,0,0,0,0,0,0,0,0,0,0,0,0,0,0,0,0,0],"sum_hessian":[5.0874E4,2.1034154E4,2.9839846E4,1.8691648E4,2.342506E3,1.4994106E4,1.484574E4,1.523258E4,3.459068E3,1.4653628E3,8.7714325E2,6.9049604E3,8.0891455E3,1.3860574E4,9.8516583E2,1.0542165E4,4.6904155E3,2.339516E3,1.119552E3,1.02189545E3,4.4346735E2,3.980712E2,4.7907205E2,6.405775E3,4.991857E2,4.2325557E3,3.8565898E3,6.843225E3,7.017349E3,4.1247253E2,5.726933E2,6.6541655E3,3.8879993E3,2.3409487E3,2.3494668E3,1.8376875E3,5.0182867E2,7.067478E2,4.128042E2,6.6287897E2,3.5901645E2,9.322294E1,3.5024442E2,2.2025456E2,1.7781664E2,4.6471906E2,1.4352994E1,3.375541E3,3.030234E3,1.5369022E2,3.4549548E2,2.0477554E3,2.1848003E3,6.499374E2,3.2066523E3,2.1162693E3,4.726956E3,6.5408794E3,4.7647012E2,1.9730156E2,2.1517097E2,2.1687025E2,3.5582306E2],"tree_param":{"num_deleted":"0","num_feature":"28","num_nodes":"63","size_leaf_vector":"1"}},{"base_weights":[1.5943302E-3,-5.411987E-1,4.205632E-1,-7.126865E-1,-3.8944587E-2,5.3953797E-2,7.0523715E-1,-7.772256E-1,-7.716513E-2,-2.0633805E-1,5.3739995E-1,-2.9830477E-1,6.0436463E-1,7.5297374E-1,-1.7308985E-1,-8.0198354E-1,-1.8877968E-1,-2.6475742E-1,6.6873914E-1,-4.0568936E-1,2.5193703E-1,3.1167683E-1,7.5996387E-1,-3.5402903E-1,6.959552E-1,6.4770505E-2,8.245649E-1,5.6796825E-1,1.0002123E0,7.988468E-2,-3.8718355E-1,-2.5835928E-1,-1.7913145E-1,-1.0117853E-1,8.595268E-2,-1.0091694E-1,1.3729589E-1,1.0424445E-1,2.64739E-1,-1.5127778E-1,-1.9225018E-2,-5.3115886E-2,1.2843797E-1,2.3043782E-1,5.7895627E-2,2.339427E-1,-1.628461E-1,-2.1427824E-1,-6.170317E-2,-1.9168332E-2,2.81082E-1,-1.1226209E-1,2.7171144E-1,7.106601E-2,2.8456527E-1,1.1879353E-1,2.663193E-1,3.1099704E-1,9.880151E-2,1.1415189E-1,-3.4448925E-2,-1.5359008E-1,7.839526E-2],"categories":[],"categories_nodes":[],"categories_segments":[],"categories_sizes":[],"default_left":[0,0,0,0,0,0,0,0,0,0,0,0,0,0,0,0,0,0,0,0,0,0,0,0,0,0,0,0,0,0,0,0,0,0,0,0,0,0,0,0,0,0,0,0,0,0,0,0,0,0,0,0,0,0,0,0,0,0,0,0,0,0,0],"id":2,"left_children":[1,3,5,7,9,11,13,15,17,19,21,23,25,27,29,31,33,35,37,39,41,43,45,47,49,51,53,55,57,59,61,-1,-1,-1,-1,-1,-1,-1,-1,-1,-1,-1,-1,-1,-1,-1,-1,-1,-1,-1,-1,-1,-1,-1,-1,-1,-1,-1,-1,-1,-1,-1,-1],"loss_changes":[1.090454E4,1.7991011E3,2.8242524E3,6.38626E2,5.131523E2,2.293814E3,6.3883057E2,2.0579102E2,2.0120447E2,3.7664587E2,5.990564E1,3.99932E2,5.485071E2,6.602954E2,4.260352E1,1.6405078E2,4.0466705E1,5.9595695E1,1.953569E1,9.6694E1,9.455832E1,3.214399E1,1.598996E1,3.6495007E2,7.0227234E1,4.946695E2,2.3867285E2,4.5426953E2,1.5082129E2,2.1182928E1,3.459954E1,0E0,0E0,0E0,0E0,0E0,0E0,0E0,0E0,0E0,0E0,0E0,0E0,0E0,0E0,0E0,0E0,0E0,0E0,0E0,0E0,0E0,0E0,0E0,0E0,0E0,0E0,0E0,0E0,0E0,0E0,0E0,0E0],"parents":[2147483647,0,0,1,1,2,2,3,3,4,4,5,5,6,6,7,7,8,8,9,9,10,10,11,11,12,12,13,13,14,14,15,15,16,16,17,17,18,18,19,19,20,20,21,21,22,22,23,23,24,24,25,25,26,26,27,27,28,28,29,29,30,30],"right_children":[2,4,6,8,10,12,14,16,18,20,22,24,26,28,30,32,34,36,38,40,42,44,46,48,50,52,54,56,58,60,62,-1,-1,-1,-1,-1,-1,-1,-1,-1,-1,-1,-1,-1,-1,-1,-1,-1,-1,-1,-1,-1,-1,-1,-1,-1,-1,-1,-1,-1,-1,-1,-1],"split_conditions":[-3.7403747E-1,1.0542335E-1,-6.8901707E-3,7.995634E-2,5.849633E-1,6.929011E-1,2.2170944E0,2.9955316E-1,3.5589993E-1,-2.739352E-1,8.260476E-1,1.6089476E0,-9.2544484E-1,5.575401E-1,1.169346E0,-4.1601637E-1,5.575401E-1,6.212001E-1,5.270013E-1,-4.274309E-1,-1.3379108E0,-5.5225354E-1,2.7409573E0,-8.7776697E-1,1.8851285E0,3.2691286E0,4.0167114E-1,7.2650784E-1,1.8071058E0,4.0130076E-1,4.2439427E0,-2.5835928E-1,-1.7913145E-1,-1.0117853E-1,8.595268E-2,-1.0091694E-1,1.3729589E-1,1.0424445E-1,2.64739E-1,-1.5127778E-1,-1.9225018E-2,-5.3115886E-2,1.2843797E-1,2.3043782E-1,5.7895627E-2,2.339427E-1,-1.628461E-1,-2.1427824E-1,-6.170317E-2,-1.9168332E-2,2.81082E-1,-1.1226209E-1,2.7171144E-1,7.106601E-2,2.8456527E-1,1.1879353E-1,2.663193E-1,3.1099704E-1,9.880151E-2,1.1415189E-1,-3.4448925E-2,-1.5359008E-1,7.839526E-2],"split_indices":[24,17,17,14,17,14,17,3,3,14,17,20,17,3,9,18,3,14,3,18,26,25,17,22,27,14,26,17,16,22,24,0,0,0,0,0,0,0,0,0,0,0,0,0,0,0,0,0,0,0,0,0,0,0,0,0,0,0,0,0,0,0,0],"split_type":[0,0,0,0,0,0,0,0,0,0,0,0,0,0,0,0,0,0,0,0,0,0,0,0,0,0,0,0,0,0,0,0,0,0,0,0,0,0,0,0,0,0,0,0,0,0,0,0,0,0,0,0,0,0,0,0,0,0,0,0,0,0,0],"sum_hessian":[4.7948305E4,2.088742E4,2.7060885E4,1.5570624E4,5.316797E3,1.1828749E4,1.5232135E4,1.4134953E4,1.4356705E3,4.12064E3,1.1961564E3,7.2129663E3,4.6157827E3,1.4447087E4,7.8504865E2,1.3563911E4,5.710424E2,1.1476785E3,2.8799203E2,2.871599E3,1.2490413E3,5.950551E2,6.011013E2,6.830773E3,3.821934E2,1.3381006E3,3.2776821E3,8.265452E3,6.1816343E3,3.6013617E2,4.2491245E2,1.0520172E4,3.0437393E3,4.3533304E2,1.3570937E2,1.04463E3,1.0304847E2,1.16101265E2,1.7189078E2,2.228184E3,6.434151E2,3.6363934E2,8.8540186E2,1.2167199E2,4.7338312E2,5.924776E2,8.623692E0,1.9913967E3,4.839376E3,9.220292E1,2.8999048E2,8.795305E2,4.5857013E2,5.7154443E2,2.7061377E3,5.3760767E3,2.8893757E3,5.8626104E3,3.1902393E2,1.4119287E2,2.1894331E2,3.5652173E2,6.839072E1],"tree_param":{"num_deleted":"0","num_feature":"28","num_nodes":"63","size_leaf_vector":"1"}},{"base_weights":[2.1615617E-3,-3.7284768E-1,3.6750963E-1,-5.614395E-1,6.4072446E-3,1.55191E-1,6.776031E-1,-6.7558026E-1,-2.7142918E-1,-9.7747646E-2,5.2963775E-1,-2.6577464E-1,4.1494662E-1,7.8444284E-1,-7.2647855E-2,-7.7298373E-1,-5.797386E-1,-3.2424867E-1,5.151675E-1,-2.2273803E-1,4.7302476E-1,3.301808E-1,6.813993E-1,-5.8012426E-1,-6.938289E-2,2.7985612E-1,9.459424E-1,8.312682E-1,9.23964E-2,5.179116E-1,-5.0491047E-1,-2.3952512E-1,-1.3883999E-1,-2.1275982E-1,-1.435819E-1,-1.0348636E-1,2.297016E-1,1.1564924E-1,2.793558E-1,-1.2998568E-1,-1.8276243E-2,1.9926156E-1,5.2134145E-2,-4.1492977E-3,1.3916242E-1,2.1583231E-1,6.0167867E-3,-2.5464854E-1,-1.10811226E-1,-6.3095205E-2,1.6766576E-1,-2.396159E-2,1.6187096E-1,1.6383451E-1,3.2948568E-1,1.943278E-1,2.8662774E-1,9.894303E-2,-2.9589567E-2,2.1578677E-1,2.7196791E-2,9.803057E-2,-2.0595899E-1],"categories":[],"categories_nodes":[],"categories_segments":[],"categories_sizes":[],"default_left":[0,0,0,0,0,0,0,0,0,0,0,0,0,0,0,0,0,0,0,0,0,0,0,0,0,0,0,0,0,0,0,0,0,0,0,0,0,0,0,0,0,0,0,0,0,0,0,0,0,0,0,0,0,0,0,0,0,0,0,0,0,0,0],"id":3,"left_children":[1,3,5,7,9,11,13,15,17,19,21,23,25,27,29,31,33,35,37,39,41,43,45,47,49,51,53,55,57,59,61,-1,-1,-1,-1,-1,-1,-1,-1,-1,-1,-1,-1,-1,-1,-1,-1,-1,-1,-1,-1,-1,-1,-1,-1,-1,-1,-1,-1,-1,-1,-1,-1],"loss_changes":[6.171728E3,1.5899324E3,1.502135E3,4.9126465E2,4.024408E2,1.4812334E3,7.4334814E2,9.9E1,1.7444412E2,4.394761E2,3.688446E1,3.19086E2,6.006223E2,2.629619E2,2.955732E2,4.128711E1,7.0013794E1,8.898471E1,1.390033E1,1.7213141E2,6.31989E1,2.4459335E1,1.7477814E1,1.1224237E2,2.8192722E2,6.2406415E2,1.0285718E2,1.7259912E2,2.34138E1,4.204178E1,1.0119151E2,0E0,0E0,0E0,0E0,0E0,0E0,0E0,0E0,0E0,0E0,0E0,0E0,0E0,0E0,0E0,0E0,0E0,0E0,0E0,0E0,0E0,0E0,0E0,0E0,0E0,0E0,0E0,0E0,0E0,0E0,0E0,0E0],"parents":[2147483647,0,0,1,1,2,2,3,3,4,4,5,5,6,6,7,7,8,8,9,9,10,10,11,11,12,12,13,13,14,14,15,15,16,16,17,17,18,18,19,19,20,20,21,21,22,22,23,23,24,24,25,25,26,26,27,27,28,28,29,29,30,30],"right_children":[2,4,6,8,10,12,14,16,18,20,22,24,26,28,30,32,34,36,38,40,42,44,46,48,50,52,54,56,58,60,62,-1,-1,-1,-1,-1,-1,-1,-1,-1,-1,-1,-1,-1,-1,-1,-1,-1,-1,-1,-1,-1,-1,-1,-1,-1,-1,-1,-1,-1,-1,-1,-1],"split_conditions":[-2.9575506E-1,4.7892842E-2,2.8958458E-1,-2.0155485E-1,7.109823E-1,7.995634E-2,1.8071058E0,-4.084167E-1,4.8451886E-1,-6.0691968E-2,9.011633E-1,-5.048621E-1,1.2806183E0,1.968303E0,1.5691144E0,7.916112E-2,7.5841284E-1,5.168625E-1,4.6256393E-1,-5.308428E-1,-3.972361E-1,-1.3690255E0,1.968303E0,-2.9328197E-1,1.5133433E-1,-5.419289E-1,1.8792044E0,1.1326263E-1,2.7409573E0,1.735447E0,-1.6257569E0,-2.3952512E-1,-1.3883999E-1,-2.1275982E-1,-1.435819E-1,-1.0348636E-1,2.297016E-1,1.1564924E-1,2.793558E-1,-1.2998568E-1,-1.8276243E-2,1.9926156E-1,5.2134145E-2,-4.1492977E-3,1.3916242E-1,2.1583231E-1,6.0167867E-3,-2.5464854E-1,-1.10811226E-1,-6.3095205E-2,1.6766576E-1,-2.396159E-2,1.6187096E-1,1.6383451E-1,3.2948568E-1,1.943278E-1,2.8662774E-1,9.894303E-2,-2.9589567E-2,2.1578677E-1,2.7196791E-2,9.803057E-2,-2.0595899E-1],"split_indices":[24,17,17,14,17,14,16,23,3,14,17,22,20,17,21,0,26,0,14,14,16,26,17,14,24,17,27,24,17,17,22,0,0,0,0,0,0,0,0,0,0,0,0,0,0,0,0,0,0,0,0,0,0,0,0,0,0,0,0,0,0,0,0],"split_type":[0,0,0,0,0,0,0,0,0,0,0,0,0,0,0,0,0,0,0,0,0,0,0,0,0,0,0,0,0,0,0,0,0,0,0,0,0,0,0,0,0,0,0,0,0,0,0,0,0,0,0,0,0,0,0,0,0,0,0,0,0,0,0],"sum_hessian":[4.504418E4,2.2228182E4,2.2815998E4,1.4845494E4,7.3826885E3,1.3544016E4,9.271983E3,1.0651861E4,4.193633E3,6.157736E3,1.2249529E3,5.168236E3,8.375779E3,8.1161543E3,1.1558295E3,5.279382E3,5.372479E3,3.930303E3,2.6332968E2,5.052029E3,1.1057069E3,5.306744E2,6.9427856E2,1.9865538E3,3.1816821E3,6.6782856E3,1.6974939E3,7.601612E3,5.1454266E2,4.8839014E2,6.674393E2,4.8778516E3,4.0153024E2,2.353596E3,3.018883E3,3.8576995E3,7.260339E1,2.0222441E2,6.1105267E1,2.194713E3,2.8573157E3,6.7392914E2,4.3177774E2,1.48769E2,3.8190536E2,6.564316E2,3.7846992E1,8.718917E2,1.114662E3,2.5992734E3,5.8240875E2,2.800299E3,3.8779866E3,4.6960132E2,1.2278926E3,3.0701094E3,4.5315024E3,2.2909386E2,2.8544882E2,3.3147375E2,1.5691638E2,1.1948584E2,5.479534E2],"tree_param":{"num_deleted":"0","num_feature":"28","num_nodes":"63","size_leaf_vector":"1"}},{"base_weights":[2.8851898E-3,-2.535641E-1,3.1667772E-1,-3.660442E-1,2.698555E-1,2.4793026E-1,9.097191E-1,-4.9383333E-1,-1.3651355E-1,1.3582464E-1,5.943913E-1,-4.9677204E-2,4.0189528E-1,5.320218E-1,1.0216331E0,-6.1139023E-1,-3.5959315E-1,-2.1549858E-1,3.2770494E-1,5.842765E-1,1.4446285E-2,6.660467E-1,2.646103E-1,-2.734408E-1,3.1198403E-1,9.433974E-2,5.622535E-1,2.5618908E-1,7.0346224E-1,1.0440147E0,5.7288785E-2,-2.1017581E-1,-1.5182866E-1,-1.4567636E-1,-6.986796E-2,-7.3823325E-2,1.8930937E-1,4.138429E-2,1.7445298E-1,2.1401758E-1,1.2324598E-1,-2.298376E-2,1.4673662E-1,2.0397602E-1,1.5025775E-2,-2.7314827E-2,1.11429214E-1,-2.1011733E-1,-5.3259656E-3,-9.359704E-2,1.5823258E-1,-8.790314E-2,1.1019676E-1,8.049889E-2,1.9276229E-1,-5.085386E-2,2.333126E-1,2.5006878E-1,-2.1572325E-2,1.10987835E-1,3.1912485E-1,1.5952316E-1,-1.0783867E-1],"categories":[],"categories_nodes":[],"categories_segments":[],"categories_sizes":[],"default_left":[0,0,0,0,0,0,0,0,0,0,0,0,0,0,0,0,0,0,0,0,0,0,0,0,0,0,0,0,0,0,0,0,0,0,0,0,0,0,0,0,0,0,0,0,0,0,0,0,0,0,0,0,0,0,0,0,0,0,0,0,0,0,0],"id":4,"left_children":[1,3,5,7,9,11,13,15,17,19,21,23,25,27,29,31,33,35,37,39,41,43,45,47,49,51,53,55,57,59,61,-1,-1,-1,-1,-1,-1,-1,-1,-1,-1,-1,-1,-1,-1,-1,-1,-1,-1,-1,-1,-1,-1,-1,-1,-1,-1,-1,-1,-1,-1,-1,-1],"loss_changes":[3.4122122E3,1.3738286E3,7.7723096E2,5.632864E2,1.7947144E2,7.830902E2,8.3174194E1,1.9447192E2,2.5197635E2,1.5907797E2,2.8326904E1,4.7169995E2,5.554291E2,2.1326721E1,3.289319E1,6.1405273E1,9.187378E1,1.5215506E2,4.8050697E1,1.3648865E1,9.949989E1,8.4279785E0,8.276599E0,3.930647E2,2.9969028E2,4.0838467E2,1.7452393E2,3.9183266E1,2.8295212E1,1.945459E1,7.247943E0,0E0,0E0,0E0,0E0,0E0,0E0,0E0,0E0,0E0,0E0,0E0,0E0,0E0,0E0,0E0,0E0,0E0,0E0,0E0,0E0,0E0,0E0,0E0,0E0,0E0,0E0,0E0,0E0,0E0,0E0,0E0,0E0],"parents":[2147483647,0,0,1,1,2,2,3,3,4,4,5,5,6,6,7,7,8,8,9,9,10,10,11,11,12,12,13,13,14,14,15,15,16,16,17,17,18,18,19,19,20,20,21,21,22,22,23,23,24,24,25,25,26,26,27,27,28,28,29,29,30,30],"right_children":[2,4,6,8,10,12,14,16,18,20,22,24,26,28,30,32,34,36,38,40,42,44,46,48,50,52,54,56,58,60,62,-1,-1,-1,-1,-1,-1,-1,-1,-1,-1,-1,-1,-1,-1,-1,-1,-1,-1,-1,-1,-1,-1,-1,-1,-1,-1,-1,-1,-1,-1,-1,-1],"split_conditions":[-2.1001358E-1,3.7369698E-1,1.9240379E0,-2.5390902E-1,8.4385896E-1,-2.2254527E-1,1.8822355E0,-2.3511341E-1,3.4409666E-1,-6.0096884E-1,1.302476E0,1.0397118E0,6.699517E-2,-3.0852175E-1,2.8836694E0,8.201076E-1,-2.0854802E-1,5.168625E-1,1.6696298E-1,-7.4530256E-1,5.5257577E-1,4.8023003E-1,1.0260615E0,-1.1873975E0,-1.1095225E0,5.1129234E-1,-3.7592584E-1,2.6251075E0,1.8071058E0,2.1040285E-2,-1.2202476E0,-2.1017581E-1,-1.5182866E-1,-1.4567636E-1,-6.986796E-2,-7.3823325E-2,1.8930937E-1,4.138429E-2,1.7445298E-1,2.1401758E-1,1.2324598E-1,-2.298376E-2,1.4673662E-1,2.0397602E-1,1.5025775E-2,-2.7314827E-2,1.11429214E-1,-2.1011733E-1,-5.3259656E-3,-9.359704E-2,1.5823258E-1,-8.790314E-2,1.1019676E-1,8.049889E-2,1.9276229E-1,-5.085386E-2,2.333126E-1,2.5006878E-1,-2.1572325E-2,1.10987835E-1,3.1912485E-1,1.5952316E-1,-1.0783867E-1],"split_indices":[24,17,20,14,17,17,27,17,3,25,22,14,26,17,16,26,26,0,14,25,25,14,17,22,17,17,14,14,16,24,22,0,0,0,0,0,0,0,0,0,0,0,0,0,0,0,0,0,0,0,0,0,0,0,0,0,0,0,0,0,0,0,0],"split_type":[0,0,0,0,0,0,0,0,0,0,0,0,0,0,0,0,0,0,0,0,0,0,0,0,0,0,0,0,0,0,0,0,0,0,0,0,0,0,0,0,0,0,0,0,0,0,0,0,0,0,0,0,0,0,0,0,0,0,0,0,0,0,0],"sum_hessian":[4.240055E4,2.3332271E4,1.9068281E4,1.9205428E4,4.1268438E3,1.7088715E4,1.979566E3,1.2336204E4,6.8692227E3,2.921645E3,1.2051989E3,5.826681E3,1.1262034E4,4.5379913E2,1.525767E3,6.5748857E3,5.7613184E3,5.8708545E3,9.9836816E2,6.215212E2,2.3001238E3,9.892364E2,2.1596251E2,3.5997327E3,2.2269485E3,3.860143E3,7.4018906E3,1.7489793E2,2.789012E2,1.4910778E3,3.4689148E1,3.5565E3,3.0183857E3,2.8872786E3,2.87404E3,5.6668604E3,2.0399445E2,5.721464E2,4.2622174E2,3.545173E2,2.6700388E2,1.9306069E3,3.695169E2,9.673449E2,2.1891523E1,4.9915607E1,1.6604689E2,1.3476581E3,2.2520747E3,5.714782E2,1.6554703E3,1.5957594E3,2.2643835E3,1.5890154E3,5.8128755E3,9.6666626E1,7.823131E1,2.387637E2,4.0137497E1,4.297514E1,1.4481027E3,1.6092512E1,1.8596634E1],"tree_param":{"num_deleted":"0","num_feature":"28","num_nodes":"63","size_leaf_vector":"1"}},{"base_weights":[3.0543806E-3,-1.3494988E-1,3.924972E-1,-2.4348527E-1,1.4830773E-1,4.2912593E-1,-1.4465675E-1,-2.9954457E-1,1.9419967E-1,-1.3899048E-1,3.0579263E-1,2.9086357E-1,6.347935E-1,5.083474E-3,-4.1691837E-1,-4.3876696E-1,-1.7779848E-1,9.298268E-2,4.9717912E-1,-4.2469293E-1,8.301335E-2,2.0712072E-1,6.897352E-1,3.4168996E-2,5.119422E-1,6.8032324E-1,1.1200426E-1,3.0560312E-1,-1.5346126E-1,-4.7687635E-1,8.402785E-2,-2.3866308E-1,-1.2247216E-1,-1.13912456E-1,-2.5833743E-2,-6.896013E-2,6.213057E-2,1.721974E-1,3.6848094E-2,-1.6700558E-1,8.0152825E-2,5.134693E-2,-2.753592E-1,-4.9563505E-2,9.358991E-2,1.0703891E-1,2.5353822E-1,9.362965E-2,-2.8870521E-2,6.474117E-2,1.9684507E-1,1.08039044E-1,2.3354878E-1,1.820363E-1,-7.243396E-2,1.4360055E-1,-4.4142506E-3,-1.038028E-1,4.097615E-2,-1.5572579E-1,5.623252E-2,-1.624816E-1,7.363358E-2],"categories":[],"categories_nodes":[],"categories_segments":[],"categories_sizes":[],"default_left":[0,0,0,0,0,0,0,0,0,0,0,0,0,0,0,0,0,0,0,0,0,0,0,0,0,0,0,0,0,0,0,0,0,0,0,0,0,0,0,0,0,0,0,0,0,0,0,0,0,0,0,0,0,0,0,0,0,0,0,0,0,0,0],"id":5,"left_children":[1,3,5,7,9,11,13,15,17,19,21,23,25,27,29,31,33,35,37,39,41,43,45,47,49,51,53,55,57,59,61,-1,-1,-1,-1,-1,-1,-1,-1,-1,-1,-1,-1,-1,-1,-1,-1,-1,-1,-1,-1,-1,-1,-1,-1,-1,-1,-1,-1,-1,-1,-1,-1],"loss_changes":[2.164781E3,9.143509E2,2.074159E2,5.2763367E2,3.728307E2,2.8037378E2,2.746038E1,3.2300037E2,7.483888E1,1.8511447E2,2.0148953E2,3.349084E2,9.431177E1,2.0797527E1,7.218548E0,9.651428E1,1.8824417E2,6.753157E1,1.7506165E1,1.16684525E2,1.4509265E2,1.6539764E2,5.597345E1,9.9046394E1,1.3526959E2,1.1437891E2,5.591329E1,8.363833E0,1.6007093E1,6.086773E0,2.7988126E0,0E0,0E0,0E0,0E0,0E0,0E0,0E0,0E0,0E0,0E0,0E0,0E0,0E0,0E0,0E0,0E0,0E0,0E0,0E0,0E0,0E0,0E0,0E0,0E0,0E0,0E0,0E0,0E0,0E0,0E0,0E0,0E0],"parents":[2147483647,0,0,1,1,2,2,3,3,4,4,5,5,6,6,7,7,8,8,9,9,10,10,11,11,12,12,13,13,14,14,15,15,16,16,17,17,18,18,19,19,20,20,21,21,22,22,23,23,24,24,25,25,26,26,27,27,28,28,29,29,30,30],"right_children":[2,4,6,8,10,12,14,16,18,20,22,24,26,28,30,32,34,36,38,40,42,44,46,48,50,52,54,56,58,60,62,-1,-1,-1,-1,-1,-1,-1,-1,-1,-1,-1,-1,-1,-1,-1,-1,-1,-1,-1,-1,-1,-1,-1,-1,-1,-1,-1,-1,-1,-1,-1,-1],"split_conditions":[3.1056026E-1,-5.9426796E-2,1.968303E0,4.556721E-1,5.656437E-1,4.556721E-1,5.8502436E-1,-4.1476235E-1,9.4001895E-1,-6.9134367E-1,1.0974888E0,1.1704053E-1,1.563679E0,3.2074136E-1,4.9731555E0,-1.4435345E-1,-9.6236336E-1,-1.3715768E0,1.5583321E0,5.9764653E-1,2.8836694E0,-1.6257569E0,1.88441E0,-9.339432E-1,-4.0191197E-1,-2.6744574E-1,1.5815089E0,-8.781832E-1,2.790662E0,1.2517402E0,5.781796E-1,-2.3866308E-1,-1.2247216E-1,-1.13912456E-1,-2.5833743E-2,-6.896013E-2,6.213057E-2,1.721974E-1,3.6848094E-2,-1.6700558E-1,8.0152825E-2,5.134693E-2,-2.753592E-1,-4.9563505E-2,9.358991E-2,1.0703891E-1,2.5353822E-1,9.362965E-2,-2.8870521E-2,6.474117E-2,1.9684507E-1,1.08039044E-1,2.3354878E-1,1.820363E-1,-7.243396E-2,1.4360055E-1,-4.4142506E-3,-1.038028E-1,4.097615E-2,-1.5572579E-1,5.623252E-2,-1.624816E-1,7.363358E-2],"split_indices":[3,24,17,17,26,17,22,14,17,22,20,14,16,13,3,22,26,26,22,17,16,22,27,25,17,24,21,26,24,7,14,0,0,0,0,0,0,0,0,0,0,0,0,0,0,0,0,0,0,0,0,0,0,0,0,0,0,0,0,0,0,0,0],"split_type":[0,0,0,0,0,0,0,0,0,0,0,0,0,0,0,0,0,0,0,0,0,0,0,0,0,0,0,0,0,0,0,0,0,0,0,0,0,0,0,0,0,0,0,0,0,0,0,0,0,0,0,0,0,0,0,0,0,0,0,0,0,0,0],"sum_hessian":[4.0276926E4,2.9739123E4,1.0537802E4,2.1500826E4,8.238299E3,9.865285E3,6.725164E2,1.905992E4,2.4409058E3,2.916986E3,5.3213125E3,5.9008115E3,3.9644739E3,4.3451843E2,2.3799797E2,8.890552E3,1.0169368E4,1.8306451E3,6.1026056E2,1.2751061E3,1.64188E3,4.2345796E3,1.0867329E3,2.731E3,3.1698115E3,3.6465908E3,3.1788312E2,1.4974709E2,2.8477133E2,2.1260002E2,2.5397943E1,6.987596E2,8.191792E3,3.1747769E3,6.9945913E3,4.7782803E2,1.352817E3,5.0591925E2,1.0434134E2,1.0709832E3,2.0412297E2,1.5097515E3,1.3212851E2,9.3029596E2,3.3042834E3,3.46859E2,7.3987396E2,8.717175E2,1.8592825E3,1.0388921E3,2.1309194E3,8.5679535E2,2.7897954E3,1.3216008E2,1.8572302E2,9.689889E1,5.2848206E1,1.7103632E2,1.1373503E2,2.0010437E2,1.2495664E1,4.7258487E0,2.0672094E1],"tree_param":{"num_deleted":"0","num_feature":"28","num_nodes":"63","size_leaf_vector":"1"}},{"base_weights":[3.5225002E-3,-1.113389E-1,2.7529696E-1,-3.5587966E-1,-2.1789018E-2,9.853132E-2,3.9170623E-1,-4.320859E-1,-2.2221908E-1,-4.6209056E-2,6.531389E-1,-6.270217E-2,3.508213E-1,3.275198E-1,7.205466E-1,-4.8403555E-1,-2.7107656E-1,-3.0228454E-1,-6.6999026E-2,-1.8023631E-1,6.627417E-2,3.6747184E-1,8.3541554E-1,1.0011089E-1,-3.4904957E-1,5.0944203E-1,-1.9577608E-1,2.5251E-2,3.9107567E-1,7.624009E-1,-1.0027475E-1,-1.5414953E-1,-9.065776E-2,-9.349099E-2,4.8395805E-2,-1.0507975E-1,-1.9812047E-2,-9.047416E-2,8.317564E-3,-7.777381E-2,3.3341076E-2,-1.3419747E-2,6.553312E-2,1.2417842E-1,-1.987512E-1,1.0217158E-1,2.6421866E-1,-8.795702E-3,1.2392249E-1,-1.1233446E-1,1.816323E-1,1.7251849E-1,-1.733666E-2,2.1244797E-1,-8.938731E-2,-7.1177535E-2,1.8535267E-1,1.4799471E-1,4.768071E-2,1.4701262E-1,2.712228E-1,9.7469814E-2,-1.083744E-1],"categories":[],"categories_nodes":[],"categories_segments":[],"categories_sizes":[],"default_left":[0,0,0,0,0,0,0,0,0,0,0,0,0,0,0,0,0,0,0,0,0,0,0,0,0,0,0,0,0,0,0,0,0,0,0,0,0,0,0,0,0,0,0,0,0,0,0,0,0,0,0,0,0,0,0,0,0,0,0,0,0,0,0],"id":6,"left_children":[1,3,5,7,9,11,13,15,17,19,21,23,25,27,29,31,33,35,37,39,41,43,45,47,49,51,53,55,57,59,61,-1,-1,-1,-1,-1,-1,-1,-1,-1,-1,-1,-1,-1,-1,-1,-1,-1,-1,-1,-1,-1,-1,-1,-1,-1,-1,-1,-1,-1,-1,-1,-1],"loss_changes":[1.2054491E3,5.944066E2,2.3602191E2,7.401166E1,3.275118E2,1.8536719E2,1.4575171E2,3.8618103E1,3.283824E1,2.8911276E2,3.582306E1,1.2967552E2,1.5414409E2,1.1119855E2,3.8853638E1,1.881549E1,1.9909836E1,1.9745209E1,2.0029068E1,2.0147748E2,1.7613983E2,1.3292252E1,9.1805725E0,7.1852646E1,2.4667976E1,5.1300873E1,3.718952E1,1.5676135E2,1.1344177E2,4.1001953E1,6.291791E0,0E0,0E0,0E0,0E0,0E0,0E0,0E0,0E0,0E0,0E0,0E0,0E0,0E0,0E0,0E0,0E0,0E0,0E0,0E0,0E0,0E0,0E0,0E0,0E0,0E0,0E0,0E0,0E0,0E0,0E0,0E0,0E0],"parents":[2147483647,0,0,1,1,2,2,3,3,4,4,5,5,6,6,7,7,8,8,9,9,10,10,11,11,12,12,13,13,14,14,15,15,16,16,17,17,18,18,19,19,20,20,21,21,22,22,23,23,24,24,25,25,26,26,27,27,28,28,29,29,30,30],"right_children":[2,4,6,8,10,12,14,16,18,20,22,24,26,28,30,32,34,36,38,40,42,44,46,48,50,52,54,56,58,60,62,-1,-1,-1,-1,-1,-1,-1,-1,-1,-1,-1,-1,-1,-1,-1,-1,-1,-1,-1,-1,-1,-1,-1,-1,-1,-1,-1,-1,-1,-1,-1,-1],"split_conditions":[2.0938888E-1,-5.701367E-1,1.024589E-1,-1.4392881E-1,2.112117E0,6.656501E-1,1.0645987E0,-1.6697967E-1,-3.4545842E-1,6.175755E-1,1.898494E0,-1.8514493E-1,5.368398E-1,-3.2702723E-1,1.8311536E0,-2.092445E-1,5.870972E-1,7.0482886E-1,-5.714772E-1,4.4474548E-1,-2.5444864E-3,2.8836694E0,2.5895455E-1,7.123417E-1,4.9731555E0,2.2170944E0,-2.0610044E0,2.0847933E0,4.2963585E-1,-2.9641435E-1,3.1463987E-1,-1.5414953E-1,-9.065776E-2,-9.349099E-2,4.8395805E-2,-1.0507975E-1,-1.9812047E-2,-9.047416E-2,8.317564E-3,-7.777381E-2,3.3341076E-2,-1.3419747E-2,6.553312E-2,1.2417842E-1,-1.987512E-1,1.0217158E-1,2.6421866E-1,-8.795702E-3,1.2392249E-1,-1.1233446E-1,1.816323E-1,1.7251849E-1,-1.733666E-2,2.1244797E-1,-8.938731E-2,-7.1177535E-2,1.8535267E-1,1.4799471E-1,4.768071E-2,1.4701262E-1,2.712228E-1,9.7469814E-2,-1.083744E-1],"split_indices":[3,24,26,23,20,17,20,17,17,26,27,16,14,17,17,0,25,23,26,17,14,16,6,3,3,17,22,14,22,17,16,0,0,0,0,0,0,0,0,0,0,0,0,0,0,0,0,0,0,0,0,0,0,0,0,0,0,0,0,0,0,0,0],"split_type":[0,0,0,0,0,0,0,0,0,0,0,0,0,0,0,0,0,0,0,0,0,0,0,0,0,0,0,0,0,0,0,0,0,0,0,0,0,0,0,0,0,0,0,0,0,0,0,0,0,0,0,0,0,0,0,0,0,0,0,0,0,0,0],"sum_hessian":[3.8613918E4,2.7142947E4,1.147097E4,7.2746167E3,1.9868332E4,4.555445E3,6.915525E3,4.6316567E3,2.64296E3,1.9175463E4,6.9286926E2,2.7797275E3,1.7757172E3,5.7877993E3,1.1277256E3,3.5002844E3,1.1313722E3,1.7429604E3,8.999995E2,8.749527E3,1.0425936E4,2.7106604E2,4.2180322E2,1.772538E3,1.0071895E3,1.3763678E3,3.9934937E2,1.00577545E3,4.7820234E3,1.0730797E3,5.464594E1,3.0059187E3,4.943658E2,1.0346025E3,9.676965E1,1.4483231E3,2.946373E2,2.582552E2,6.417443E2,6.8831733E3,1.8663538E3,6.028726E3,4.397209E3,2.599398E2,1.112625E1,3.609906E1,3.8570416E2,1.2545929E3,5.1794507E2,9.8167523E2,2.551429E1,1.2336412E3,1.4272652E2,3.9955753E1,3.5939362E2,6.9742554E2,3.083499E2,3.3190916E3,1.4629321E3,3.6871448E2,7.043652E2,2.0691183E1,3.3954754E1],"tree_param":{"num_deleted":"0","num_feature":"28","num_nodes":"63","size_leaf_vector":"1"}},{"base_weights":[3.2759395E-3,-1.4414968E-1,1.4424746E-1,-2.4139608E-1,1.9248526E-1,-2.4861544E-2,2.6343784E-1,-2.6188725E-1,3.4429997E-1,-1.8873857E-1,3.1682375E-1,-1.10261686E-1,2.4023926E-1,3.827261E-1,5.7711497E-2,-3.56634E-1,-1.4948204E-1,5.1744133E-1,3.003645E-2,-4.3743613E-1,6.2707907E-1,1.8577527E-1,6.8070525E-1,-4.8285773E-1,-4.269836E-2,4.4771758E-1,-3.0185544E-1,1.6761006E-1,5.1652074E-1,1.9687252E-1,-1.0136443E-1,-1.6463073E-1,-8.449092E-2,-2.4960965E-1,-3.723827E-2,7.740638E-2,2.03595E-1,-4.0256202E-2,1.4098549E-1,-2.864625E-1,-2.7045218E-2,3.79332E-2,2.451146E-1,-2.2578613E-1,1.0816769E-1,2.3971337E-1,-1.4783205E-1,-1.8516321E-1,-3.0949634E-2,-4.999804E-2,5.235117E-2,1.499109E-1,-5.8354508E-2,2.8380541E-2,-1.6856062E-1,3.6044316E-3,2.1927728E-1,1.7057826E-1,-8.7525696E-2,7.145627E-2,-1.11719556E-1,-2.474182E-2,-2.8668383E-1],"categories":[],"categories_nodes":[],"categories_segments":[],"categories_sizes":[],"default_left":[0,0,0,0,0,0,0,0,0,0,0,0,0,0,0,0,0,0,0,0,0,0,0,0,0,0,0,0,0,0,0,0,0,0,0,0,0,0,0,0,0,0,0,0,0,0,0,0,0,0,0,0,0,0,0,0,0,0,0,0,0,0,0],"id":7,"left_children":[1,3,5,7,9,11,13,15,17,19,21,23,25,27,29,31,33,35,37,39,41,43,45,47,49,51,53,55,57,59,61,-1,-1,-1,-1,-1,-1,-1,-1,-1,-1,-1,-1,-1,-1,-1,-1,-1,-1,-1,-1,-1,-1,-1,-1,-1,-1,-1,-1,-1,-1,-1,-1],"loss_changes":[7.762026E2,5.9769275E2,3.84829E2,1.7009149E2,1.940406E2,1.7874516E2,2.748094E2,1.4570972E2,2.6061592E1,2.0460754E2,1.4704477E2,1.5030092E2,2.1650095E2,2.0393054E2,9.103646E1,1.0685095E2,1.0825961E2,1.2745239E1,1.2439073E1,1.3871489E2,2.231263E1,3.7266077E2,1.1382272E2,4.668895E1,1.361568E2,4.655954E1,5.500448E1,2.3836752E2,1.8409045E2,5.1675148E1,3.0892452E1,0E0,0E0,0E0,0E0,0E0,0E0,0E0,0E0,0E0,0E0,0E0,0E0,0E0,0E0,0E0,0E0,0E0,0E0,0E0,0E0,0E0,0E0,0E0,0E0,0E0,0E0,0E0,0E0,0E0,0E0,0E0,0E0],"parents":[2147483647,0,0,1,1,2,2,3,3,4,4,5,5,6,6,7,7,8,8,9,9,10,10,11,11,12,12,13,13,14,14,15,15,16,16,17,17,18,18,19,19,20,20,21,21,22,22,23,23,24,24,25,25,26,26,27,27,28,28,29,29,30,30],"right_children":[2,4,6,8,10,12,14,16,18,20,22,24,26,28,30,32,34,36,38,40,42,44,46,48,50,52,54,56,58,60,62,-1,-1,-1,-1,-1,-1,-1,-1,-1,-1,-1,-1,-1,-1,-1,-1,-1,-1,-1,-1,-1,-1,-1,-1,-1,-1,-1,-1,-1,-1,-1,-1],"split_conditions":[-9.152642E-2,5.569374E-1,-2.0854802E-1,1.2794607E0,-1.0224932E0,8.4385896E-1,4.7626033E-1,8.156364E-1,9.4102037E-1,3.9367523E0,1.9812292E0,-1.1463197E-1,3.6532965E-1,-2.33704E-1,9.3604034E-1,-1.00278676E-1,-1.4703835E0,-2.3846026E-1,1.3543379E0,-2.3706334E0,-1.5649774E0,-2.1592221E0,2.0609603E0,9.106564E-1,-1.342001E0,2.7409573E0,1.4059057E0,7.423467E-1,1.5386033E0,1.8311536E0,9.6447057E-1,-1.6463073E-1,-8.449092E-2,-2.4960965E-1,-3.723827E-2,7.740638E-2,2.03595E-1,-4.0256202E-2,1.4098549E-1,-2.864625E-1,-2.7045218E-2,3.79332E-2,2.451146E-1,-2.2578613E-1,1.0816769E-1,2.3971337E-1,-1.4783205E-1,-1.8516321E-1,-3.0949634E-2,-4.999804E-2,5.235117E-2,1.499109E-1,-5.8354508E-2,2.8380541E-2,-1.6856062E-1,3.6044316E-3,2.1927728E-1,1.7057826E-1,-8.7525696E-2,7.145627E-2,-1.11719556E-1,-2.474182E-2,-2.8668383E-1],"split_indices":[17,14,26,7,17,17,22,26,4,14,14,22,14,14,26,22,22,14,7,22,17,22,16,3,26,17,21,17,17,17,14,0,0,0,0,0,0,0,0,0,0,0,0,0,0,0,0,0,0,0,0,0,0,0,0,0,0,0,0,0,0,0,0],"split_type":[0,0,0,0,0,0,0,0,0,0,0,0,0,0,0,0,0,0,0,0,0,0,0,0,0,0,0,0,0,0,0,0,0,0,0,0,0,0,0,0,0,0,0,0,0,0,0,0,0,0,0,0,0,0,0,0,0,0,0,0,0,0,0],"sum_hessian":[3.7346293E4,1.8255246E4,1.9091047E4,1.4163893E4,4.0913535E3,7.893057E3,1.119799E4,1.368564E4,4.7825308E2,1.0061041E3,3.0852495E3,5.9703423E3,1.9227148E3,7.087511E3,4.110479E3,7.4249507E3,6.2606885E3,3.0794583E2,1.7030722E2,7.714083E2,2.3469582E2,2.269442E3,8.1580756E2,9.1548865E2,5.0548535E3,1.3906422E3,5.3207263E2,2.7186685E3,4.368843E3,2.1923523E3,1.9181267E3,2.0827842E3,5.3421665E3,2.2309473E2,6.0375938E3,1.19018875E2,1.8892697E2,1.2451847E2,4.5788754E1,3.091058E2,4.6230252E2,6.5017624E1,1.6967819E2,3.558129E2,1.913629E3,7.413639E2,7.444367E1,6.7575073E2,2.3973792E2,3.2183232E3,1.8365303E3,1.2867115E3,1.03930626E2,2.1099403E2,3.210786E2,2.1310608E3,5.8760767E2,4.1046924E3,2.6415048E2,2.04455E3,1.4780232E2,1.877698E3,4.0428753E1],"tree_param":{"num_deleted":"0","num_feature":"28","num_nodes":"63","size_leaf_vector":"1"}},{"base_weights":[3.7843564E-3,-5.5216722E-2,2.553909E-1,-8.2593165E-2,3.512071E-1,2.1602951E-1,6.080118E-1,-2.1186247E-1,-1.67846E-2,4.8604378E-1,6.1791673E-2,1.9720165E-1,7.908503E-1,2.6994684E-1,7.4946856E-1,-2.4260248E-1,4.1380176E-1,-1.6570939E-1,6.03875E-2,1.5835808E-1,5.986064E-1,-1.1100416E-1,3.6247516E-1,-6.1963665E-1,2.195936E-1,8.362437E-1,3.116192E-1,-5.6533545E-2,3.9733163E-1,8.0538356E-1,2.2857884E-1,-1.0573409E-1,-3.7731208E-2,-3.7215333E-2,1.9680113E-1,-6.266282E-2,1.6966441E-1,2.2951445E-2,-2.010267E-1,2.9587233E-2,1.7628166E-1,1.2728646E-1,2.0751801E-1,-6.725491E-2,5.517472E-2,1.2008988E-2,1.3430575E-1,-2.423153E-1,1.3650371E-1,5.8962118E-2,2.1709423E-1,1.7874543E-1,2.8700745E-1,1.5029457E-1,-3.995033E-2,-9.9909484E-2,1.729056E-1,1.4276153E-1,-3.327145E-2,2.0809E-1,2.9067472E-1,1.536001E-1,-8.0716245E-2],"categories":[],"categories_nodes":[],"categories_segments":[],"categories_sizes":[],"default_left":[0,0,0,0,0,0,0,0,0,0,0,0,0,0,0,0,0,0,0,0,0,0,0,0,0,0,0,0,0,0,0,0,0,0,0,0,0,0,0,0,0,0,0,0,0,0,0,0,0,0,0,0,0,0,0,0,0,0,0,0,0,0,0],"id":8,"left_children":[1,3,5,7,9,11,13,15,17,19,21,23,25,27,29,31,33,35,37,39,41,43,45,47,49,51,53,55,57,59,61,-1,-1,-1,-1,-1,-1,-1,-1,-1,-1,-1,-1,-1,-1,-1,-1,-1,-1,-1,-1,-1,-1,-1,-1,-1,-1,-1,-1,-1,-1,-1,-1],"loss_changes":[5.3662213E2,3.2583075E2,9.5173096E1,2.3338376E2,7.209047E1,6.6712036E1,3.274463E1,1.7809842E2,2.0895892E2,4.6402588E1,3.0617758E1,1.09585236E2,3.9949646E0,8.539892E0,1.3946289E1,1.1317224E2,5.6589874E1,1.9600975E2,1.4104851E2,8.241138E0,1.4931488E1,1.2541692E1,5.8897324E0,3.2690998E1,6.754443E1,4.5876007E0,1.626609E0,1.0403837E1,5.938345E0,7.3272705E0,6.9678545E0,0E0,0E0,0E0,0E0,0E0,0E0,0E0,0E0,0E0,0E0,0E0,0E0,0E0,0E0,0E0,0E0,0E0,0E0,0E0,0E0,0E0,0E0,0E0,0E0,0E0,0E0,0E0,0E0,0E0,0E0,0E0,0E0],"parents":[2147483647,0,0,1,1,2,2,3,3,4,4,5,5,6,6,7,7,8,8,9,9,10,10,11,11,12,12,13,13,14,14,15,15,16,16,17,17,18,18,19,19,20,20,21,21,22,22,23,23,24,24,25,25,26,26,27,27,28,28,29,29,30,30],"right_children":[2,4,6,8,10,12,14,16,18,20,22,24,26,28,30,32,34,36,38,40,42,44,46,48,50,52,54,56,58,60,62,-1,-1,-1,-1,-1,-1,-1,-1,-1,-1,-1,-1,-1,-1,-1,-1,-1,-1,-1,-1,-1,-1,-1,-1,-1,-1,-1,-1,-1,-1,-1,-1],"split_conditions":[4.8451886E-1,1.2434559E0,1.9536698E0,-3.892581E-1,9.6211827E-1,4.4479523E0,1.8858138E0,2.6251075E0,-4.733032E-1,-3.2530698E-1,1.316501E0,-2.9896436E0,-2.6762583E0,-2.1641292E-1,1.5130069E0,8.015632E-1,-2.7469194E0,1.0491632E0,3.2518082E0,3.0036554E-1,-9.455772E-2,3.4650132E-1,-5.9392774E-1,1.2758751E-1,2.891898E0,-3.3320203E0,1.7855504E0,2.4651842E0,1.735447E0,3.3177557E0,1.1461487E0,-1.0573409E-1,-3.7731208E-2,-3.7215333E-2,1.9680113E-1,-6.266282E-2,1.6966441E-1,2.2951445E-2,-2.010267E-1,2.9587233E-2,1.7628166E-1,1.2728646E-1,2.0751801E-1,-6.725491E-2,5.517472E-2,1.2008988E-2,1.3430575E-1,-2.423153E-1,1.3650371E-1,5.8962118E-2,2.1709423E-1,1.7874543E-1,2.8700745E-1,1.5029457E-1,-3.995033E-2,-9.9909484E-2,1.729056E-1,1.4276153E-1,-3.327145E-2,2.0809E-1,2.9067472E-1,1.536001E-1,-8.0716245E-2],"split_indices":[3,7,19,17,1,18,27,14,14,18,7,22,22,17,16,26,22,17,16,6,14,24,17,17,18,22,19,14,17,20,23,0,0,0,0,0,0,0,0,0,0,0,0,0,0,0,0,0,0,0,0,0,0,0,0,0,0,0,0,0,0,0,0],"split_type":[0,0,0,0,0,0,0,0,0,0,0,0,0,0,0,0,0,0,0,0,0,0,0,0,0,0,0,0,0,0,0,0,0,0,0,0,0,0,0,0,0,0,0,0,0,0,0,0,0,0,0,0,0,0,0,0,0,0,0,0,0,0,0],"sum_hessian":[3.6146246E4,2.9280766E4,6.865482E3,2.743365E4,1.8471157E3,6.1775264E3,6.879558E2,9.253858E3,1.8179791E4,1.2595981E3,5.875176E2,5.9829033E3,1.9462277E2,2.0380186E2,4.8415393E2,8.821075E3,4.3278308E2,6.204792E3,1.1975E4,3.2266922E2,9.369289E2,3.7350418E2,2.1401337E2,1.5892136E2,5.823982E3,1.7710245E2,1.7520329E1,5.735648E1,1.4644539E2,4.3672723E2,4.7426716E1,4.545454E3,4.2756216E3,1.345278E2,2.9825528E2,5.8596094E3,3.4518265E2,1.1717362E4,2.5763794E2,2.8433145E2,3.8337746E1,3.2816705E2,6.087619E2,2.7009283E2,1.0341134E2,4.5041557E1,1.6897182E2,1.3546175E2,2.3459618E1,5.570597E3,2.5338478E2,6.1095844E1,1.160066E2,1.2199988E1,5.3203397E0,4.0246975E1,1.7109503E1,1.2689882E2,1.9546574E1,2.6255258E2,1.7417464E2,3.0198572E1,1.7228142E1],"tree_param":{"num_deleted":"0","num_feature":"28","num_nodes":"63","size_leaf_vector":"1"}},{"base_weights":[3.2707427E-3,-6.4926475E-2,1.5172184E-1,-1.423032E-1,1.6313384E-1,-1.5987366E-2,2.3492855E-1,-4.0318003E-1,-1.0818476E-1,-9.3943134E-2,2.805076E-1,1.5769422E-2,-4.547672E-1,2.8065273E-1,-2.1539652E-1,-5.3080434E-1,-1.5005685E-1,-1.279894E-1,4.0396172E-1,-2.3951831E-1,3.5298076E-1,4.6304983E-1,1.6844921E-1,-8.160897E-2,2.7127737E-1,3.0630052E-1,-6.232666E-1,2.3741433E-1,6.710835E-1,1.21524036E-1,-3.857325E-1,-1.8784997E-1,-5.1783826E-2,-6.449252E-2,1.02941565E-1,-7.708424E-2,-2.3712162E-2,7.441077E-2,2.0382246E-1,-2.0623419E-1,1.5223561E-2,-3.597961E-2,1.7392538E-1,3.710884E-2,1.6750178E-1,1.7172638E-2,1.2342468E-1,-1.171851E-1,-8.223295E-3,1.1813068E-1,-7.5603346E-3,1.6771501E-1,-7.5182766E-2,-2.3920299E-1,1.4848708E-2,8.438711E-3,8.777383E-2,2.0987855E-1,-7.009391E-2,1.1203156E-1,-1.425679E-1,-2.6980367E-1,-7.161906E-2],"categories":[],"categories_nodes":[],"categories_segments":[],"categories_sizes":[],"default_left":[0,0,0,0,0,0,0,0,0,0,0,0,0,0,0,0,0,0,0,0,0,0,0,0,0,0,0,0,0,0,0,0,0,0,0,0,0,0,0,0,0,0,0,0,0,0,0,0,0,0,0,0,0,0,0,0,0,0,0,0,0,0,0],"id":9,"left_children":[1,3,5,7,9,11,13,15,17,19,21,23,25,27,29,31,33,35,37,39,41,43,45,47,49,51,53,55,57,59,61,-1,-1,-1,-1,-1,-1,-1,-1,-1,-1,-1,-1,-1,-1,-1,-1,-1,-1,-1,-1,-1,-1,-1,-1,-1,-1,-1,-1,-1,-1,-1,-1],"loss_changes":[3.58344E2,4.280183E2,1.5548438E2,1.6114865E2,1.8543695E2,5.1504482E1,1.5340411E2,6.757269E1,1.6250864E2,1.25446686E2,8.622034E1,8.5793686E1,3.2181644E1,1.13980225E2,3.9475037E1,4.7434326E1,2.2593397E1,9.732431E1,2.5452896E1,1.8908241E2,5.0883553E1,5.1804688E1,7.065114E1,4.180433E1,3.4564774E1,6.599437E0,2.39973E1,7.0286316E1,1.753836E1,3.4973225E1,3.4256813E1,0E0,0E0,0E0,0E0,0E0,0E0,0E0,0E0,0E0,0E0,0E0,0E0,0E0,0E0,0E0,0E0,0E0,0E0,0E0,0E0,0E0,0E0,0E0,0E0,0E0,0E0,0E0,0E0,0E0,0E0,0E0,0E0],"parents":[2147483647,0,0,1,1,2,2,3,3,4,4,5,5,6,6,7,7,8,8,9,9,10,10,11,11,12,12,13,13,14,14,15,15,16,16,17,17,18,18,19,19,20,20,21,21,22,22,23,23,24,24,25,25,26,26,27,27,28,28,29,29,30,30],"right_children":[2,4,6,8,10,12,14,16,18,20,22,24,26,28,30,32,34,36,38,40,42,44,46,48,50,52,54,56,58,60,62,-1,-1,-1,-1,-1,-1,-1,-1,-1,-1,-1,-1,-1,-1,-1,-1,-1,-1,-1,-1,-1,-1,-1,-1,-1,-1,-1,-1,-1,-1,-1,-1],"split_conditions":[2.2988023E-1,3.0854103E-1,-1.1461633E0,-6.4192885E-1,-7.809199E-1,1.0355042E0,1.735447E0,3.052603E-1,4.9971548E-1,2.8095632E0,-5.3429747E-1,9.200948E-1,5.362065E-1,1.9193811E0,-2.5444864E-3,4.4252366E-1,2.2055387E0,-5.8881325E-1,5.161833E-1,-1.9653953E0,-1.3918954E0,-8.692841E-2,1.270192E0,1.2579034E-1,7.570436E-1,1.4445449E0,2.5167985E0,-5.552676E-1,2.8836694E0,2.7409573E0,2.2170944E0,-1.8784997E-1,-5.1783826E-2,-6.449252E-2,1.02941565E-1,-7.708424E-2,-2.3712162E-2,7.441077E-2,2.0382246E-1,-2.0623419E-1,1.5223561E-2,-3.597961E-2,1.7392538E-1,3.710884E-2,1.6750178E-1,1.7172638E-2,1.2342468E-1,-1.171851E-1,-8.223295E-3,1.1813068E-1,-7.5603346E-3,1.6771501E-1,-7.5182766E-2,-2.3920299E-1,1.4848708E-2,8.438711E-3,8.777383E-2,2.0987855E-1,-7.009391E-2,1.1203156E-1,-1.425679E-1,-2.6980367E-1,-7.161906E-2],"split_indices":[17,14,26,22,17,13,17,23,6,14,25,17,16,19,14,16,23,23,24,22,17,26,14,22,22,17,3,14,16,17,17,0,0,0,0,0,0,0,0,0,0,0,0,0,0,0,0,0,0,0,0,0,0,0,0,0,0,0,0,0,0,0,0],"split_type":[0,0,0,0,0,0,0,0,0,0,0,0,0,0,0,0,0,0,0,0,0,0,0,0,0,0,0,0,0,0,0,0,0,0,0,0,0,0,0,0,0,0,0,0,0,0,0,0,0,0,0,0,0,0,0,0,0,0,0,0,0,0,0],"sum_hessian":[3.5393688E4,2.425274E4,1.1140947E4,1.8109045E4,6.1436943E3,3.6947388E3,7.446209E3,2.0931975E3,1.6015849E4,1.9258394E3,4.217855E3,3.4462778E3,2.4846106E2,6.7601836E3,6.86025E2,1.3908408E3,7.023567E2,1.5420298E4,5.95551E2,1.4530167E3,4.728227E2,1.6031707E3,2.6146846E3,2.495776E3,9.5050183E2,4.4889423E1,2.0357164E2,6.0876167E3,6.725673E2,2.3046239E2,4.5556262E2,1.097818E3,2.930228E2,6.21159E2,8.119768E1,4.2415337E3,1.1178764E4,3.8149393E2,2.1405708E2,5.708004E2,8.822163E2,1.5339665E2,3.1942603E2,3.5197647E2,1.2511942E3,1.7945461E3,8.2013837E2,3.7149612E2,2.1242798E3,6.723775E2,2.7812427E2,3.0873749E1,1.4015675E1,1.6157823E2,4.199342E1,1.2702089E3,4.8174077E3,6.5223944E2,2.0327906E1,1.6231593E2,6.8146454E1,1.0023445E2,3.553282E2],"tree_param":{"num_deleted":"0","num_feature":"28","num_nodes":"63","size_leaf_vector":"1"}},{"base_weights":[3.1191136E-3,-1.978545E-2,3.0977762E-1,1.8073805E-1,-4.99985E-2,2.5592204E-2,4.8425594E-1,1.5690503E-1,5.221001E-1,-8.862612E-2,1.12770624E-1,-1.9559811E-1,1.4345545E-1,3.7018424E-1,7.5088704E-1,4.1399185E-2,2.3020786E-1,6.5304434E-1,1.6834933E-1,-1.4167409E-1,2.4522709E-2,1.7263702E-1,-2.81164E-1,-3.7588814E-1,1.5699598E-1,-2.5678236E-2,2.739309E-1,5.3159337E-2,4.3780017E-1,7.8688544E-1,1.5116699E-1,-8.2796745E-2,2.8632106E-2,8.196553E-2,-3.6037445E-2,1.1908723E-1,2.3449868E-1,-5.5565197E-2,7.711205E-2,-5.371655E-2,5.919393E-2,-4.3324884E-2,2.943308E-2,8.809692E-2,1.9504124E-2,8.6038694E-2,-1.7728457E-1,-2.5667104E-1,-6.577532E-2,-1.839655E-1,1.0533087E-1,-4.696485E-2,6.3858084E-2,9.567106E-2,-6.924044E-2,5.14695E-2,-7.455588E-2,-1.3523973E-3,1.4873709E-1,9.242601E-2,2.4621488E-1,1.4454962E-1,-1.754036E-1],"categories":[],"categories_nodes":[],"categories_segments":[],"categories_sizes":[],"default_left":[0,0,0,0,0,0,0,0,0,0,0,0,0,0,0,0,0,0,0,0,0,0,0,0,0,0,0,0,0,0,0,0,0,0,0,0,0,0,0,0,0,0,0,0,0,0,0,0,0,0,0,0,0,0,0,0,0,0,0,0,0,0,0],"id":10,"left_children":[1,3,5,7,9,11,13,15,17,19,21,23,25,27,29,31,33,35,37,39,41,43,45,47,49,51,53,55,57,59,61,-1,-1,-1,-1,-1,-1,-1,-1,-1,-1,-1,-1,-1,-1,-1,-1,-1,-1,-1,-1,-1,-1,-1,-1,-1,-1,-1,-1,-1,-1,-1,-1],"loss_changes":[2.4243275E2,1.9458638E2,1.1893118E2,3.4133926E1,1.755045E2,2.38453E1,4.4926086E1,3.3287537E1,1.2583832E1,1.3541092E2,1.2631324E2,2.0274395E1,1.3172125E1,2.2331894E1,9.474228E0,2.6234858E1,3.6280426E1,6.265831E0,2.4113903E0,1.946568E2,8.95415E1,6.052231E1,1.2450735E2,1.564432E1,1.640597E1,8.172251E0,7.720051E0,6.631869E0,2.2045822E1,6.533478E0,6.705338E0,0E0,0E0,0E0,0E0,0E0,0E0,0E0,0E0,0E0,0E0,0E0,0E0,0E0,0E0,0E0,0E0,0E0,0E0,0E0,0E0,0E0,0E0,0E0,0E0,0E0,0E0,0E0,0E0,0E0,0E0,0E0,0E0],"parents":[2147483647,0,0,1,1,2,2,3,3,4,4,5,5,6,6,7,7,8,8,9,9,10,10,11,11,12,12,13,13,14,14,15,15,16,16,17,17,18,18,19,19,20,20,21,21,22,22,23,23,24,24,25,25,26,26,27,27,28,28,29,29,30,30],"right_children":[2,4,6,8,10,12,14,16,18,20,22,24,26,28,30,32,34,36,38,40,42,44,46,48,50,52,54,56,58,60,62,-1,-1,-1,-1,-1,-1,-1,-1,-1,-1,-1,-1,-1,-1,-1,-1,-1,-1,-1,-1,-1,-1,-1,-1,-1,-1,-1,-1,-1,-1,-1,-1],"split_conditions":[1.9262037E0,-7.896703E-1,1.8884492E0,1.2460846E0,4.8898867E-1,-4.082626E-1,3.0009928E0,-2.430886E-1,1.0999477E0,1.1819048E-1,1.8442631E0,1.377511E0,1.8591157E0,7.7485226E-2,3.5595515E0,-3.846873E-1,7.518607E-1,-9.3262605E-2,-4.524545E-1,9.736722E-1,3.360822E-1,4.713828E-1,3.8436827E-1,-1.666398E0,-1.2788218E0,1.761532E0,2.0609603E0,3.745449E-1,-2.0610044E0,1.2533772E-1,1.0790095E0,-8.2796745E-2,2.8632106E-2,8.196553E-2,-3.6037445E-2,1.1908723E-1,2.3449868E-1,-5.5565197E-2,7.711205E-2,-5.371655E-2,5.919393E-2,-4.3324884E-2,2.943308E-2,8.809692E-2,1.9504124E-2,8.6038694E-2,-1.7728457E-1,-2.5667104E-1,-6.577532E-2,-1.839655E-1,1.0533087E-1,-4.696485E-2,6.3858084E-2,9.567106E-2,-6.924044E-2,5.14695E-2,-7.455588E-2,-1.3523973E-3,1.4873709E-1,9.242601E-2,2.4621488E-1,1.4454962E-1,-1.754036E-1],"split_indices":[19,25,27,7,17,17,20,23,4,23,12,14,27,24,12,14,16,18,14,16,26,22,16,22,17,21,16,23,22,24,16,0,0,0,0,0,0,0,0,0,0,0,0,0,0,0,0,0,0,0,0,0,0,0,0,0,0,0,0,0,0,0,0],"split_type":[0,0,0,0,0,0,0,0,0,0,0,0,0,0,0,0,0,0,0,0,0,0,0,0,0,0,0,0,0,0,0,0,0,0,0,0,0,0,0,0,0,0,0,0,0,0,0,0,0,0,0,0,0,0,0,0,0,0,0,0,0,0,0],"sum_hessian":[3.4513633E4,3.2115814E4,2.39782E3,4.2046484E3,2.7911164E4,9.1258075E2,1.4852393E3,3.931613E3,2.730355E2,2.2558209E4,5.352955E3,3.1700592E2,5.9557477E2,1.041883E3,4.4335623E2,1.5270121E3,2.404601E3,1.9865527E2,7.438023E1,1.5357736E4,7.2004736E3,4.6472695E3,7.056856E2,2.0970999E2,1.0729594E2,2.5971402E2,3.3586078E2,1.8346643E2,8.584166E2,4.1795618E2,2.5400057E1,2.2157521E2,1.3054369E3,2.1418633E3,2.627378E2,6.778234E1,1.3087292E2,1.4698037E1,5.96822E1,1.3832823E4,1.5249132E3,2.1844802E3,5.015993E3,2.1866804E3,2.4605894E3,2.4908563E2,4.5659995E2,5.0524067E1,1.5918593E2,2.1162836E1,8.61331E1,1.6792674E2,9.178726E1,3.087213E2,2.713947E1,1.3206404E2,5.1402386E1,9.960686E1,7.588098E2,2.8249866E1,3.897063E2,1.7763098E1,7.6369586E0],"tree_param":{"num_deleted":"0","num_feature":"28","num_nodes":"63","size_leaf_vector":"1"}},{"base_weights":[2.6797352E-3,-1.35976225E-2,3.543482E-1,1.0261295E-2,-2.2157624E-1,4.27117E-1,6.260261E-2,-1.8006876E-1,4.4688337E-2,-1.4314644E-1,-4.1932964E-1,2.5143275E-1,5.415587E-1,-6.2784016E-2,2.7764058E-1,-2.1759352E-1,1.7443767E-1,1.0543637E-1,-4.9381245E-2,-2.4289656E-1,1.1847055E-1,-4.9586624E-1,-6.922106E-2,1.8810141E-1,6.4138067E-1,6.877945E-1,3.592813E-1,-1.67607E-1,2.81339E-1,1.5321173E-1,5.6126153E-1,-4.1963115E-2,-1.0999277E-1,-2.0113744E-2,9.686888E-2,5.3780847E-3,9.757162E-2,-2.1452269E-2,1.4547254E-1,-4.8174232E-2,-1.13721535E-1,8.195234E-2,-3.98327E-2,-1.6374949E-1,-5.7111446E-2,-6.779293E-2,3.6349807E-2,7.216874E-2,-5.0745256E-2,2.1774465E-1,-9.474952E-3,1.7730406E-1,2.9193637E-1,2.184642E-2,1.3459507E-1,4.9069813E-3,-1.062519E-1,-4.0791567E-2,1.1889748E-1,-8.774987E-2,7.092351E-2,1.8970062E-1,-1.1165379E-2],"categories":[],"categories_nodes":[],"categories_segments":[],"categories_sizes":[],"default_left":[0,0,0,0,0,0,0,0,0,0,0,0,0,0,0,0,0,0,0,0,0,0,0,0,0,0,0,0,0,0,0,0,0,0,0,0,0,0,0,0,0,0,0,0,0,0,0,0,0,0,0,0,0,0,0,0,0,0,0,0,0,0,0],"id":11,"left_children":[1,3,5,7,9,11,13,15,17,19,21,23,25,27,29,31,33,35,37,39,41,43,45,47,49,51,53,55,57,59,61,-1,-1,-1,-1,-1,-1,-1,-1,-1,-1,-1,-1,-1,-1,-1,-1,-1,-1,-1,-1,-1,-1,-1,-1,-1,-1,-1,-1,-1,-1,-1,-1],"loss_changes":[1.9418335E2,1.6088734E2,3.1833145E1,1.9059917E2,5.169162E1,2.4009506E1,8.126793E0,5.9309082E1,1.4076709E2,6.2416767E1,2.5342514E1,1.1624353E1,1.9114288E1,6.929636E0,3.829916E0,4.6624847E1,1.533097E1,2.8788568E2,1.14304596E2,1.9343628E1,2.571239E1,1.17560425E1,5.1322947E0,7.73518E0,3.775011E0,1.0523834E1,8.298477E0,5.0467834E0,2.2094789E0,2.980216E0,1.4468241E0,0E0,0E0,0E0,0E0,0E0,0E0,0E0,0E0,0E0,0E0,0E0,0E0,0E0,0E0,0E0,0E0,0E0,0E0,0E0,0E0,0E0,0E0,0E0,0E0,0E0,0E0,0E0,0E0,0E0,0E0,0E0,0E0],"parents":[2147483647,0,0,1,1,2,2,3,3,4,4,5,5,6,6,7,7,8,8,9,9,10,10,11,11,12,12,13,13,14,14,15,15,16,16,17,17,18,18,19,19,20,20,21,21,22,22,23,23,24,24,25,25,26,26,27,27,28,28,29,29,30,30],"right_children":[2,4,6,8,10,12,14,16,18,20,22,24,26,28,30,32,34,36,38,40,42,44,46,48,50,52,54,56,58,60,62,-1,-1,-1,-1,-1,-1,-1,-1,-1,-1,-1,-1,-1,-1,-1,-1,-1,-1,-1,-1,-1,-1,-1,-1,-1,-1,-1,-1,-1,-1,-1,-1],"split_conditions":[1.2728492E0,1.3103179E0,1.3103179E0,-1.1924601E0,1.0737077E0,1.8356812E-1,1.3330697E0,1.0979233E0,9.2443115E-1,-2.667832E-1,1.8620932E0,1.3861208E0,1.6141716E0,3.8332167E-1,1.2533772E-1,8.4915566E-1,-1.10791005E-1,-3.1024808E-1,3.4662364E0,1.3832881E0,9.746148E-1,6.656501E-1,6.292444E-2,-5.1193494E-2,1.6229637E0,1.3466909E0,3.524147E-1,1.3046271E0,1.4708777E-1,-4.631941E-1,1.8119107E0,-4.1963115E-2,-1.0999277E-1,-2.0113744E-2,9.686888E-2,5.3780847E-3,9.757162E-2,-2.1452269E-2,1.4547254E-1,-4.8174232E-2,-1.13721535E-1,8.195234E-2,-3.98327E-2,-1.6374949E-1,-5.7111446E-2,-6.779293E-2,3.6349807E-2,7.216874E-2,-5.0745256E-2,2.1774465E-1,-9.474952E-3,1.7730406E-1,2.9193637E-1,2.184642E-2,1.3459507E-1,4.9069813E-3,-1.062519E-1,-4.0791567E-2,1.1889748E-1,-8.774987E-2,7.092351E-2,1.8970062E-1,-1.1165379E-2],"split_indices":[7,1,1,4,7,6,7,7,7,18,27,7,10,17,24,7,18,18,18,4,7,17,3,20,11,7,6,4,6,22,4,0,0,0,0,0,0,0,0,0,0,0,0,0,0,0,0,0,0,0,0,0,0,0,0,0,0,0,0,0,0,0,0],"split_type":[0,0,0,0,0,0,0,0,0,0,0,0,0,0,0,0,0,0,0,0,0,0,0,0,0,0,0,0,0,0,0,0,0,0,0,0,0,0,0,0,0,0,0,0,0,0,0,0,0,0,0,0,0,0,0,0,0,0,0,0,0,0,0],"sum_hessian":[3.3921188E4,3.2421486E4,1.4997024E3,2.9085771E4,3.3357146E3,1.1999423E3,2.9976013E2,4.4545483E3,2.4631223E4,2.3896812E3,9.460334E2,4.7458453E2,7.253577E2,1.8979846E2,1.0996168E2,4.0285137E3,4.260348E2,1.496624E4,9.664983E3,1.7300964E3,6.595848E2,7.759812E2,1.7005217E2,4.0955173E2,6.503279E1,4.0092993E2,3.2442783E2,1.458762E2,4.3922264E1,7.750101E1,3.246067E1,2.6491465E3,1.3793673E3,1.6240857E2,2.6362622E2,1.070526E4,4.26098E3,9.2814795E3,3.8350385E2,1.0796464E3,6.504501E2,4.0816898E2,2.5141582E2,6.66229E2,1.0975224E2,9.3161026E1,7.689114E1,3.5739618E2,5.2155537E1,5.7713158E1,7.319636E0,3.0167505E2,9.9254875E1,7.757771E1,2.4685011E2,7.3909744E1,7.196645E1,9.448595E0,3.447367E1,1.1795515E1,6.570549E1,2.8964369E1,3.496301E0],"tree_param":{"num_deleted":"0","num_feature":"28","num_nodes":"63","size_leaf_vector":"1"}},{"base_weights":[2.1748904E-3,-1.8710673E-1,2.651209E-2,-3.11151E-1,-1.4131276E-1,-1.8200879E-1,4.7148377E-2,-6.115559E-1,-2.9302377E-1,1.1897529E0,-1.4490457E-1,-2.3678301E-1,1.3577382E-1,8.022074E-2,-1.136264E-1,-1.3800643E-1,-6.392962E-1,-3.683376E-1,-2.1097614E-1,1.5309771E0,5.241183E-1,-3.2569057E-1,-1.24367215E-1,-1.3072686E-1,-4.0081552E-1,-1.2792344E-1,3.069197E-1,5.663914E-2,2.9357386E-1,-3.210309E-2,-2.1055663E-1,9.093975E-2,-1.3357668E-1,-2.197039E-1,-1.3216199E-1,-1.20917E-1,-4.96804E-2,-7.5483665E-2,-3.0229783E-2,1.3936427E-1,5.1945186E-1,2.3988763E-2,2.068442E-1,-1.5169007E-1,-7.8668416E-2,-2.7858155E-2,-8.8243335E-2,-4.6941627E-2,1.1032809E-1,-1.5102243E-1,-6.395428E-2,-1.3915566E-2,-1.5754576E-1,1.03151746E-1,-1.0230854E-1,4.549538E-2,-1.7470863E-2,1.0987872E-1,3.459263E-2,-3.3767775E-2,1.0053511E-1,-7.839263E-2,4.1084167E-2],"categories":[],"categories_nodes":[],"categories_segments":[],"categories_sizes":[],"default_left":[0,0,0,0,0,0,0,0,0,0,0,0,0,0,0,0,0,0,0,0,0,0,0,0,0,0,0,0,0,0,0,0,0,0,0,0,0,0,0,0,0,0,0,0,0,0,0,0,0,0,0,0,0,0,0,0,0,0,0,0,0,0,0],"id":12,"left_children":[1,3,5,7,9,11,13,15,17,19,21,23,25,27,29,31,33,35,37,39,41,43,45,47,49,51,53,55,57,59,61,-1,-1,-1,-1,-1,-1,-1,-1,-1,-1,-1,-1,-1,-1,-1,-1,-1,-1,-1,-1,-1,-1,-1,-1,-1,-1,-1,-1,-1,-1,-1,-1],"loss_changes":[1.5556345E2,2.181073E1,1.2876752E2,5.4652634E0,1.3615421E1,4.6938736E1,1.44789E2,6.745777E-1,5.974724E0,9.4095993E-1,1.0374538E1,3.9942062E1,1.7948593E1,1.136066E2,3.6705456E1,7.4336207E-1,6.86779E-1,3.5184784E0,2.084549E0,1.6946602E-1,2.4760127E-1,3.1281452E0,1.3455593E1,1.7995363E1,1.7261063E1,5.0572534E0,5.8810215E0,2.2198047E2,2.9080048E1,7.462974E1,3.746438E1,0E0,0E0,0E0,0E0,0E0,0E0,0E0,0E0,0E0,0E0,0E0,0E0,0E0,0E0,0E0,0E0,0E0,0E0,0E0,0E0,0E0,0E0,0E0,0E0,0E0,0E0,0E0,0E0,0E0,0E0,0E0,0E0],"parents":[2147483647,0,0,1,1,2,2,3,3,4,4,5,5,6,6,7,7,8,8,9,9,10,10,11,11,12,12,13,13,14,14,15,15,16,16,17,17,18,18,19,19,20,20,21,21,22,22,23,23,24,24,25,25,26,26,27,27,28,28,29,29,30,30],"right_children":[2,4,6,8,10,12,14,16,18,20,22,24,26,28,30,32,34,36,38,40,42,44,46,48,50,52,54,56,58,60,62,-1,-1,-1,-1,-1,-1,-1,-1,-1,-1,-1,-1,-1,-1,-1,-1,-1,-1,-1,-1,-1,-1,-1,-1,-1,-1,-1,-1,-1,-1,-1,-1],"split_conditions":[-6.178795E-1,-6.313671E-1,-1.3935418E0,1.1567628E-1,-1.4703835E0,1.0699638E0,1.0999477E0,-5.836676E-1,-6.122885E-1,4.454344E-1,-1.3935418E0,8.374462E-1,2.3178054E-1,1.2072121E0,1.0087079E0,-4.8704246E-1,-6.841551E-1,-3.1353548E-1,-4.8480746E-1,-6.9698465E-1,-7.012473E-1,-1.4220219E0,1.2291766E0,1.6765099E0,1.7647359E0,1.5060616E0,1.0464467E-1,8.857181E-1,7.7412325E-1,1.9658434E-1,1.2979411E0,9.093975E-2,-1.3357668E-1,-2.197039E-1,-1.3216199E-1,-1.20917E-1,-4.96804E-2,-7.5483665E-2,-3.0229783E-2,1.3936427E-1,5.1945186E-1,2.3988763E-2,2.068442E-1,-1.5169007E-1,-7.8668416E-2,-2.7858155E-2,-8.8243335E-2,-4.6941627E-2,1.1032809E-1,-1.5102243E-1,-6.395428E-2,-1.3915566E-2,-1.5754576E-1,1.03151746E-1,-1.0230854E-1,4.549538E-2,-1.7470863E-2,1.0987872E-1,3.459263E-2,-3.3767775E-2,1.0053511E-1,-7.839263E-2,4.1084167E-2],"split_indices":[24,14,1,22,22,7,4,18,23,14,1,7,6,7,7,5,17,0,0,24,3,4,4,16,21,10,4,7,1,6,7,0,0,0,0,0,0,0,0,0,0,0,0,0,0,0,0,0,0,0,0,0,0,0,0,0,0,0,0,0,0,0,0],"split_type":[0,0,0,0,0,0,0,0,0,0,0,0,0,0,0,0,0,0,0,0,0,0,0,0,0,0,0,0,0,0,0,0,0,0,0,0,0,0,0,0,0,0,0,0,0,0,0,0,0,0,0,0,0,0,0,0,0,0,0,0,0,0,0],"sum_hessian":[3.3767723E4,3.8463328E3,2.992139E4,1.035535E3,2.8107976E3,2.6938062E3,2.7227584E4,5.7067974E1,9.7846704E2,6.675636E0,2.804122E3,2.2979736E3,3.9583255E2,2.2582688E4,4.644897E3,3.4886572E0,5.3579315E1,5.083494E2,4.7011768E2,3.5538163E0,3.1218195E0,2.845378E2,2.5195842E3,1.396716E3,9.012577E2,1.5589146E2,2.399411E2,2.033622E4,2.2464663E3,2.5236816E3,2.121215E3,1.4377615E0,2.0508957E0,3.4665565E1,1.891375E1,4.331785E2,7.51709E1,3.4253656E2,1.27581116E2,1.0874227E0,2.4663935E0,1.2494398E0,1.8723797E0,7.237023E1,2.1216759E2,2.1265017E3,3.9308237E2,1.3287751E3,6.794078E1,5.8158356E2,3.1967413E2,1.3026837E2,2.5623095E1,2.2745055E2,1.2490559E1,1.113022E4,9.206001E3,1.59503E3,6.514363E2,2.0706958E3,4.5298596E2,1.8511124E3,2.7010275E2],"tree_param":{"num_deleted":"0","num_feature":"28","num_nodes":"63","size_leaf_vector":"1"}},{"base_weights":[1.4338408E-3,-5.3038154E-2,7.830931E-2,-9.212816E-2,3.5866606E-1,1.03020824E-1,-2.4778669E-1,-3.5989887E-1,-5.4337323E-2,4.158124E-1,-1.9896501E-1,-1.3803636E-2,1.8758592E-1,-4.0071356E-1,7.5130716E-2,-4.4429988E-1,-8.0995426E-2,-8.392915E-2,1.3040659E-1,1.7595688E-1,5.705911E-1,2.6597103E-2,-3.3247173E-1,-1.7186272E-1,1.4873573E-1,1.0445321E-2,2.7438712E-1,-5.630557E-2,-5.422992E-1,3.4902534E-1,-4.7487978E-2,4.4844466E-1,-1.3567393E-1,-8.003173E-2,3.9322957E-2,-3.1017516E-2,9.148991E-2,7.980287E-2,-3.027766E-2,1.0119951E-2,1.178427E-1,1.7527008E-1,9.368336E-3,-5.7776663E-2,1.12170905E-1,-2.4586438E-1,-8.178668E-2,-6.0673315E-2,1.3137732E-1,-2.2834204E-3,8.872474E-2,7.325383E-2,-6.2499296E-2,1.02025434E-1,-1.07798595E-2,8.152926E-2,-6.6976234E-2,-2.989268E-1,-6.427913E-2,1.6502519E-1,5.3784106E-2,2.5992196E-2,-9.220865E-2],"categories":[],"categories_nodes":[],"categories_segments":[],"categories_sizes":[],"default_left":[0,0,0,0,0,0,0,0,0,0,0,0,0,0,0,0,0,0,0,0,0,0,0,0,0,0,0,0,0,0,0,0,0,0,0,0,0,0,0,0,0,0,0,0,0,0,0,0,0,0,0,0,0,0,0,0,0,0,0,0,0,0,0],"id":13,"left_children":[1,3,5,7,9,11,13,15,17,19,21,23,25,27,29,31,33,35,37,39,41,43,45,47,49,51,53,55,57,59,61,-1,-1,-1,-1,-1,-1,-1,-1,-1,-1,-1,-1,-1,-1,-1,-1,-1,-1,-1,-1,-1,-1,-1,-1,-1,-1,-1,-1,-1,-1,-1,-1],"loss_changes":[1.4084181E2,3.1683508E2,1.12425606E2,1.8191394E2,5.448436E1,1.2810196E2,4.856536E1,5.2302063E1,8.615036E1,5.7398193E1,4.807982E0,1.3992908E2,1.1565274E2,3.2500954E1,1.0653045E1,2.6974152E1,2.0433327E1,1.02830315E2,6.8279655E1,1.8766104E1,6.905121E0,4.6532006E0,2.6970987E0,5.1246178E1,6.172456E1,1.2659596E2,1.0292969E2,1.0766869E1,7.0197815E1,3.248002E0,7.6828003E0,0E0,0E0,0E0,0E0,0E0,0E0,0E0,0E0,0E0,0E0,0E0,0E0,0E0,0E0,0E0,0E0,0E0,0E0,0E0,0E0,0E0,0E0,0E0,0E0,0E0,0E0,0E0,0E0,0E0,0E0,0E0,0E0],"parents":[2147483647,0,0,1,1,2,2,3,3,4,4,5,5,6,6,7,7,8,8,9,9,10,10,11,11,12,12,13,13,14,14,15,15,16,16,17,17,18,18,19,19,20,20,21,21,22,22,23,23,24,24,25,25,26,26,27,27,28,28,29,29,30,30],"right_children":[2,4,6,8,10,12,14,16,18,20,22,24,26,28,30,32,34,36,38,40,42,44,46,48,50,52,54,56,58,60,62,-1,-1,-1,-1,-1,-1,-1,-1,-1,-1,-1,-1,-1,-1,-1,-1,-1,-1,-1,-1,-1,-1,-1,-1,-1,-1,-1,-1,-1,-1,-1,-1],"split_conditions":[-8.1075765E-2,8.624263E-1,1.329242E0,-3.642199E-1,2.2170944E0,-3.6412573E-1,2.752809E0,1.1330678E0,5.5257577E-1,-2.1001358E-1,2.7409573E0,7.699116E-1,-1.2761573E-1,2.9530948E-1,-6.664392E-1,-1.3918954E0,-1.1218648E0,3.332312E-1,8.2565695E-1,1.1745048E0,2.557649E0,5.3556174E-1,-6.816472E-1,4.433759E0,-9.384268E-2,-1.5828426E-1,9.301786E-1,1.5955015E0,2.2170944E0,7.7271974E-1,6.518674E-1,4.4844466E-1,-1.3567393E-1,-8.003173E-2,3.9322957E-2,-3.1017516E-2,9.148991E-2,7.980287E-2,-3.027766E-2,1.0119951E-2,1.178427E-1,1.7527008E-1,9.368336E-3,-5.7776663E-2,1.12170905E-1,-2.4586438E-1,-8.178668E-2,-6.0673315E-2,1.3137732E-1,-2.2834204E-3,8.872474E-2,7.325383E-2,-6.2499296E-2,1.02025434E-1,-1.07798595E-2,8.152926E-2,-6.6976234E-2,-2.989268E-1,-6.427913E-2,1.6502519E-1,5.3784106E-2,2.5992196E-2,-9.220865E-2],"split_indices":[14,17,17,22,17,17,0,9,25,24,17,26,26,14,22,17,22,6,7,17,23,25,14,14,16,16,26,17,17,14,26,0,0,0,0,0,0,0,0,0,0,0,0,0,0,0,0,0,0,0,0,0,0,0,0,0,0,0,0,0,0,0,0],"split_type":[0,0,0,0,0,0,0,0,0,0,0,0,0,0,0,0,0,0,0,0,0,0,0,0,0,0,0,0,0,0,0,0,0,0,0,0,0,0,0,0,0,0,0,0,0,0,0,0,0,0,0,0,0,0,0,0,0,0,0,0,0,0,0],"sum_hessian":[3.3631387E4,1.9684068E4,1.3947318E4,1.79779E4,1.7061683E3,1.296548E4,9.818383E2,2.2223928E3,1.5755508E4,1.5478029E3,1.5836543E2,5.4446606E3,7.5208193E3,6.6613153E2,3.1570676E2,1.7056428E3,5.1674994E2,1.3580726E4,2.1747817E3,6.0789874E2,9.399041E2,5.9180183E1,9.918526E1,2.7603452E3,2.6843157E3,2.4737024E3,5.047117E3,1.9447284E2,4.716587E2,9.70589E1,2.1864787E2,6.197591E0,1.6994453E3,2.7531424E2,2.4143575E2,1.293416E4,6.465654E2,1.3709841E3,8.037976E2,3.6781845E2,2.400803E2,9.166359E2,2.3268223E1,3.6555412E1,2.2624771E1,9.464699E0,8.972056E1,2.629979E3,1.3036607E2,1.3013223E3,1.3829935E3,1.1959106E3,1.2777916E3,4.1652075E3,8.8190924E2,6.537565E1,1.290972E2,1.9695793E2,2.7470074E2,4.340552E1,5.365338E1,1.4465422E2,7.3993645E1],"tree_param":{"num_deleted":"0","num_feature":"28","num_nodes":"63","size_leaf_vector":"1"}},{"base_weights":[1.654884E-3,2.7736235E-1,-1.1532137E-2,3.1486362E-1,6.571055E-2,-1.7822322E-2,4.137441E-1,2.055713E-1,4.2889395E-1,-5.6741133E-2,5.1434314E-1,-1.357033E-1,3.706417E-3,2.7510047E-1,6.379595E-1,2.3513529E-1,-4.557812E-1,-2.6818764E-1,4.5679E-1,7.1561277E-1,-1.373291E-1,8.7439185E-1,4.2668775E-1,-1.6460134E-1,1.6565825E-1,4.0057812E-2,-1.0456086E-1,1.4050609E-1,4.8705375E-1,6.973045E-1,-5.3388126E-2,-7.188921E-2,7.987156E-2,-2.620438E-1,6.1596144E-2,-2.4927568E-1,1.5369724E-1,1.7426284E-1,1.1659857E-1,3.5729063E-1,1.1857088E-1,-9.16799E-2,7.203446E-2,4.909664E-2,2.86431E-1,1.6603139E-1,-6.170952E-4,-3.265693E-2,-8.0133855E-2,-5.593167E-2,7.9457656E-2,-5.894728E-3,2.6755758E-2,-4.1095696E-2,6.6397013E-3,-5.3251176E-3,1.0871278E-1,1.6198656E-1,-7.706192E-2,2.161162E-1,-6.716785E-2,1.2015266E-1,-1.0971563E-1],"categories":[],"categories_nodes":[],"categories_segments":[],"categories_sizes":[],"default_left":[0,0,0,0,0,0,0,0,0,0,0,0,0,0,0,0,0,0,0,0,0,0,0,0,0,0,0,0,0,0,0,0,0,0,0,0,0,0,0,0,0,0,0,0,0,0,0,0,0,0,0,0,0,0,0,0,0,0,0,0,0,0,0],"id":14,"left_children":[1,3,5,7,9,11,13,15,17,19,21,23,25,27,29,31,33,35,37,39,41,43,45,47,49,51,53,55,57,59,61,-1,-1,-1,-1,-1,-1,-1,-1,-1,-1,-1,-1,-1,-1,-1,-1,-1,-1,-1,-1,-1,-1,-1,-1,-1,-1,-1,-1,-1,-1,-1,-1],"loss_changes":[1.2035542E2,1.1972816E1,8.45189E1,1.5905731E1,1.2592955E1,7.901023E1,1.4139824E1,1.295705E1,1.2317741E1,1.1336901E1,1.1776791E0,4.1897217E1,1.0361458E2,8.099379E0,7.2251434E0,9.363098E0,8.038852E0,1.1301382E1,4.875038E0,2.1519136E0,1.0511133E1,3.3889437E-1,2.254737E0,2.5043922E1,1.4760651E1,5.7815063E1,2.7188072E1,6.2043715E0,4.4989758E0,3.5936356E0,2.2415922E0,0E0,0E0,0E0,0E0,0E0,0E0,0E0,0E0,0E0,0E0,0E0,0E0,0E0,0E0,0E0,0E0,0E0,0E0,0E0,0E0,0E0,0E0,0E0,0E0,0E0,0E0,0E0,0E0,0E0,0E0,0E0,0E0],"parents":[2147483647,0,0,1,1,2,2,3,3,4,4,5,5,6,6,7,7,8,8,9,9,10,10,11,11,12,12,13,13,14,14,15,15,16,16,17,17,18,18,19,19,20,20,21,21,22,22,23,23,24,24,25,25,26,26,27,27,28,28,29,29,30,30],"right_children":[2,4,6,8,10,12,14,16,18,20,22,24,26,28,30,32,34,36,38,40,42,44,46,48,50,52,54,56,58,60,62,-1,-1,-1,-1,-1,-1,-1,-1,-1,-1,-1,-1,-1,-1,-1,-1,-1,-1,-1,-1,-1,-1,-1,-1,-1,-1,-1,-1,-1,-1,-1,-1],"split_conditions":[-1.0093255E0,6.749497E-1,2.852123E0,9.341936E-1,4.9731555E0,-1.1066449E0,4.761598E0,1.4894713E0,-1.2788218E0,-1.0073724E-1,1.0240752E0,1.1226965E0,8.9345926E-1,1.9072986E0,3.5595515E0,-6.841551E-1,-3.7711805E-1,4.433759E0,-1.2229033E0,-1.7485541E0,6.3475704E-1,1.5024592E-1,-8.7776697E-1,8.435001E-1,-3.8425726E-1,5.1579994E-1,4.3411598E-1,7.632463E-2,3.5595515E0,3.2518082E0,-4.558909E-2,-7.188921E-2,7.987156E-2,-2.620438E-1,6.1596144E-2,-2.4927568E-1,1.5369724E-1,1.7426284E-1,1.1659857E-1,3.5729063E-1,1.1857088E-1,-9.16799E-2,7.203446E-2,4.909664E-2,2.86431E-1,1.6603139E-1,-6.170952E-4,-3.265693E-2,-8.0133855E-2,-5.593167E-2,7.9457656E-2,-5.894728E-3,2.6755758E-2,-4.1095696E-2,6.6397013E-3,-5.3251176E-3,1.0871278E-1,1.6198656E-1,-7.706192E-2,2.161162E-1,-6.716785E-2,1.2015266E-1,-1.0971563E-1],"split_indices":[25,16,20,9,3,1,20,17,17,13,6,7,1,27,12,17,16,14,25,22,26,17,22,7,18,26,17,17,12,16,16,0,0,0,0,0,0,0,0,0,0,0,0,0,0,0,0,0,0,0,0,0,0,0,0,0,0,0,0,0,0,0,0],"split_type":[0,0,0,0,0,0,0,0,0,0,0,0,0,0,0,0,0,0,0,0,0,0,0,0,0,0,0,0,0,0,0,0,0,0,0,0,0,0,0,0,0,0,0,0,0,0,0,0,0,0,0,0,0,0,0,0,0,0,0,0,0,0,0],"sum_hessian":[3.310136E4,1.5100466E3,3.159131E4,1.2823475E3,2.2769907E2,3.1131805E4,4.5950687E2,6.5620795E2,6.261396E2,1.7956213E2,4.813693E1,4.806798E3,2.6325006E4,2.8531146E2,1.7419542E2,6.28746E2,2.7461946E1,2.376145E1,6.023782E2,1.6220945E1,1.6334119E2,7.6673946E0,4.0469532E1,4.3866123E3,4.201855E2,1.9708416E4,6.6165903E3,1.7551743E2,1.0979403E2,1.604167E2,1.3778715E1,3.824606E1,5.9049994E2,1.663215E1,1.0829796E1,1.3769424E1,9.992025E0,2.1083833E2,3.9153983E2,5.436774E0,1.0784171E1,1.13106735E2,5.0234447E1,1.0874833E0,6.579911E0,3.1010914E1,9.458619E0,2.8427888E3,1.5438236E3,9.216845E1,3.2801703E2,8.896641E3,1.0811775E4,5.268209E3,1.3483816E3,1.02981926E2,7.25355E1,1.0276078E2,7.033248E0,1.56708E2,3.7087176E0,5.5014157E0,8.2773E0],"tree_param":{"num_deleted":"0","num_feature":"28","num_nodes":"63","size_leaf_vector":"1"}},{"base_weights":[1.4182647E-3,-1.2623921E-1,2.1841653E-2,-1.5699984E-1,3.4319E-1,-8.053375E-2,4.879674E-2,-3.9251217E-1,-1.0411658E-1,1.3235126E-1,5.126079E-1,-1.3326441E-1,1.538142E-1,-1.640902E-2,1.0105532E-1,-5.134318E-1,-2.3971851E-1,-2.0858863E-1,-1.1547934E-2,-1.8164815E-1,2.3625149E-1,5.8072585E-1,-3.388679E-1,-4.346442E-1,-6.987742E-2,-2.67413E-1,4.6941793E-1,-1.451343E-1,2.6425155E-2,1.7605504E-1,-6.3045256E-2,-7.763394E-2,-1.791129E-1,-8.328169E-2,2.7908979E-2,-7.5543635E-2,-8.385518E-3,-1.4267278E-2,3.5221763E-2,-1.0624447E-1,6.392859E-2,-1.648303E-2,9.962629E-2,1.828171E-1,-9.72365E-2,-1.6337493E-1,5.2562542E-2,1.8505955E-1,-1.8860953E-1,-3.564832E-2,1.20444566E-1,-1.920162E-1,1.381084E-1,-2.9310414E-1,1.6683249E-1,-7.502818E-2,4.984529E-2,-1.3403682E-2,4.501745E-2,5.535571E-2,-1.5934923E-1,4.068261E-3,-6.355493E-2],"categories":[],"categories_nodes":[],"categories_segments":[],"categories_sizes":[],"default_left":[0,0,0,0,0,0,0,0,0,0,0,0,0,0,0,0,0,0,0,0,0,0,0,0,0,0,0,0,0,0,0,0,0,0,0,0,0,0,0,0,0,0,0,0,0,0,0,0,0,0,0,0,0,0,0,0,0,0,0,0,0,0,0],"id":15,"left_children":[1,3,5,7,9,11,13,15,17,19,21,23,25,27,29,31,33,35,37,39,41,43,45,47,49,51,53,55,57,59,61,-1,-1,-1,-1,-1,-1,-1,-1,-1,-1,-1,-1,-1,-1,-1,-1,-1,-1,-1,-1,-1,-1,-1,-1,-1,-1,-1,-1,-1,-1,-1,-1],"loss_changes":[8.583226E1,6.561869E1,7.832151E1,5.304055E1,9.917503E0,7.312004E1,7.655658E1,1.4309425E1,3.3669632E1,4.150218E0,9.166645E0,9.222956E1,1.4463516E2,5.5119217E1,1.5350253E2,9.111397E0,4.4000607E0,1.2763939E1,8.582907E0,2.2453392E0,2.67024E0,3.9211159E0,1.3736644E0,1.7159454E2,9.214247E1,1.2673735E2,7.8509995E1,8.158743E1,6.594623E1,5.133539E1,4.460498E1,0E0,0E0,0E0,0E0,0E0,0E0,0E0,0E0,0E0,0E0,0E0,0E0,0E0,0E0,0E0,0E0,0E0,0E0,0E0,0E0,0E0,0E0,0E0,0E0,0E0,0E0,0E0,0E0,0E0,0E0,0E0,0E0],"parents":[2147483647,0,0,1,1,2,2,3,3,4,4,5,5,6,6,7,7,8,8,9,9,10,10,11,11,12,12,13,13,14,14,15,15,16,16,17,17,18,18,19,19,20,20,21,21,22,22,23,23,24,24,25,25,26,26,27,27,28,28,29,29,30,30],"right_children":[2,4,6,8,10,12,14,16,18,20,22,24,26,28,30,32,34,36,38,40,42,44,46,48,50,52,54,56,58,60,62,-1,-1,-1,-1,-1,-1,-1,-1,-1,-1,-1,-1,-1,-1,-1,-1,-1,-1,-1,-1,-1,-1,-1,-1,-1,-1,-1,-1,-1,-1,-1,-1],"split_conditions":[-6.1820704E-1,1.0034481E0,-5.564082E-1,9.48821E-2,-4.2365438E-1,1.6406052E0,3.360822E-1,7.524709E-2,-4.95611E-1,-6.775867E-1,2.7409573E0,-1.5083876E0,-2.5469992E0,-8.634024E-2,5.275897E-1,8.345786E-1,1.4137797E0,3.3506736E-1,2.1011421E-1,7.5841284E-1,1.1474789E0,2.1823952E0,-6.627296E-1,-8.692841E-2,8.3168983E-1,4.433759E0,-1.6958131E-1,7.589685E-1,-1.2938273E0,2.8836694E0,9.3952996E-1,-7.763394E-2,-1.791129E-1,-8.328169E-2,2.7908979E-2,-7.5543635E-2,-8.385518E-3,-1.4267278E-2,3.5221763E-2,-1.0624447E-1,6.392859E-2,-1.648303E-2,9.962629E-2,1.828171E-1,-9.72365E-2,-1.6337493E-1,5.2562542E-2,1.8505955E-1,-1.8860953E-1,-3.564832E-2,1.20444566E-1,-1.920162E-1,1.381084E-1,-2.9310414E-1,1.6683249E-1,-7.502818E-2,4.984529E-2,-1.3403682E-2,4.501745E-2,5.535571E-2,-1.5934923E-1,4.068261E-3,-6.355493E-2],"split_indices":[14,17,17,22,18,14,26,23,23,23,17,22,22,22,22,7,23,25,25,26,17,9,14,26,14,14,26,17,26,16,26,0,0,0,0,0,0,0,0,0,0,0,0,0,0,0,0,0,0,0,0,0,0,0,0,0,0,0,0,0,0,0,0],"split_type":[0,0,0,0,0,0,0,0,0,0,0,0,0,0,0,0,0,0,0,0,0,0,0,0,0,0,0,0,0,0,0,0,0,0,0,0,0,0,0,0,0,0,0,0,0,0,0,0,0,0,0,0,0,0,0,0,0,0,0,0,0,0,0],"sum_hessian":[3.2919207E4,4.5395195E3,2.8379688E4,4.260973E3,2.785463E2,5.914486E3,2.2465201E4,7.8015924E2,3.4808137E3,1.24895874E2,1.5365042E2,4.8284644E3,1.0860219E3,9.994823E3,1.2470379E4,4.3418704E2,3.4597217E2,1.6346787E3,1.8461351E3,3.0866169E1,9.402971E1,1.4256334E2,1.1087081E1,8.380437E2,3.9904204E3,4.6523663E2,6.2078516E2,2.4948652E3,7.4999585E3,8.558686E3,3.9116929E3,1.0833369E2,3.2585336E2,3.1075497E2,3.5217194E1,1.3187332E3,3.1594547E2,1.4436382E3,4.02497E2,2.155126E1,9.314908E0,2.3389174E1,7.064053E1,1.3850227E2,4.061054E0,7.87603E0,3.2110515E0,1.3022467E2,7.0781903E2,3.6156824E3,3.74738E2,3.0777014E2,1.5746648E2,3.4521557E1,5.862636E2,1.865911E3,6.289541E2,4.761914E3,2.7380442E3,8.458197E3,1.0048844E2,2.5828982E3,1.3287944E3],"tree_param":{"num_deleted":"0","num_feature":"28","num_nodes":"63","size_leaf_vector":"1"}},{"base_weights":[1.1072934E-3,1.4751422E-1,-1.3774864E-2,1.07622616E-1,3.1764233E-1,2.556064E-2,-6.41028E-2,2.0904416E-1,6.0647465E-2,3.886864E-1,-1.4350077E-3,-1.3933138E-2,2.6406762E-1,-1.14175E-1,8.093954E-2,2.3736045E-1,-8.876247E-2,-1.2802547E-1,9.743148E-2,5.4453358E-2,4.236006E-1,-1.6532539E-1,3.6780393E-1,-3.873476E-2,3.1815022E-1,6.279038E-1,1.6036028E-1,-1.4657336E-1,6.6582955E-2,1.8902217E-1,-5.973174E-2,8.236941E-2,1.4232711E-2,-1.1470831E-1,8.350074E-2,-8.471827E-2,3.8387477E-2,9.491652E-3,5.6463838E-2,-1.3802372E-1,9.167314E-2,1.3702047E-1,2.4805581E-2,3.0377952E-2,-1.1025091E-1,7.2408915E-2,1.992882E-1,2.8797323E-1,-1.2728279E-2,3.573067E-2,1.3230722E-1,2.166691E-1,1.22443415E-1,-1.7930489E-2,8.716975E-2,-6.058365E-2,-2.1547442E-2,4.20928E-2,-8.088365E-2,-2.4284022E-2,6.990155E-2,-3.8258158E-2,4.91368E-2],"categories":[],"categories_nodes":[],"categories_segments":[],"categories_sizes":[],"default_left":[0,0,0,0,0,0,0,0,0,0,0,0,0,0,0,0,0,0,0,0,0,0,0,0,0,0,0,0,0,0,0,0,0,0,0,0,0,0,0,0,0,0,0,0,0,0,0,0,0,0,0,0,0,0,0,0,0,0,0,0,0,0,0],"id":16,"left_children":[1,3,5,7,9,11,13,15,17,19,21,23,25,27,29,31,33,35,37,39,41,43,45,47,49,51,53,55,57,59,61,-1,-1,-1,-1,-1,-1,-1,-1,-1,-1,-1,-1,-1,-1,-1,-1,-1,-1,-1,-1,-1,-1,-1,-1,-1,-1,-1,-1,-1,-1,-1,-1],"loss_changes":[7.0976654E1,2.0364708E1,5.853985E1,1.1594669E1,1.2930721E1,1.5635005E2,9.422337E1,6.5211525E0,1.1578295E1,5.421097E0,6.407026E0,1.1730458E2,8.887378E1,5.648642E1,5.063679E1,4.962372E0,7.3982654E0,1.0797436E1,8.327101E0,5.9902816E0,4.732048E0,3.9890943E0,1.0598621E0,4.8912895E1,2.4155472E1,1.0540329E1,5.2650284E1,3.383545E1,3.6386734E1,2.2380173E1,2.1956057E1,0E0,0E0,0E0,0E0,0E0,0E0,0E0,0E0,0E0,0E0,0E0,0E0,0E0,0E0,0E0,0E0,0E0,0E0,0E0,0E0,0E0,0E0,0E0,0E0,0E0,0E0,0E0,0E0,0E0,0E0,0E0,0E0],"parents":[2147483647,0,0,1,1,2,2,3,3,4,4,5,5,6,6,7,7,8,8,9,9,10,10,11,11,12,12,13,13,14,14,15,15,16,16,17,17,18,18,19,19,20,20,21,21,22,22,23,23,24,24,25,25,26,26,27,27,28,28,29,29,30,30],"right_children":[2,4,6,8,10,12,14,16,18,20,22,24,26,28,30,32,34,36,38,40,42,44,46,48,50,52,54,56,58,60,62,-1,-1,-1,-1,-1,-1,-1,-1,-1,-1,-1,-1,-1,-1,-1,-1,-1,-1,-1,-1,-1,-1,-1,-1,-1,-1,-1,-1,-1,-1,-1,-1],"split_conditions":[-8.7295306E-1,5.858464E-1,8.744069E-1,-1.0559806E0,9.015674E-1,1.2897445E-1,1.1833152E0,1.4033928E0,-4.4000965E-1,-1.076118E0,4.195026E0,8.7025416E-1,7.6790595E-1,7.133157E-1,6.279815E-1,4.276897E-1,2.7409573E0,3.8956827E-1,2.7199646E-2,2.4651842E0,1.3046271E0,5.983169E-1,3.5595515E0,-1.0899807E0,3.933629E-1,-6.646331E-2,-8.254697E-1,-1.574979E-1,1.6174781E0,-4.4897962E-1,1.306544E0,8.236941E-2,1.4232711E-2,-1.1470831E-1,8.350074E-2,-8.471827E-2,3.8387477E-2,9.491652E-3,5.6463838E-2,-1.3802372E-1,9.167314E-2,1.3702047E-1,2.4805581E-2,3.0377952E-2,-1.1025091E-1,7.2408915E-2,1.992882E-1,2.8797323E-1,-1.2728279E-2,3.573067E-2,1.3230722E-1,2.166691E-1,1.22443415E-1,-1.7930489E-2,8.716975E-2,-6.058365E-2,-2.1547442E-2,4.20928E-2,-8.088365E-2,-2.4284022E-2,6.990155E-2,-3.8258158E-2,4.91368E-2],"split_indices":[25,20,7,25,16,12,7,17,14,17,3,25,7,20,4,16,17,22,17,14,4,23,12,22,0,20,1,3,16,18,7,0,0,0,0,0,0,0,0,0,0,0,0,0,0,0,0,0,0,0,0,0,0,0,0,0,0,0,0,0,0,0,0],"split_type":[0,0,0,0,0,0,0,0,0,0,0,0,0,0,0,0,0,0,0,0,0,0,0,0,0,0,0,0,0,0,0,0,0,0,0,0,0,0,0,0,0,0,0,0,0,0,0,0,0,0,0,0,0,0,0,0,0,0,0,0,0,0,0],"sum_hessian":[3.2573338E4,3.0047224E3,2.9568615E4,2.4353213E3,5.69401E2,1.659709E4,1.2971526E4,7.6981177E2,1.6655095E3,4.6553033E2,1.0387068E2,1.4240056E4,2.357034E3,9.642805E3,3.328722E3,7.031566E2,6.665515E1,2.7132843E2,1.394181E3,4.427229E1,4.2125806E2,7.232207E1,3.1548615E1,1.3251269E4,9.8878674E2,5.217001E2,1.8353337E3,8.1773213E3,1.465483E3,1.8822104E3,1.4465114E3,5.87602E2,1.1555467E2,3.7012028E1,2.9643127E1,1.6919417E2,1.0213425E2,8.091257E2,5.850554E2,1.4247738E1,3.0024551E1,3.836323E2,3.762577E1,3.1407824E1,4.091424E1,2.338846E1,8.160154E0,4.786662E1,1.3203401E4,3.781601E2,6.106266E2,3.6342276E2,1.5827728E2,6.8232306E2,1.1530107E3,4.6965312E3,3.4807903E3,1.2023866E3,2.630964E2,2.6356992E2,1.6186405E3,1.1102074E3,3.3630396E2],"tree_param":{"num_deleted":"0","num_feature":"28","num_nodes":"63","size_leaf_vector":"1"}},{"base_weights":[1.0133366E-3,-1.3078621E-1,1.5457828E-2,-1.6326724E-1,4.1156292E-2,3.0647308E-2,-1.433204E-1,-1.8852563E-1,-1.6516346E-2,-7.187746E-2,2.263396E-1,-3.766102E-2,5.793966E-2,-1.8018675E-1,-1.992096E-2,-1.4216317E-1,-2.966914E-1,3.048443E-1,-6.0367107E-2,-9.9729426E-2,5.1444733E-1,3.2095283E-1,-3.2752135E-1,-7.609145E-2,1.2767464E-1,6.781928E-2,-1.4309536E-1,-2.1118678E-1,1.6948E-1,-3.7907678E-1,1.771932E-2,-5.0159372E-2,7.698243E-2,-1.18176945E-1,-2.807294E-2,1.0839487E-2,1.6741127E-1,1.474213E-3,-1.5382992E-1,-1.0307578E-2,-8.535392E-2,1.9305341E-1,2.0064218E-2,1.479006E-2,1.1995936E-1,7.82711E-2,-2.2208658E-1,-2.7726503E-2,6.907404E-2,1.4756772E-2,6.641169E-2,1.2678815E-2,4.549651E-2,1.0962851E-1,-1.16293356E-1,-4.8182976E-2,-1.08502395E-1,6.250561E-2,-1.6571072E-1,1.9590558E-1,-1.3617177E-1,3.4494422E-2,-3.7766363E-2],"categories":[],"categories_nodes":[],"categories_segments":[],"categories_sizes":[],"default_left":[0,0,0,0,0,0,0,0,0,0,0,0,0,0,0,0,0,0,0,0,0,0,0,0,0,0,0,0,0,0,0,0,0,0,0,0,0,0,0,0,0,0,0,0,0,0,0,0,0,0,0,0,0,0,0,0,0,0,0,0,0,0,0],"id":17,"left_children":[1,3,5,7,9,11,13,15,17,19,21,23,25,27,29,31,33,35,37,39,41,43,45,47,49,51,53,55,57,59,61,-1,-1,-1,-1,-1,-1,-1,-1,-1,-1,-1,-1,-1,-1,-1,-1,-1,-1,-1,-1,-1,-1,-1,-1,-1,-1,-1,-1,-1,-1,-1,-1],"loss_changes":[6.1630066E1,1.7863926E1,7.036752E1,9.966354E0,1.0667301E1,4.9645588E1,1.1585762E1,1.1464569E1,5.5994115E0,5.223647E0,1.0224466E1,4.831598E1,3.780005E1,2.129646E1,7.9440236E0,1.6096176E1,1.3540764E1,3.2263927E0,1.0319198E1,3.6528018E0,7.9603624E-1,3.5267162E0,7.1564946E0,3.0883957E1,1.0536274E1,3.88517E1,1.1101737E2,1.3658005E1,4.612542E0,4.6012917E0,7.4507027E0,0E0,0E0,0E0,0E0,0E0,0E0,0E0,0E0,0E0,0E0,0E0,0E0,0E0,0E0,0E0,0E0,0E0,0E0,0E0,0E0,0E0,0E0,0E0,0E0,0E0,0E0,0E0,0E0,0E0,0E0,0E0,0E0],"parents":[2147483647,0,0,1,1,2,2,3,3,4,4,5,5,6,6,7,7,8,8,9,9,10,10,11,11,12,12,13,13,14,14,15,15,16,16,17,17,18,18,19,19,20,20,21,21,22,22,23,23,24,24,25,25,26,26,27,27,28,28,29,29,30,30],"right_children":[2,4,6,8,10,12,14,16,18,20,22,24,26,28,30,32,34,36,38,40,42,44,46,48,50,52,54,56,58,60,62,-1,-1,-1,-1,-1,-1,-1,-1,-1,-1,-1,-1,-1,-1,-1,-1,-1,-1,-1,-1,-1,-1,-1,-1,-1,-1,-1,-1,-1,-1,-1,-1],"split_conditions":[-1.361822E0,1.044155E0,1.4667652E0,6.241795E-1,5.3887516E-1,-4.8973566E-1,2.9530948E-1,8.435001E-1,-7.94286E-1,1.2429142E0,1.5130069E0,4.276897E-1,2.167055E0,9.200948E-1,-1.076118E0,4.986827E-1,1.780042E0,1.7097823E-1,8.835575E-1,-1.2986016E-2,5.51122E-1,-2.012317E0,-1.0191864E0,1.8807282E0,3.025233E-1,3.538537E-1,2.566274E-1,1.0885237E0,2.1823952E0,-8.332719E-1,1.6277163E-1,-5.0159372E-2,7.698243E-2,-1.18176945E-1,-2.807294E-2,1.0839487E-2,1.6741127E-1,1.474213E-3,-1.5382992E-1,-1.0307578E-2,-8.535392E-2,1.9305341E-1,2.0064218E-2,1.479006E-2,1.1995936E-1,7.82711E-2,-2.2208658E-1,-2.7726503E-2,6.907404E-2,1.4756772E-2,6.641169E-2,1.2678815E-2,4.549651E-2,1.0962851E-1,-1.16293356E-1,-4.8182976E-2,-1.08502395E-1,6.250561E-2,-1.6571072E-1,1.9590558E-1,-1.3617177E-1,3.4494422E-2,-3.7766363E-2],"split_indices":[4,7,4,17,6,23,14,7,22,0,16,16,16,17,17,14,21,26,13,20,23,22,1,27,0,17,13,7,9,26,16,0,0,0,0,0,0,0,0,0,0,0,0,0,0,0,0,0,0,0,0,0,0,0,0,0,0,0,0,0,0,0,0],"split_type":[0,0,0,0,0,0,0,0,0,0,0,0,0,0,0,0,0,0,0,0,0,0,0,0,0,0,0,0,0,0,0,0,0,0,0,0,0,0,0,0,0,0,0,0,0,0,0,0,0,0,0,0,0,0,0,0,0,0,0,0,0,0,0],"sum_hessian":[3.2370455E4,3.196427E3,2.9174027E4,2.6885864E3,5.078406E2,2.662752E4,2.5465083E3,2.293543E3,3.950435E2,3.1573282E2,1.921078E2,7.601591E3,1.902593E4,1.960374E3,5.861343E2,1.6070406E3,6.865022E2,4.6718052E1,3.4832544E2,3.022071E2,1.35257225E1,1.6443819E2,2.7669622E1,6.168363E3,1.4332275E3,1.8135352E4,8.9057745E2,1.8010925E3,1.5928146E2,5.474051E1,5.313938E2,1.5126573E3,9.438337E1,4.636244E2,2.228778E2,2.3218782E1,2.349927E1,3.052649E2,4.3060547E1,2.2410979E2,7.80973E1,1.0158525E1,3.3671968E0,3.7380604E1,1.2705758E2,1.1559195E1,1.6110428E1,5.8568457E3,3.1151733E2,7.807559E2,6.524716E2,1.3899667E4,4.2356846E3,2.890412E2,6.0153625E2,1.3495836E3,4.515089E2,1.5181737E2,7.4640975E0,3.1781697E0,5.156234E1,3.1693787E2,2.1445592E2],"tree_param":{"num_deleted":"0","num_feature":"28","num_nodes":"63","size_leaf_vector":"1"}},{"base_weights":[7.6981605E-4,-1.8936362E-3,6.1919576E-1,-5.256175E-1,1.2576412E-3,6.7347544E-1,2.067595E-1,5.5316865E-1,-9.0892845E-1,-4.1109975E-3,4.4004142E-1,5.4131943E-1,7.92477E-1,-3.2735062E-1,5.0402826E-1,1.2979909E0,2.1366425E-1,-1.3433255E0,-3.0590463E-1,-5.060335E-1,3.195122E-3,5.206029E-1,-1.905028E-1,-6.346741E-2,7.3804367E-1,8.165737E-1,2.3710038E-1,-1.2023108E0,3.420753E-1,8.103957E-1,1.2378788E-1,9.405965E-2,4.2866874E-1,-5.4629963E-2,1.8625966E-1,-4.515872E-1,6.575374E-2,-1.4496464E-1,2.6133803E-1,3.82182E-1,-1.8960136E-1,-1.6272645E-3,1.1434298E-1,7.998635E-2,1.8775156E-1,-1.5281497E-1,9.03178E-2,-1.795544E-1,6.9804065E-2,2.1961918E-3,2.3093213E-1,8.545953E-2,2.4847798E-1,1.5191449E-1,-6.02412E-2,3.1346272E-4,-5.283264E-1,1.8456048E-1,-9.766141E-2,3.1812146E-2,2.8382766E-1,1.3996686E-1,-1.3701345E-1],"categories":[],"categories_nodes":[],"categories_segments":[],"categories_sizes":[],"default_left":[0,0,0,0,0,0,0,0,0,0,0,0,0,0,0,0,0,0,0,0,0,0,0,0,0,0,0,0,0,0,0,0,0,0,0,0,0,0,0,0,0,0,0,0,0,0,0,0,0,0,0,0,0,0,0,0,0,0,0,0,0,0,0],"id":18,"left_children":[1,3,5,7,9,11,13,15,17,19,21,23,25,27,29,31,33,35,37,39,41,43,45,47,49,51,53,55,57,59,61,-1,-1,-1,-1,-1,-1,-1,-1,-1,-1,-1,-1,-1,-1,-1,-1,-1,-1,-1,-1,-1,-1,-1,-1,-1,-1,-1,-1,-1,-1,-1,-1],"loss_changes":[5.298444E1,5.286249E1,2.9489212E0,7.9720856E1,7.500439E1,1.4811745E0,2.9413552E0,1.2580068E1,3.671514E1,1.1535149E2,1.9649178E1,7.2691803E0,6.328354E-1,4.4285345E0,1.2542169E0,1.578207E0,5.9344783E0,2.110405E1,1.3076661E1,1.01999825E2,1.0100583E2,8.961479E0,7.1025586E0,2.6460083E0,1.0582237E0,1.292839E-1,5.706681E-1,2.1497993E0,1.0507579E0,4.9790192E-1,1.4802778E0,0E0,0E0,0E0,0E0,0E0,0E0,0E0,0E0,0E0,0E0,0E0,0E0,0E0,0E0,0E0,0E0,0E0,0E0,0E0,0E0,0E0,0E0,0E0,0E0,0E0,0E0,0E0,0E0,0E0,0E0,0E0,0E0],"parents":[2147483647,0,0,1,1,2,2,3,3,4,4,5,5,6,6,7,7,8,8,9,9,10,10,11,11,12,12,13,13,14,14,15,15,16,16,17,17,18,18,19,19,20,20,21,21,22,22,23,23,24,24,25,25,26,26,27,27,28,28,29,29,30,30],"right_children":[2,4,6,8,10,12,14,16,18,20,22,24,26,28,30,32,34,36,38,40,42,44,46,48,50,52,54,56,58,60,62,-1,-1,-1,-1,-1,-1,-1,-1,-1,-1,-1,-1,-1,-1,-1,-1,-1,-1,-1,-1,-1,-1,-1,-1,-1,-1,-1,-1,-1,-1,-1,-1],"split_conditions":[4.999048E0,-3.0882618E0,-2.5469992E0,2.4835558E0,3.05634E0,5.8959894E0,1.5386033E0,9.990864E-1,2.5167985E0,-2.5469992E0,-1.7911023E0,-3.3320203E0,1.4894713E0,6.422415E-1,3.6762054E0,-4.1428477E-1,1.8188312E0,1.5130069E0,5.722279E-1,3.9565486E-1,1.9207422E0,-2.9009058E0,3.6762054E0,3.438716E0,-7.1857756E-1,-7.890228E-1,2.3249648E0,-2.262926E0,7.721329E-1,3.017013E0,1.7855504E0,9.405965E-2,4.2866874E-1,-5.4629963E-2,1.8625966E-1,-4.515872E-1,6.575374E-2,-1.4496464E-1,2.6133803E-1,3.82182E-1,-1.8960136E-1,-1.6272645E-3,1.1434298E-1,7.998635E-2,1.8775156E-1,-1.5281497E-1,9.03178E-2,-1.795544E-1,6.9804065E-2,2.1961918E-3,2.3093213E-1,8.545953E-2,2.4847798E-1,1.5191449E-1,-6.02412E-2,3.1346272E-4,-5.283264E-1,1.8456048E-1,-9.766141E-2,3.1812146E-2,2.8382766E-1,1.3996686E-1,-1.3701345E-1],"split_indices":[18,22,22,18,18,18,17,9,3,22,22,22,17,25,0,24,24,16,17,13,18,22,0,13,3,3,14,22,16,14,19,0,0,0,0,0,0,0,0,0,0,0,0,0,0,0,0,0,0,0,0,0,0,0,0,0,0,0,0,0,0,0,0],"split_type":[0,0,0,0,0,0,0,0,0,0,0,0,0,0,0,0,0,0,0,0,0,0,0,0,0,0,0,0,0,0,0,0,0,0,0,0,0,0,0,0,0,0,0,0,0,0,0,0,0,0,0,0,0,0,0,0,0,0,0,0,0,0,0],"sum_hessian":[3.216567E4,3.2028727E4,1.3694518E2,1.9057446E2,3.183815E4,1.2045896E2,1.648622E1,4.9845818E1,1.4072864E2,3.145429E4,3.8386115E2,5.9704063E1,6.0754898E1,5.858648E0,1.0627571E1,1.4722859E1,3.512296E1,8.108803E1,5.964061E1,4.503087E2,3.100398E4,3.4052798E2,4.333318E1,1.4820126E1,4.488394E1,5.7777737E1,2.9771614E0,2.1944292E0,3.6642187E0,5.259008E0,5.368563E0,2.1264198E0,1.2596439E1,1.8091957E1,1.7031002E1,7.350528E1,7.5827484E0,5.2344738E1,7.2958736E0,2.9160273E1,4.211484E2,3.0313646E4,6.9033545E2,1.007956E2,2.3973238E2,2.626112E1,1.7072058E1,4.91651E0,9.903615E0,1.9190948E0,4.2964844E1,1.7883013E0,5.5989433E1,1.7466909E0,1.2304704E0,1.0123693E0,1.1820599E0,2.656094E0,1.0081245E0,1.1372702E0,4.121738E0,3.498867E0,1.8696961E0],"tree_param":{"num_deleted":"0","num_feature":"28","num_nodes":"63","size_leaf_vector":"1"}},{"base_weights":[9.2381815E-4,7.346678E-2,-1.7786762E-2,2.8812157E-2,1.49819E-1,-1.6462433E-1,-7.782322E-3,-3.7421923E-2,1.0981103E-1,2.0683603E-1,-6.936985E-2,-2.1651143E-1,-4.114951E-2,2.7978498E-2,-5.732279E-2,-6.7257404E-2,3.399756E-1,3.1297848E-1,4.4444744E-2,5.5065525E-1,1.7279117E-1,-1.6821629E-1,1.6975835E-1,-6.622825E-1,-1.9618605E-1,1.1683356E-1,-1.1024081E-1,2.4994423E-3,2.2772303E-1,-8.864752E-2,9.131229E-2,-2.7541885E-2,1.0843089E-2,1.1907526E-1,-1.1741664E-1,1.20963536E-1,4.5208305E-2,2.0808384E-2,-1.0025159E-1,4.517152E-2,2.0055248E-1,1.4224628E-2,7.619134E-2,-7.320326E-2,1.0859444E-1,9.3759626E-2,-1.23148516E-1,-2.2744448E-1,9.422812E-2,-6.7869045E-2,8.555491E-2,1.0839347E-2,1.4679196E-1,-2.6110837E-2,-1.9156943E-1,-7.5072455E-3,5.4827314E-2,7.8965925E-2,-7.740978E-2,-3.494876E-2,1.2188851E-2,1.7090542E-2,9.195757E-2],"categories":[],"categories_nodes":[],"categories_segments":[],"categories_sizes":[],"default_left":[0,0,0,0,0,0,0,0,0,0,0,0,0,0,0,0,0,0,0,0,0,0,0,0,0,0,0,0,0,0,0,0,0,0,0,0,0,0,0,0,0,0,0,0,0,0,0,0,0,0,0,0,0,0,0,0,0,0,0,0,0,0,0],"id":19,"left_children":[1,3,5,7,9,11,13,15,17,19,21,23,25,27,29,31,33,35,37,39,41,43,45,47,49,51,53,55,57,59,61,-1,-1,-1,-1,-1,-1,-1,-1,-1,-1,-1,-1,-1,-1,-1,-1,-1,-1,-1,-1,-1,-1,-1,-1,-1,-1,-1,-1,-1,-1,-1,-1],"loss_changes":[4.355489E1,2.2428307E1,3.7472763E1,2.2283E1,3.0355259E1,1.04156E1,4.231346E1,2.57553E1,2.4798939E1,2.2459167E1,1.1892184E1,1.0248283E1,5.281393E0,7.059514E1,4.6627777E1,5.381464E0,7.1349926E0,6.5966988E0,1.3369738E1,8.063461E0,1.7847305E1,1.4379316E1,1.2330504E1,4.874094E0,1.5928349E1,4.4115076E0,4.0676527E0,6.104493E1,2.7125725E1,2.977987E1,1.28683605E1,0E0,0E0,0E0,0E0,0E0,0E0,0E0,0E0,0E0,0E0,0E0,0E0,0E0,0E0,0E0,0E0,0E0,0E0,0E0,0E0,0E0,0E0,0E0,0E0,0E0,0E0,0E0,0E0,0E0,0E0,0E0,0E0],"parents":[2147483647,0,0,1,1,2,2,3,3,4,4,5,5,6,6,7,7,8,8,9,9,10,10,11,11,12,12,13,13,14,14,15,15,16,16,17,17,18,18,19,19,20,20,21,21,22,22,23,23,24,24,25,25,26,26,27,27,28,28,29,29,30,30],"right_children":[2,4,6,8,10,12,14,16,18,20,22,24,26,28,30,32,34,36,38,40,42,44,46,48,50,52,54,56,58,60,62,-1,-1,-1,-1,-1,-1,-1,-1,-1,-1,-1,-1,-1,-1,-1,-1,-1,-1,-1,-1,-1,-1,-1,-1,-1,-1,-1,-1,-1,-1,-1,-1],"split_conditions":[-6.6420996E-1,3.4269613E-1,-1.5529289E0,1.3269526E-2,6.749497E-1,3.985489E-1,9.0754396E-1,5.1756454E-1,-4.3463233E-1,8.519437E-1,7.131107E-1,-1.919865E0,-2.227335E-1,1.7776284E-1,1.2306312E0,3.865328E-1,9.261477E-1,-5.204017E-1,1.4033928E0,-1.2470411E0,9.39526E-1,4.9731555E0,9.608432E-1,3.7369698E-1,8.377122E-1,9.1311026E-1,5.2849615E-1,4.0753412E-1,1.5386033E0,1.8468676E0,1.3543379E0,-2.7541885E-2,1.0843089E-2,1.1907526E-1,-1.1741664E-1,1.20963536E-1,4.5208305E-2,2.0808384E-2,-1.0025159E-1,4.517152E-2,2.0055248E-1,1.4224628E-2,7.619134E-2,-7.320326E-2,1.0859444E-1,9.3759626E-2,-1.23148516E-1,-2.2744448E-1,9.422812E-2,-6.7869045E-2,8.555491E-2,1.0839347E-2,1.4679196E-1,-2.6110837E-2,-1.9156943E-1,-7.5072455E-3,5.4827314E-2,7.8965925E-2,-7.740978E-2,-3.494876E-2,1.2188851E-2,1.7090542E-2,9.195757E-2],"split_indices":[25,6,1,17,16,16,7,14,24,7,26,22,22,14,7,23,26,16,17,4,9,3,17,17,13,26,18,0,17,19,7,0,0,0,0,0,0,0,0,0,0,0,0,0,0,0,0,0,0,0,0,0,0,0,0,0,0,0,0,0,0,0,0],"split_type":[0,0,0,0,0,0,0,0,0,0,0,0,0,0,0,0,0,0,0,0,0,0,0,0,0,0,0,0,0,0,0,0,0,0,0,0,0,0,0,0,0,0,0,0,0,0,0,0,0,0,0,0,0,0,0,0,0,0,0,0,0,0,0],"sum_hessian":[3.2086906E4,6.5784834E3,2.5508424E4,4.151724E3,2.4267593E3,1.6261134E3,2.388231E4,2.2843293E3,1.8673949E3,1.9258495E3,5.0090988E2,1.1444391E3,4.8167432E2,1.3870393E4,1.0011917E4,2.1177322E3,1.6659734E2,4.5363782E2,1.4137571E3,1.7214838E2,1.7537012E3,3.546201E2,1.462898E2,4.8528996E1,1.09591E3,1.4634747E2,3.3532684E2,1.2302163E4,1.5682295E3,8.269524E3,1.7423926E3,1.7115079E3,4.0622412E2,1.5498773E2,1.160961E1,2.9058307E2,1.6305473E2,1.3272296E3,8.652738E1,3.9689472E1,1.3245891E2,6.898575E2,1.0638436E3,3.107382E2,4.3881893E1,1.1777273E2,2.851707E1,4.43937E1,4.1352973E0,1.0320273E3,6.388275E1,1.2118726E2,2.5160215E1,3.2233423E2,1.2992605E1,1.0673317E4,1.6288453E3,1.4618617E3,1.0636781E2,6.803945E3,1.4655797E3,1.5036964E3,2.3869612E2],"tree_param":{"num_deleted":"0","num_feature":"28","num_nodes":"63","size_leaf_vector":"1"}},{"base_weights":[8.376149E-4,1.0195514E-2,-1.3028136E-1,-6.1086386E-2,2.957756E-2,-1.4457126E-1,1.17896035E-1,-8.761453E-2,8.4477946E-2,-7.3316386E-3,7.030458E-2,-1.0215025E-1,-2.394336E-1,-8.4156595E-2,2.7698126E-1,-4.227624E-2,-1.7873006E-1,-7.3338576E-2,1.6039005E-1,-8.8724814E-2,5.110687E-2,1.3480185E-1,-4.3615345E-2,-1.366525E-1,1.3706829E-1,-3.546222E-1,-1.1197802E-1,-1.9719878E-1,1.856801E-1,3.2584468E-1,-2.5584683E-1,-2.094386E-2,4.807103E-2,-6.622945E-2,-1.13904495E-2,-7.381464E-3,-1.08605936E-1,5.9716243E-2,-3.3049904E-2,-4.6454865E-2,3.2458402E-2,-1.2806159E-2,2.8764216E-2,8.894062E-3,5.9990298E-2,-3.278496E-3,-5.0533857E-2,-4.6566375E-2,2.7398176E-2,1.15914494E-1,6.1322777E-3,-5.877397E-2,-1.6650936E-1,-6.306008E-2,2.7415322E-2,-3.0401384E-3,-1.317754E-1,9.661881E-2,-1.7562716E-1,6.512801E-3,1.2952699E-1,-1.7705677E-1,6.0357053E-2],"categories":[],"categories_nodes":[],"categories_segments":[],"categories_sizes":[],"default_left":[0,0,0,0,0,0,0,0,0,0,0,0,0,0,0,0,0,0,0,0,0,0,0,0,0,0,0,0,0,0,0,0,0,0,0,0,0,0,0,0,0,0,0,0,0,0,0,0,0,0,0,0,0,0,0,0,0,0,0,0,0,0,0],"id":20,"left_children":[1,3,5,7,9,11,13,15,17,19,21,23,25,27,29,31,33,35,37,39,41,43,45,47,49,51,53,55,57,59,61,-1,-1,-1,-1,-1,-1,-1,-1,-1,-1,-1,-1,-1,-1,-1,-1,-1,-1,-1,-1,-1,-1,-1,-1,-1,-1,-1,-1,-1,-1,-1,-1],"loss_changes":[3.91357E1,4.113265E1,7.552231E0,2.4584906E1,3.5185966E1,8.062065E0,3.7593713E0,2.2234047E1,1.177183E1,5.8414005E1,8.176962E1,1.1493671E1,9.065662E0,1.6217841E0,1.7825303E0,2.0066858E1,1.0574562E1,4.486064E0,6.958708E0,6.684702E1,3.002452E1,4.8684906E1,1.6415516E1,5.159973E0,5.1022005E0,1.0238419E1,5.9293795E0,1.6758544E0,1.8562661E0,1.9304152E0,1.0420567E0,0E0,0E0,0E0,0E0,0E0,0E0,0E0,0E0,0E0,0E0,0E0,0E0,0E0,0E0,0E0,0E0,0E0,0E0,0E0,0E0,0E0,0E0,0E0,0E0,0E0,0E0,0E0,0E0,0E0,0E0,0E0,0E0],"parents":[2147483647,0,0,1,1,2,2,3,3,4,4,5,5,6,6,7,7,8,8,9,9,10,10,11,11,12,12,13,13,14,14,15,15,16,16,17,17,18,18,19,19,20,20,21,21,22,22,23,23,24,24,25,25,26,26,27,27,28,28,29,29,30,30],"right_children":[2,4,6,8,10,12,14,16,18,20,22,24,26,28,30,32,34,36,38,40,42,44,46,48,50,52,54,56,58,60,62,-1,-1,-1,-1,-1,-1,-1,-1,-1,-1,-1,-1,-1,-1,-1,-1,-1,-1,-1,-1,-1,-1,-1,-1,-1,-1,-1,-1,-1,-1,-1,-1],"split_conditions":[1.5310079E0,-9.4122624E-1,1.8878133E0,1.0624762E0,7.0591176E-1,1.092188E0,5.2280784E-1,8.435001E-1,1.9658434E-1,1.4554855E-1,4.957361E-1,3.8283876E-1,-1.6742268E-1,6.038632E-1,1.5955015E0,1.5000494E-1,4.238047E-1,-3.0785706E-2,4.6664003E-2,4.1356468E-1,-1.3796355E0,-3.5602814E-1,-4.6673622E-2,8.7025416E-1,9.5701075E-1,-1.2318819E-1,1.2460846E0,-2.466512E-2,1.3894595E0,-1.666398E0,8.380096E-1,-2.094386E-2,4.807103E-2,-6.622945E-2,-1.13904495E-2,-7.381464E-3,-1.08605936E-1,5.9716243E-2,-3.3049904E-2,-4.6454865E-2,3.2458402E-2,-1.2806159E-2,2.8764216E-2,8.894062E-3,5.9990298E-2,-3.278496E-3,-5.0533857E-2,-4.6566375E-2,2.7398176E-2,1.15914494E-1,6.1322777E-3,-5.877397E-2,-1.6650936E-1,-6.306008E-2,2.7415322E-2,-3.0401384E-3,-1.317754E-1,9.661881E-2,-1.7562716E-1,6.512801E-3,1.2952699E-1,-1.7705677E-1,6.0357053E-2],"split_indices":[1,4,27,7,26,7,20,7,6,22,22,6,16,16,17,6,17,20,1,17,26,16,14,25,7,25,7,25,13,22,3,0,0,0,0,0,0,0,0,0,0,0,0,0,0,0,0,0,0,0,0,0,0,0,0,0,0,0,0,0,0,0,0],"split_type":[0,0,0,0,0,0,0,0,0,0,0,0,0,0,0,0,0,0,0,0,0,0,0,0,0,0,0,0,0,0,0,0,0,0,0,0,0,0,0,0,0,0,0,0,0,0,0,0,0,0,0,0,0,0,0,0,0,0,0,0,0,0,0],"sum_hessian":[3.1893402E4,2.9769678E4,2.1237256E3,6.3636714E3,2.3406006E4,2.0084951E3,1.1523036E2,5.383045E3,9.806264E2,1.22789375E4,1.1127068E4,1.3892986E3,6.1919653E2,5.096773E1,6.426263E1,3.5954465E3,1.7875985E3,3.1850607E2,6.621203E2,5.1314014E3,7.1475356E3,7.104551E3,4.022518E3,1.2145535E3,1.7474515E2,3.2431396E2,2.9488257E2,3.61096E1,1.4858134E1,5.9220253E1,5.0423765E0,3.1656533E3,4.2979315E2,1.3760961E3,4.115024E2,2.7343192E2,4.5074154E1,5.795618E2,8.25585E1,3.8416165E3,1.289785E3,2.3095156E3,4.83802E3,2.7188027E3,4.385748E3,3.1886548E3,8.3386346E2,1.1233748E3,9.117865E1,5.495511E1,1.1979004E2,1.8208994E2,1.4222404E2,1.9882043E2,9.606213E1,2.0956043E1,1.5153555E1,1.3119983E1,1.7381516E0,1.5607353E1,4.36129E1,2.7438173E0,2.2985592E0],"tree_param":{"num_deleted":"0","num_feature":"28","num_nodes":"63","size_leaf_vector":"1"}},{"base_weights":[5.9914956E-4,-1.0244672E-1,1.2547142E-2,-2.5903067E-1,-2.6745403E-2,-1.2091953E-2,8.0861695E-2,-4.1197896E-1,-6.1383065E-2,-6.846392E-2,2.1625833E-1,-3.4044348E-2,2.0820655E-1,1.2766878E-1,-2.2439428E-1,-5.8801645E-1,1.4001054E-2,-9.054618E-2,6.833564E-1,-4.738174E-2,-6.742854E-1,-1.3188453E-1,5.190505E-1,-3.8095698E-1,-1.6737064E-2,2.750965E-1,-1.16883345E-1,1.8090403E-1,7.0777712E-3,-4.547665E-1,-4.6916116E-2,-2.0076954E-1,-5.164174E-2,-1.5951478E-1,1.1350185E-1,-7.561696E-2,-1.1999515E-2,4.0691987E-2,2.6257762E-1,1.6334972E-1,-1.9938886E-2,-2.420472E-1,7.018167E-2,-1.439715E-1,1.7017007E-1,-1.5317884E-1,2.1751961E-1,3.623558E-2,-1.3072988E-1,-7.7964617E-3,1.02176555E-1,2.9086415E-2,1.2491257E-1,-1.2451643E-2,-1.17780425E-1,2.7273871E-2,1.4010388E-1,3.9470464E-2,-9.6922E-2,-5.922185E-2,-1.7832156E-1,-6.588737E-2,4.7315814E-2],"categories":[],"categories_nodes":[],"categories_segments":[],"categories_sizes":[],"default_left":[0,0,0,0,0,0,0,0,0,0,0,0,0,0,0,0,0,0,0,0,0,0,0,0,0,0,0,0,0,0,0,0,0,0,0,0,0,0,0,0,0,0,0,0,0,0,0,0,0,0,0,0,0,0,0,0,0,0,0,0,0,0,0],"id":21,"left_children":[1,3,5,7,9,11,13,15,17,19,21,23,25,27,29,31,33,35,37,39,41,43,45,47,49,51,53,55,57,59,61,-1,-1,-1,-1,-1,-1,-1,-1,-1,-1,-1,-1,-1,-1,-1,-1,-1,-1,-1,-1,-1,-1,-1,-1,-1,-1,-1,-1,-1,-1,-1,-1],"loss_changes":[3.9158035E1,3.9164246E1,4.7973072E1,3.2527428E1,2.2609192E1,1.0130696E2,1.0797109E2,4.5518036E1,1.0290381E1,2.4272394E1,3.4518356E1,1.1436838E2,4.1311096E1,4.2053627E1,4.105952E1,1.4389786E1,3.5679466E1,3.6970654E0,1.758915E0,2.0816957E1,7.8828945E0,3.745315E1,3.7489147E1,2.4944595E1,5.9990997E1,3.9590042E1,6.7306986E0,1.1696918E2,8.25437E1,1.55914E1,2.013207E1,0E0,0E0,0E0,0E0,0E0,0E0,0E0,0E0,0E0,0E0,0E0,0E0,0E0,0E0,0E0,0E0,0E0,0E0,0E0,0E0,0E0,0E0,0E0,0E0,0E0,0E0,0E0,0E0,0E0,0E0,0E0,0E0],"parents":[2147483647,0,0,1,1,2,2,3,3,4,4,5,5,6,6,7,7,8,8,9,9,10,10,11,11,12,12,13,13,14,14,15,15,16,16,17,17,18,18,19,19,20,20,21,21,22,22,23,23,24,24,25,25,26,26,27,27,28,28,29,29,30,30],"right_children":[2,4,6,8,10,12,14,16,18,20,22,24,26,28,30,32,34,36,38,40,42,44,46,48,50,52,54,56,58,60,62,-1,-1,-1,-1,-1,-1,-1,-1,-1,-1,-1,-1,-1,-1,-1,-1,-1,-1,-1,-1,-1,-1,-1,-1,-1,-1,-1,-1,-1,-1,-1,-1],"split_conditions":[-7.7018565E-1,-5.204017E-1,1.2658875E-1,-4.0298355E-1,2.3249648E0,8.260476E-1,1.0491632E0,2.4651842E0,1.4375896E0,1.9979998E0,-2.7469194E0,-1.0586115E0,1.8311536E0,3.6967346E-1,1.2429142E0,1.043815E0,-1.2788218E0,2.7614227E-2,-8.181564E-1,-2.821617E0,-2.4273145E0,5.1466923E0,5.5407715E-1,-1.1354284E0,5.161833E-1,-2.032859E-1,1.5265037E0,1.0009469E0,1.8442631E0,5.569374E-1,8.853635E-1,-2.0076954E-1,-5.164174E-2,-1.5951478E-1,1.1350185E-1,-7.561696E-2,-1.1999515E-2,4.0691987E-2,2.6257762E-1,1.6334972E-1,-1.9938886E-2,-2.420472E-1,7.018167E-2,-1.439715E-1,1.7017007E-1,-1.5317884E-1,2.1751961E-1,3.623558E-2,-1.3072988E-1,-7.7964617E-3,1.02176555E-1,2.9086415E-2,1.2491257E-1,-1.2451643E-2,-1.17780425E-1,2.7273871E-2,1.4010388E-1,3.9470464E-2,-9.6922E-2,-5.922185E-2,-1.7832156E-1,-6.588737E-2,4.7315814E-2],"split_indices":[17,16,14,22,14,17,17,14,14,18,22,22,17,16,0,23,17,22,3,22,22,14,26,25,24,24,9,14,12,14,3,0,0,0,0,0,0,0,0,0,0,0,0,0,0,0,0,0,0,0,0,0,0,0,0,0,0,0,0,0,0,0,0],"split_type":[0,0,0,0,0,0,0,0,0,0,0,0,0,0,0,0,0,0,0,0,0,0,0,0,0,0,0,0,0,0,0,0,0,0,0,0,0,0,0,0,0,0,0,0,0,0,0,0,0,0,0,0,0,0,0,0,0,0,0,0,0,0,0],"sum_hessian":[3.1802957E4,3.3035764E3,2.849938E4,1.0758397E3,2.2277366E3,2.0945693E4,7.5536865E3,6.058908E2,4.6994897E2,1.9019337E3,3.2580286E2,1.9048396E4,1.8972969E3,6.549922E3,1.0037647E3,4.2845157E2,1.7743924E2,4.530851E2,1.686386E1,1.8390154E3,6.2918293E1,1.5181464E2,1.7398822E2,9.041579E2,1.8144238E4,1.5736575E3,3.236394E2,4.543625E3,2.0062965E3,4.361134E2,5.676513E2,3.579412E2,7.0510376E1,7.085344E1,1.0658579E2,1.0705058E2,3.4603455E2,4.8183694E0,1.204549E1,5.657508E1,1.7824403E3,5.5003235E1,7.9150577E0,1.0156782E2,5.0246822E1,2.8761578E1,1.4522665E2,8.892304E1,8.1523486E2,1.7687244E4,4.5699448E2,6.967696E2,8.768878E2,2.5505978E2,6.857962E1,3.457454E3,1.0861711E3,1.4573671E3,5.489295E2,1.5424554E2,2.818679E2,3.078004E2,2.5985092E2],"tree_param":{"num_deleted":"0","num_feature":"28","num_nodes":"63","size_leaf_vector":"1"}},{"base_weights":[9.18584E-4,-7.175633E-2,1.6183026E-2,-1.6627803E-1,-1.705274E-2,4.6346996E-2,-1.5417244E-2,-3.5200915E-1,-1.3109782E-1,-1.0260765E-1,2.9289529E-2,2.2277668E-2,2.7587384E-1,3.9222725E-2,-6.250613E-2,-4.9317646E-1,-1.457364E-2,-1.2190675E-1,-1.0200258E0,-3.5958457E-1,-6.125086E-2,-1.0463349E-1,6.833478E-2,-7.0293894E-4,1.3622876E-1,1.4645556E-1,4.2239785E-1,-6.269204E-2,8.7520316E-2,-6.822748E-2,3.713046E-1,-1.1441121E-1,-3.213111E-1,-8.690147E-2,2.03918E-1,-5.080271E-2,2.3405569E-2,-5.967485E-1,-6.842033E-2,-1.2497043E-1,1.16743095E-1,-2.4652826E-2,3.7442397E-2,-6.0006168E-2,6.48511E-2,6.0752905E-3,5.538054E-2,5.2345647E-3,-2.7342811E-2,2.2130355E-3,5.7334535E-2,1.0627066E-1,1.2797855E-2,1.7694747E-1,4.953368E-2,-3.3870954E-2,7.325689E-2,4.495783E-2,-1.2040551E-2,-6.252118E-2,-1.4925143E-2,-3.0938448E-2,1.2525617E-1],"categories":[],"categories_nodes":[],"categories_segments":[],"categories_sizes":[],"default_left":[0,0,0,0,0,0,0,0,0,0,0,0,0,0,0,0,0,0,0,0,0,0,0,0,0,0,0,0,0,0,0,0,0,0,0,0,0,0,0,0,0,0,0,0,0,0,0,0,0,0,0,0,0,0,0,0,0,0,0,0,0,0,0],"id":22,"left_children":[1,3,5,7,9,11,13,15,17,19,21,23,25,27,29,31,33,35,37,39,41,43,45,47,49,51,53,55,57,59,61,-1,-1,-1,-1,-1,-1,-1,-1,-1,-1,-1,-1,-1,-1,-1,-1,-1,-1,-1,-1,-1,-1,-1,-1,-1,-1,-1,-1,-1,-1,-1,-1],"loss_changes":[3.4915787E1,2.8246069E1,2.4794117E1,1.3039211E1,1.3727782E1,7.351565E1,3.2688522E1,1.5156315E1,1.36449795E1,1.2906387E1,1.1752512E1,3.154496E1,2.388861E1,2.895332E1,1.6961819E1,1.4089874E1,1.8327337E1,1.5843216E1,1.2679443E1,7.348194E0,4.094537E0,1.5571113E1,9.722349E0,1.645962E1,1.4296173E1,1.4481777E1,2.5396675E1,2.9173508E1,3.1762358E1,1.7435617E1,1.9940596E0,0E0,0E0,0E0,0E0,0E0,0E0,0E0,0E0,0E0,0E0,0E0,0E0,0E0,0E0,0E0,0E0,0E0,0E0,0E0,0E0,0E0,0E0,0E0,0E0,0E0,0E0,0E0,0E0,0E0,0E0,0E0,0E0],"parents":[2147483647,0,0,1,1,2,2,3,3,4,4,5,5,6,6,7,7,8,8,9,9,10,10,11,11,12,12,13,13,14,14,15,15,16,16,17,17,18,18,19,19,20,20,21,21,22,22,23,23,24,24,25,25,26,26,27,27,28,28,29,29,30,30],"right_children":[2,4,6,8,10,12,14,16,18,20,22,24,26,28,30,32,34,36,38,40,42,44,46,48,50,52,54,56,58,60,62,-1,-1,-1,-1,-1,-1,-1,-1,-1,-1,-1,-1,-1,-1,-1,-1,-1,-1,-1,-1,-1,-1,-1,-1,-1,-1,-1,-1,-1,-1,-1,-1],"split_conditions":[-6.655616E-1,-6.3465863E-1,8.545723E-1,-1.9096114E-1,-5.103517E-1,1.2524077E-1,-2.142361E-1,-3.3710893E-2,1.4158576E0,1.736473E-1,-7.94286E-1,3.863117E-1,-4.7563535E-1,-1.9057617E-1,6.4817114E0,2.2231232E-1,3.5102516E-1,2.08433E-2,8.121817E-1,9.4001895E-1,8.0436975E-1,1.2022573E-1,8.6885095E-1,9.3905574E-1,6.2222145E-2,7.832E-1,1.665266E0,6.241795E-1,2.2356805E-1,-2.012317E0,-3.3710893E-2,-1.1441121E-1,-3.213111E-1,-8.690147E-2,2.03918E-1,-5.080271E-2,2.3405569E-2,-5.967485E-1,-6.842033E-2,-1.2497043E-1,1.16743095E-1,-2.4652826E-2,3.7442397E-2,-6.0006168E-2,6.48511E-2,6.0752905E-3,5.538054E-2,5.2345647E-3,-2.7342811E-2,2.2130355E-3,5.7334535E-2,1.0627066E-1,1.2797855E-2,1.7694747E-1,4.953368E-2,-3.3870954E-2,7.325689E-2,4.495783E-2,-1.2040551E-2,-6.252118E-2,-1.4925143E-2,-3.0938448E-2,1.2525617E-1],"split_indices":[23,16,7,22,14,6,25,17,3,22,22,25,1,14,0,0,14,14,8,17,8,17,26,26,0,7,10,17,16,22,17,0,0,0,0,0,0,0,0,0,0,0,0,0,0,0,0,0,0,0,0,0,0,0,0,0,0,0,0,0,0,0,0],"split_type":[0,0,0,0,0,0,0,0,0,0,0,0,0,0,0,0,0,0,0,0,0,0,0,0,0,0,0,0,0,0,0,0,0,0,0,0,0,0,0,0,0,0,0,0,0,0,0,0,0,0,0,0,0,0,0,0,0,0,0,0,0,0,0],"sum_hessian":[3.1472273E4,5.462289E3,2.6009984E4,2.0016396E3,3.4606497E3,1.3307179E4,1.2702806E4,3.1732773E2,1.684312E3,1.2154778E3,2.2451719E3,1.204516E4,1.2620184E3,5.8800312E3,6.822775E3,2.2340424E2,9.3923485E1,1.6682008E3,1.611121E1,1.6743004E2,1.0480477E3,5.0643802E2,1.7387339E3,1.0024504E4,2.0206559E3,6.711873E2,5.908311E2,1.8905033E3,3.9895278E3,6.7347954E3,8.7979675E1,1.8857774E2,3.4826485E1,6.768707E1,2.623641E1,1.3484188E3,3.1978192E2,6.5653515E0,9.545858E0,1.5600092E2,1.1429135E1,9.425964E2,1.0545131E2,3.9065735E2,1.15780655E2,1.2308665E3,5.078674E2,8.349538E3,1.6749662E3,6.0394965E2,1.4167063E3,2.227904E2,4.4839688E2,3.5713507E2,2.3369608E2,1.6252212E3,2.6528214E2,2.6804072E3,1.3091206E3,7.831466E2,5.9516484E3,7.7003016E0,8.027937E1],"tree_param":{"num_deleted":"0","num_feature":"28","num_nodes":"63","size_leaf_vector":"1"}},{"base_weights":[7.2472193E-4,-1.6108665E-3,3.9736816E-1,-1.4239638E-1,7.186218E-3,5.619225E-2,5.130063E-1,8.9754564E-1,-1.8541592E-1,-1.3066448E-2,9.378392E-2,-1.3058089E0,4.207338E-1,5.982548E-1,-3.319715E-2,9.8886704E-1,-4.7845513E-1,-4.6565875E-1,2.9288521E-2,-2.3943563E-1,-9.1407454E-4,1.7186904E-1,-2.0131268E-1,-1.5623151E0,8.698821E-2,-1.1694374E-1,7.378544E-1,6.6930217E-1,3.9423376E-1,-9.3111354E-1,3.301828E-1,8.053292E-2,3.1765074E-1,4.0739335E-2,-2.4804044E-1,-1.7741445E-1,-5.4139174E-3,-1.1748106E-1,5.4677006E-2,-9.911624E-2,7.4598424E-2,5.101896E-3,-2.1071449E-2,3.5083037E-2,9.9518664E-2,-4.1550724E-3,-1.465233E-1,-1.4138567E-1,-5.078911E-1,-9.3212396E-2,1.5751937E-1,2.5171143E-1,1.0096508E-1,2.276213E-1,9.2512906E-2,-1.2289179E-2,1.4921297E-1,-4.563178E-1,-3.525191E-2,1.7779356E-1,-1.5959295E-2],"categories":[],"categories_nodes":[],"categories_segments":[],"categories_sizes":[],"default_left":[0,0,0,0,0,0,0,0,0,0,0,0,0,0,0,0,0,0,0,0,0,0,0,0,0,0,0,0,0,0,0,0,0,0,0,0,0,0,0,0,0,0,0,0,0,0,0,0,0,0,0,0,0,0,0,0,0,0,0,0,0],"id":23,"left_children":[1,3,5,7,9,11,13,15,17,19,21,23,25,27,29,31,33,35,37,39,41,43,45,47,-1,49,51,53,55,57,59,-1,-1,-1,-1,-1,-1,-1,-1,-1,-1,-1,-1,-1,-1,-1,-1,-1,-1,-1,-1,-1,-1,-1,-1,-1,-1,-1,-1,-1,-1],"loss_changes":[2.9053547E1,3.8615826E1,7.21434E0,8.22018E1,5.146915E1,2.4181625E1,6.3986588E0,9.647793E0,1.0601275E2,6.542916E1,1.2820753E2,4.6663227E0,6.6174083E0,1.4545517E0,6.651064E0,3.1835098E0,1.2287883E0,4.2998215E1,6.435249E1,5.387745E1,2.8044882E1,3.8586792E1,6.265871E1,4.8854446E-1,0E0,2.0382538E0,7.015047E-1,2.558113E0,1.5040717E0,2.6354246E0,1.4985057E0,0E0,0E0,0E0,0E0,0E0,0E0,0E0,0E0,0E0,0E0,0E0,0E0,0E0,0E0,0E0,0E0,0E0,0E0,0E0,0E0,0E0,0E0,0E0,0E0,0E0,0E0,0E0,0E0,0E0,0E0],"parents":[2147483647,0,0,1,1,2,2,3,3,4,4,5,5,6,6,7,7,8,8,9,9,10,10,11,11,12,12,13,13,14,14,15,15,16,16,17,17,18,18,19,19,20,20,21,21,22,22,23,23,25,25,26,26,27,27,28,28,29,29,30,30],"right_children":[2,4,6,8,10,12,14,16,18,20,22,24,26,28,30,32,34,36,38,40,42,44,46,48,-1,50,52,54,56,58,60,-1,-1,-1,-1,-1,-1,-1,-1,-1,-1,-1,-1,-1,-1,-1,-1,-1,-1,-1,-1,-1,-1,-1,-1,-1,-1,-1,-1,-1,-1],"split_conditions":[4.4479523E0,-2.012317E0,-3.3320203E0,2.0021796E-1,2.3425135E-1,4.999048E0,-2.2106447E0,5.0175846E-1,1.5221276E0,-7.67349E-1,1.3804849E0,-3.3710893E-2,5.8959894E0,2.2023926E0,1.6592507E0,-5.725682E-1,7.115911E-2,2.1984065E0,-2.9009058E0,1.0250124E0,9.281777E-1,8.9509416E-1,1.3220097E0,-4.1262308E-1,8.698821E-2,6.5704603E-3,1.6715686E0,6.9354343E-1,-8.39498E-1,6.422415E-1,1.7556351E0,8.053292E-2,3.1765074E-1,4.0739335E-2,-2.4804044E-1,-1.7741445E-1,-5.4139174E-3,-1.1748106E-1,5.4677006E-2,-9.911624E-2,7.4598424E-2,5.101896E-3,-2.1071449E-2,3.5083037E-2,9.9518664E-2,-4.1550724E-3,-1.465233E-1,-1.4138567E-1,-5.078911E-1,-9.3212396E-2,1.5751937E-1,2.5171143E-1,1.0096508E-1,2.276213E-1,9.2512906E-2,-1.2289179E-2,1.4921297E-1,-4.563178E-1,-3.525191E-2,1.7779356E-1,-1.5959295E-2],"split_indices":[18,22,22,13,24,18,22,26,24,