{"learner":{"attributes":{"scikit_learn":"{\"_estimator_type\": \"classifier\"}"},"feature_names":[],"feature_types":[],"gradient_booster":{"model":{"gbtree_model_param":{"num_parallel_tree":"1","num_trees":"215"},"iteration_indptr":[0,1,2,3,4,5,6,7,8,9,10,11,12,13,14,15,16,17,18,19,20,21,22,23,24,25,26,27,28,29,30,31,32,33,34,35,36,37,38,39,40,41,42,43,44,45,46,47,48,49,50,51,52,53,54,55,56,57,58,59,60,61,62,63,64,65,66,67,68,69,70,71,72,73,74,75,76,77,78,79,80,81,82,83,84,85,86,87,88,89,90,91,92,93,94,95,96,97,98,99,100,101,102,103,104,105,106,107,108,109,110,111,112,113,114,115,116,117,118,119,120,121,122,123,124,125,126,127,128,129,130,131,132,133,134,135,136,137,138,139,140,141,142,143,144,145,146,147,148,149,150,151,152,153,154,155,156,157,158,159,160,161,162,163,164,165,166,167,168,169,170,171,172,173,174,175,176,177,178,179,180,181,182,183,184,185,186,187,188,189,190,191,192,193,194,195,196,197,198,199,200,201,202,203,204,205,206,207,208,209,210,211,212,213,214,215],"tree_info":[0,0,0,0,0,0,0,0,0,0,0,0,0,0,0,0,0,0,0,0,0,0,0,0,0,0,0,0,0,0,0,0,0,0,0,0,0,0,0,0,0,0,0,0,0,0,0,0,0,0,0,0,0,0,0,0,0,0,0,0,0,0,0,0,0,0,0,0,0,0,0,0,0,0,0,0,0,0,0,0,0,0,0,0,0,0,0,0,0,0,0,0,0,0,0,0,0,0,0,0,0,0,0,0,0,0,0,0,0,0,0,0,0,0,0,0,0,0,0,0,0,0,0,0,0,0,0,0,0,0,0,0,0,0,0,0,0,0,0,0,0,0,0,0,0,0,0,0,0,0,0,0,0,0,0,0,0,0,0,0,0,0,0,0,0,0,0,0,0,0,0,0,0,0,0,0,0,0,0,0,0,0,0,0,0,0,0,0,0,0,0,0,0,0,0,0,0,0,0,0,0,0,0,0,0,0,0,0,0,0,0,0,0,0,0],"trees":[{"base_weights":[5.789128E-8,-3.2364556E-1,3.5479083E0,-5.5795664E-1,2.1909778E0,4.6757936E0,-1.5420261E-1,-6.275424E-1,7.255177E-1,9.624508E-1,5.1082525E0,1.6440716E0,6.7673845E0,2.913831E-1,-3.9371145E-1,-7.213646E-1,-1.0996041E-1,2.1875296E-3,1.8804686E0,3.5427174E-1,3.3261585E0,1.2854427E0,7.0741677E0,8.1935865E-1,1.09206E0,8.728204E0,1.2790064E0,1.7465353E-1,-4.7354316E-3,2.348069E-2,-4.9438724E-1,-2.3143277E-1,-1.2036475E-1,-1.0517339E-1,2.1540985E-1,-8.163321E-2,1.9384073E-1,2.1257977E-1,1.0521336E0,-4.7987673E-2,3.372078E-1,2.4193406E-1,1.3930103E0,7.0330936E-1,6.5698944E-2,1.0011215E0,2.548012E0,8.575022E-2,5.347085E-1,1.397003E0,3.0421195E0,8.5076636E-1,4.889279E-2,4.2842742E-2,-3.999061E-2,-3.2183066E-2,-1.6344844E-1],"categories":[],"categories_nodes":[],"categories_segments":[],"categories_sizes":[],"default_left":[0,0,0,0,0,0,0,0,0,0,0,0,0,0,0,0,0,0,0,0,0,0,0,0,0,0,0,0,0,0,0,0,0,0,0,0,0,0,0,0,0,0,0,0,0,0,0,0,0,0,0,0,0,0,0,0,0],"id":0,"left_children":[1,3,5,7,9,11,13,15,17,19,21,23,25,27,29,31,33,35,37,39,41,43,45,47,-1,49,51,-1,53,-1,55,-1,-1,-1,-1,-1,-1,-1,-1,-1,-1,-1,-1,-1,-1,-1,-1,-1,-1,-1,-1,-1,-1,-1,-1,-1,-1],"loss_changes":[6.1928107E2,2.9242725E2,1.8897516E2,4.0904846E1,1.4679233E2,2.0820496E2,1.3416077E0,2.080899E1,1.984186E1,4.341254E1,8.343161E1,2.2438023E1,2.0565228E2,3.98322E-1,4.1419363E-1,5.5256195E0,1.3637505E1,2.932835E0,1.4951569E1,1.038827E1,1.6927834E1,5.5883236E0,1.3600555E1,5.7677565E0,0E0,3.714087E1,1.0788112E1,0E0,8.102772E-2,0E0,7.13979E-2,0E0,0E0,0E0,0E0,0E0,0E0,0E0,0E0,0E0,0E0,0E0,0E0,0E0,0E0,0E0,0E0,0E0,0E0,0E0,0E0,0E0,0E0,0E0,0E0,0E0,0E0],"parents":[2147483647,0,0,1,1,2,2,3,3,4,4,5,5,6,6,7,7,8,8,9,9,10,10,11,11,12,12,13,13,14,14,15,15,16,16,17,17,18,18,19,19,20,20,21,21,22,22,23,23,25,25,26,26,28,28,30,30],"right_children":[2,4,6,8,10,12,14,16,18,20,22,24,26,28,30,32,34,36,38,40,42,44,46,48,-1,50,52,-1,54,-1,56,-1,-1,-1,-1,-1,-1,-1,-1,-1,-1,-1,-1,-1,-1,-1,-1,-1,-1,-1,-1,-1,-1,-1,-1,-1,-1],"split_conditions":[5.0488853E-1,4.375652E-1,2.051979E0,4.7198537E-1,-3.6825842E-1,-3.045247E-1,1.0712546E0,-2.3462829E-1,1.238638E-1,2.155565E0,6.2632315E-2,8.037473E-1,1.5696746E0,5.363703E-1,4.781485E-1,1.0908762E-1,8.769896E-2,5.048738E-2,-1.3846007E-1,-7.3490125E-1,-1.2733358E0,4.781485E-1,6.8868524E-1,-3.4523746E-1,1.09206E0,7.026208E-1,5.308598E-1,1.7465353E-1,9.2757605E-2,2.348069E-2,-4.9688473E-1,-2.3143277E-1,-1.2036475E-1,-1.0517339E-1,2.1540985E-1,-8.163321E-2,1.9384073E-1,2.1257977E-1,1.0521336E0,-4.7987673E-2,3.372078E-1,2.4193406E-1,1.3930103E0,7.0330936E-1,6.5698944E-2,1.0011215E0,2.548012E0,8.575022E-2,5.347085E-1,1.397003E0,3.0421195E0,8.5076636E-1,4.889279E-2,4.2842742E-2,-3.999061E-2,-3.2183066E-2,-1.6344844E-1],"split_indices":[17,14,17,3,17,24,9,24,17,14,26,17,16,22,16,17,17,14,14,17,17,16,14,14,0,17,14,0,14,0,22,0,0,0,0,0,0,0,0,0,0,0,0,0,0,0,0,0,0,0,0,0,0,0,0,0,0],"split_type":[0,0,0,0,0,0,0,0,0,0,0,0,0,0,0,0,0,0,0,0,0,0,0,0,0,0,0,0,0,0,0,0,0,0,0,0,0,0,0,0,0,0,0,0,0,0,0,0,0,0,0,0,0,0,0,0,0],"sum_hessian":[5.37319E2,4.9323416E2,4.4084797E1,4.519041E2,4.133004E1,3.3588665E1,1.0496131E1,4.291482E2,2.2755941E1,3.0018515E1,1.1311525E1,1.4441712E1,1.9146952E1,3.5937257E0,6.9024053E0,3.629605E2,6.6187675E1,1.4608642E1,8.147301E0,2.4789967E1,5.228548E0,4.4031906E0,6.908335E0,1.1217575E1,3.224138E0,1.3672064E1,5.474889E0,1.3257635E0,2.2679622E0,1.2526046E0,5.649801E0,3.1264648E2,5.031403E1,5.1731052E1,1.445662E1,1.0649696E1,3.958945E0,5.570099E0,2.5772016E0,1.5336611E1,9.453356E0,2.348431E0,2.8801167E0,1.6081206E0,2.79507E0,2.8238504E0,4.0844846E0,8.052905E0,3.1646693E0,4.627603E0,9.04446E0,1.6425105E0,3.8323784E0,1.0044565E0,1.2635058E0,1.0117643E0,4.6380363E0],"tree_param":{"num_deleted":"0","num_feature":"28","num_nodes":"57","size_leaf_vector":"1"}},{"base_weights":[-2.6211783E-1,-3.1339157E-1,2.2769687E0,-6.9743663E-1,-1.21871404E-1,5.4294837E-1,3.3579204E0,-7.371224E-1,4.70657E-2,-3.3890218E-1,2.0598862E-2,1.19508915E-1,7.4340665E-1,4.090411E0,9.9823344E-1,-7.671362E-1,-3.7161934E-1,-1.0823659E-1,1.7062485E-1,-4.286262E-1,1.08424455E-1,1.9634831E-1,-3.247969E-1,8.305317E-2,-2.87285E-2,2.6456672E-1,4.4348195E-2,3.3786184E-1,1.3427477E0,4.59609E-1,7.501057E-3,-2.383662E-1,-1.8472669E-1,-1.3794473E-1,5.103652E-2,-7.420798E-2,4.535125E-2,-1.426604E-1,8.701851E-3,4.3576834E-1,8.661856E-5,-2.9245032E-2,2.5262195E-1,3.0710745E-1,-1.11932255E-1],"categories":[],"categories_nodes":[],"categories_segments":[],"categories_sizes":[],"default_left":[0,0,0,0,0,0,0,0,0,0,0,0,0,0,0,0,0,0,0,0,0,0,0,0,0,0,0,0,0,0,0,0,0,0,0,0,0,0,0,0,0,0,0,0,0],"id":1,"left_children":[1,3,5,7,9,11,13,15,17,19,21,23,25,27,29,31,33,35,-1,37,39,41,43,-1,-1,-1,-1,-1,-1,-1,-1,-1,-1,-1,-1,-1,-1,-1,-1,-1,-1,-1,-1,-1,-1],"loss_changes":[9.142225E1,5.0212807E1,2.4254234E1,6.751587E0,1.4153097E1,4.6588314E-1,1.039637E1,2.0832672E0,1.069827E0,7.32572E0,1.6886782E1,1.3798729E-1,2.1966147E-1,1.8938675E0,1.6798365E0,3.349228E-1,9.5366406E-1,4.138123E-1,0E0,3.2610035E0,4.519705E0,3.504988E1,6.4950905E0,0E0,0E0,0E0,0E0,0E0,0E0,0E0,0E0,0E0,0E0,0E0,0E0,0E0,0E0,0E0,0E0,0E0,0E0,0E0,0E0,0E0,0E0],"parents":[2147483647,0,0,1,1,2,2,3,3,4,4,5,5,6,6,7,7,8,8,9,9,10,10,11,11,12,12,13,13,14,14,15,15,16,16,17,17,19,19,20,20,21,21,22,22],"right_children":[2,4,6,8,10,12,14,16,18,20,22,24,26,28,30,32,34,36,-1,38,40,42,44,-1,-1,-1,-1,-1,-1,-1,-1,-1,-1,-1,-1,-1,-1,-1,-1,-1,-1,-1,-1,-1,-1],"split_conditions":[2.0919485E0,-4.9145988E-1,1.8826854E0,3.8833448E-1,-2.672002E-1,5.1931494E-1,2.6984694E0,-2.1118263E-2,9.6437985E-1,1.0802704E0,7.026208E-1,3.685163E-1,-7.735081E-1,3.9861444E-1,7.4854434E-1,-4.2109287E-1,-9.872189E-2,-4.1391316E-1,1.7062485E-1,7.60306E-1,-3.045247E-1,1.5368987E-2,-3.045247E-1,8.305317E-2,-2.87285E-2,2.6456672E-1,4.4348195E-2,3.3786184E-1,1.3427477E0,4.59609E-1,7.501057E-3,-2.383662E-1,-1.8472669E-1,-1.3794473E-1,5.103652E-2,-7.420798E-2,4.535125E-2,-1.426604E-1,8.701851E-3,4.3576834E-1,8.661856E-5,-2.9245032E-2,2.5262195E-1,3.0710745E-1,-1.11932255E-1],"split_indices":[20,24,27,17,14,26,12,14,17,17,17,16,22,6,17,18,17,14,0,3,24,17,24,0,0,0,0,0,0,0,0,0,0,0,0,0,0,0,0,0,0,0,0,0,0],"split_type":[0,0,0,0,0,0,0,0,0,0,0,0,0,0,0,0,0,0,0,0,0,0,0,0,0,0,0,0,0,0,0,0,0,0,0,0,0,0,0,0,0,0,0,0,0],"sum_hessian":[6.957489E2,6.828364E2,1.2912469E1,2.263358E2,4.565006E2,5.535279E0,7.37719E0,2.1489093E2,1.1444874E1,1.8036479E2,2.761358E2,2.2913365E0,3.243942E0,5.0699334E0,2.3072567E0,1.9756848E2,1.7322449E1,9.430109E0,2.014765E0,1.5026642E2,3.009838E1,1.8329858E2,9.283721E1,1.1585549E0,1.1327817E0,2.2419305E0,1.0020117E0,1.0346376E0,4.035296E0,1.119218E0,1.1880388E0,1.6367519E2,3.389329E1,1.5027218E1,2.2952316E0,6.1683764E0,3.2617326E0,1.3626028E2,1.4006129E1,1.3153764E0,2.8783003E1,1.2655831E2,5.674028E1,2.5126307E0,9.0324585E1],"tree_param":{"num_deleted":"0","num_feature":"28","num_nodes":"45","size_leaf_vector":"1"}},{"base_weights":[-2.1220765E-1,-6.047941E-1,-3.7232798E-2,-6.601848E-1,4.223952E-2,-1.0367961E-1,8.748792E-1,-7.0644104E-1,-3.1384876E-1,-1.414474E-1,3.01607E-1,2.3912834E-1,-1.6785763E-1,3.823296E-1,1.4299312E0,-7.5347126E-1,-5.8260447E-1,-4.059377E-1,1.0567135E-1,-2.8012705E-1,2.2456492E-1,-6.492159E-3,4.2669043E-1,5.418736E-1,-2.647034E-1,-3.088468E-1,-5.0999966E-2,-6.27208E-2,5.7080626E-1,5.936225E-1,1.7879635E0,-2.3188221E-1,-1.646175E-1,-1.8139648E-1,-6.2800124E-2,-1.4382195E-1,-3.996137E-2,9.451248E-2,-2.5256949E-2,-1.1236233E-1,-3.8803474E-3,-2.5948077E-2,1.1789227E-1,2.5670221E-2,1.6141208E-1,3.9859273E-2,2.3167439E-1,5.212979E-2,-1.8774934E-1,-3.226345E-2,-1.2410521E-1,-2.5670787E-2,1.767316E-1,3.824301E-2,-4.0246334E-2,5.3315304E-2,2.3358925E-1,2.602064E-1,6.1392996E-2,6.219281E-1,1.8697308E-1],"categories":[],"categories_nodes":[],"categories_segments":[],"categories_sizes":[],"default_left":[0,0,0,0,0,0,0,0,0,0,0,0,0,0,0,0,0,0,0,0,0,0,0,0,0,0,0,0,0,0,0,0,0,0,0,0,0,0,0,0,0,0,0,0,0,0,0,0,0,0,0,0,0,0,0,0,0,0,0,0,0],"id":2,"left_children":[1,3,5,7,9,11,13,15,17,19,21,23,25,27,29,31,33,35,37,39,41,-1,43,45,47,49,51,53,55,57,59,-1,-1,-1,-1,-1,-1,-1,-1,-1,-1,-1,-1,-1,-1,-1,-1,-1,-1,-1,-1,-1,-1,-1,-1,-1,-1,-1,-1,-1,-1],"loss_changes":[4.4808624E1,7.236534E0,2.7515146E1,2.747406E0,8.430901E-1,9.339081E0,7.882393E0,5.085907E-1,9.560342E-1,5.966846E-1,3.0377614E-1,1.0372718E1,5.8595047E0,1.5205529E0,3.1698513E0,3.2325745E-2,2.7831078E-1,3.2863712E-1,2.2718468E-1,1.9877023E-1,2.1443827E-1,0E0,1.5529782E-1,3.8755207E0,4.2009115E0,3.362029E0,4.391608E0,1.0088921E-1,8.8553476E-1,4.329486E-1,1.8289967E0,0E0,0E0,0E0,0E0,0E0,0E0,0E0,0E0,0E0,0E0,0E0,0E0,0E0,0E0,0E0,0E0,0E0,0E0,0E0,0E0,0E0,0E0,0E0,0E0,0E0,0E0,0E0,0E0,0E0,0E0],"parents":[2147483647,0,0,1,1,2,2,3,3,4,4,5,5,6,6,7,7,8,8,9,9,10,10,11,11,12,12,13,13,14,14,15,15,16,16,17,17,18,18,19,19,20,20,22,22,23,23,24,24,25,25,26,26,27,27,28,28,29,29,30,30],"right_children":[2,4,6,8,10,12,14,16,18,20,22,24,26,28,30,32,34,36,38,40,42,-1,44,46,48,50,52,54,56,58,60,-1,-1,-1,-1,-1,-1,-1,-1,-1,-1,-1,-1,-1,-1,-1,-1,-1,-1,-1,-1,-1,-1,-1,-1,-1,-1,-1,-1,-1,-1],"split_conditions":[-4.6812144E-1,3.2476217E-1,1.9710224E0,-8.132559E-2,6.624386E-1,-7.954395E-1,1.8992518E0,-1.706744E-1,-8.8120416E-2,-3.1786725E-1,-6.166342E-1,7.026208E-1,4.5651042E-1,1.8598657E0,4.0510482E-1,-3.6361337E-1,-3.196688E-1,2.4382976E-1,-5.208921E-1,-2.2381508E-1,-1.3104388E0,-6.492159E-3,-1.37049E0,-2.9443663E-2,2.61624E-1,8.4701926E-1,1.2657262E0,-6.5269166E-1,5.1931494E-1,5.6623172E-2,7.4854434E-1,-2.3188221E-1,-1.646175E-1,-1.8139648E-1,-6.2800124E-2,-1.4382195E-1,-3.996137E-2,9.451248E-2,-2.5256949E-2,-1.1236233E-1,-3.8803474E-3,-2.5948077E-2,1.1789227E-1,2.5670221E-2,1.6141208E-1,3.9859273E-2,2.3167439E-1,5.212979E-2,-1.8774934E-1,-3.226345E-2,-1.2410521E-1,-2.5670787E-2,1.767316E-1,3.824301E-2,-4.0246334E-2,5.3315304E-2,2.3358925E-1,2.602064E-1,6.1392996E-2,6.219281E-1,1.8697308E-1],"split_indices":[24,17,19,14,17,25,27,17,17,14,24,17,26,27,26,18,18,14,16,23,26,0,26,14,14,7,7,25,26,16,17,0,0,0,0,0,0,0,0,0,0,0,0,0,0,0,0,0,0,0,0,0,0,0,0,0,0,0,0,0,0],"split_type":[0,0,0,0,0,0,0,0,0,0,0,0,0,0,0,0,0,0,0,0,0,0,0,0,0,0,0,0,0,0,0,0,0,0,0,0,0,0,0,0,0,0,0,0,0,0,0,0,0,0,0,0,0,0,0,0,0,0,0,0,0],"sum_hessian":[6.516328E2,2.0013615E2,4.5149667E2,1.843354E2,1.58007555E1,4.2166498E2,2.983171E1,1.6169926E2,2.2636126E1,9.516038E0,6.284718E0,6.60629E1,3.5560205E2,1.670056E1,1.3131153E1,1.1350746E2,4.819181E1,1.8588203E1,4.047923E0,7.0713873E0,2.4446507E0,1.984152E0,4.3005657E0,4.1219307E1,2.4843592E1,1.6041632E2,1.9518575E2,5.16698E0,1.1533579E1,4.7331815E0,8.397971E0,1.0111706E2,1.2390402E1,4.4918434E1,3.2733786E0,1.4046559E1,4.541644E0,1.6115042E0,2.436419E0,4.9282103E0,2.1431773E0,1.0295113E0,1.4151392E0,1.4935359E0,2.80703E0,1.5419708E1,2.5799599E1,1.1454609E1,1.3388984E1,5.562823E1,1.04788086E2,1.8600665E2,9.179094E0,1.1965439E0,3.9704359E0,4.6304574E0,6.9031215E0,2.0563006E0,2.6768806E0,6.119881E0,2.27809E0],"tree_param":{"num_deleted":"0","num_feature":"28","num_nodes":"61","size_leaf_vector":"1"}},{"base_weights":[-1.6667E-1,-5.6776226E-1,-4.064298E-2,-6.2594557E-1,-8.253789E-2,-1.00688316E-1,5.112215E-1,-6.7330563E-1,-3.6357987E-1,-1.6628897E-1,3.1191003E-1,-2.7843308E-1,-1.521456E-2,3.332498E-1,1.195819E0,-7.1955335E-1,-5.431082E-1,-4.3957922E-1,-8.936919E-2,8.1347235E-2,-2.3784372E-1,1.621422E-2,1.2263506E-1,-3.653012E-1,1.10609934E-1,3.0047374E-2,-4.294637E-1,4.776342E-1,-3.5349555E-2,1.3137226E0,4.50783E-2,-2.1730554E-1,-5.818994E-2,-1.6664863E-1,-5.561148E-2,-1.4300756E-1,-3.214276E-2,-7.3393926E-2,1.7367152E-2,-1.0065614E-1,-4.5686597E-3,-1.5480193E-1,-7.4190594E-2,2.722313E-1,4.2611947E-3,-5.3613517E-2,5.2652195E-2,-1.6068459E-1,-1.4932678E-2,2.2031875E-1,8.142191E-2,1.3740343E-1,-8.337206E-2,4.2926383E-1,7.6611444E-2],"categories":[],"categories_nodes":[],"categories_segments":[],"categories_sizes":[],"default_left":[0,0,0,0,0,0,0,0,0,0,0,0,0,0,0,0,0,0,0,0,0,0,0,0,0,0,0,0,0,0,0,0,0,0,0,0,0,0,0,0,0,0,0,0,0,0,0,0,0,0,0,0,0,0,0],"id":3,"left_children":[1,3,5,7,9,11,13,15,17,19,21,23,25,27,29,31,33,35,37,-1,39,-1,-1,41,43,45,47,49,51,53,-1,-1,-1,-1,-1,-1,-1,-1,-1,-1,-1,-1,-1,-1,-1,-1,-1,-1,-1,-1,-1,-1,-1,-1,-1],"loss_changes":[3.1156338E1,4.1096344E0,1.5639917E1,1.3887138E0,6.1128366E-1,6.4540896E0,5.2458496E0,2.7267838E-1,4.2493987E-1,5.221293E-1,6.0677916E-2,4.7035913E0,5.4150066E0,2.0474558E0,9.3328476E-1,5.67894E-2,4.3079376E-2,1.6096687E-1,1.5340075E-1,0E0,2.7969134E-1,0E0,0E0,1.8823996E0,1.9808378E0,7.9469395E0,1.1197977E0,1.2560124E0,1.5238131E0,6.4060116E-1,0E0,0E0,0E0,0E0,0E0,0E0,0E0,0E0,0E0,0E0,0E0,0E0,0E0,0E0,0E0,0E0,0E0,0E0,0E0,0E0,0E0,0E0,0E0,0E0,0E0],"parents":[2147483647,0,0,1,1,2,2,3,3,4,4,5,5,6,6,7,7,8,8,9,9,10,10,11,11,12,12,13,13,14,14,15,15,16,16,17,17,18,18,20,20,23,23,24,24,25,25,26,26,27,27,28,28,29,29],"right_children":[2,4,6,8,10,12,14,16,18,20,22,24,26,28,30,32,34,36,38,-1,40,-1,-1,42,44,46,48,50,52,54,-1,-1,-1,-1,-1,-1,-1,-1,-1,-1,-1,-1,-1,-1,-1,-1,-1,-1,-1,-1,-1,-1,-1,-1,-1],"split_conditions":[-5.0494605E-1,2.1256284E-1,1.1931051E0,-1.502157E-1,9.6437985E-1,-3.4523746E-1,3.7650926E0,-4.9369892E-1,-2.2472991E-1,-5.717626E-1,-5.6683826E-1,1.0802704E0,1.4436629E0,7.259922E-1,1.3224905E0,3.040783E-1,8.102035E-2,-1.7165636E-1,-1.0995319E0,8.1347235E-2,-4.8616117E-1,1.621422E-2,1.2263506E-1,2.0382813E-1,-3.045247E-1,-1.1451298E-1,2.051979E0,-3.179659E-1,1.8414975E0,1.441693E0,4.50783E-2,-2.1730554E-1,-5.818994E-2,-1.6664863E-1,-5.561148E-2,-1.4300756E-1,-3.214276E-2,-7.3393926E-2,1.7367152E-2,-1.0065614E-1,-4.5686597E-3,-1.5480193E-1,-7.4190594E-2,2.722313E-1,4.2611947E-3,-5.3613517E-2,5.2652195E-2,-1.6068459E-1,-1.4932678E-2,2.2031875E-1,8.142191E-2,1.3740343E-1,-8.337206E-2,4.2926383E-1,7.6611444E-2],"split_indices":[24,17,20,14,17,14,20,18,17,25,18,17,17,16,4,0,17,18,26,0,18,0,0,17,24,17,17,25,12,16,0,0,0,0,0,0,0,0,0,0,0,0,0,0,0,0,0,0,0,0,0,0,0,0,0],"split_type":[0,0,0,0,0,0,0,0,0,0,0,0,0,0,0,0,0,0,0,0,0,0,0,0,0,0,0,0,0,0,0,0,0,0,0,0,0,0,0,0,0,0,0,0,0,0,0,0,0,0,0,0,0,0,0],"sum_hessian":[6.1582227E2,1.4639668E2,4.694256E2,1.3046284E2,1.593383E1,4.2409924E2,4.5326355E1,1.0918702E2,2.1275831E1,1.3620324E1,2.3135066E0,1.3698276E2,2.871165E2,3.71543E1,8.172055E0,7.722806E1,3.195896E1,1.6186546E1,5.0892844E0,1.5225823E0,1.2097741E1,1.057232E0,1.2562746E0,1.1202917E2,2.4953587E1,2.5967157E2,2.7444923E1,2.6484303E1,1.0669997E1,7.1134214E0,1.0586333E0,7.615462E1,1.073439E0,3.035506E1,1.6038984E0,1.41706295E1,2.015917E0,2.1553063E0,2.9339778E0,8.055883E0,4.0418587E0,4.771542E1,6.431374E1,1.7852467E0,2.316834E1,1.06540184E2,1.531314E2,2.1127512E1,6.317411E0,1.0656036E1,1.5828266E1,3.224042E0,7.4459558E0,6.0875554E0,1.0258662E0],"tree_param":{"num_deleted":"0","num_feature":"28","num_nodes":"55","size_leaf_vector":"1"}},{"base_weights":[-1.2926699E-1,-5.0564945E-1,-3.434962E-2,-5.645126E-1,-8.905927E-2,-5.5621203E-2,8.4259015E-1,-5.902363E-1,-1.3894095E-1,-2.7494967E-1,5.2050814E-2,-9.4797485E-2,3.6426005E-1,1.061723E0,-9.135066E-2,-6.4509153E-1,-4.4574088E-1,-2.0991531E-1,1.8445097E-2,-1.03721015E-1,8.9752795E-3,-1.13754384E-1,2.2743401E-1,4.4791933E-2,-1.9773686E-1,-5.9026487E-2,5.6568456E-1,5.362286E-1,5.390238E-1,-1.9517837E-1,-4.8474353E-2,-1.3854365E-1,-3.6481228E-2,5.894372E-3,-7.973058E-2,-7.409495E-2,3.1568762E-2,1.01212986E-1,-1.9386737E-2,-3.9596524E-2,9.624574E-2,-9.545471E-2,-1.3678807E-2,-4.9087536E-2,5.390596E-2,2.3938866E-1,3.7670545E-2,3.2321187E-3,3.3947736E-1],"categories":[],"categories_nodes":[],"categories_segments":[],"categories_sizes":[],"default_left":[0,0,0,0,0,0,0,0,0,0,0,0,0,0,0,0,0,0,0,0,0,0,0,0,0,0,0,0,0,0,0,0,0,0,0,0,0,0,0,0,0,0,0,0,0,0,0,0,0],"id":4,"left_children":[1,3,5,7,9,11,13,15,17,19,21,23,25,27,-1,29,31,33,-1,-1,-1,35,37,39,41,43,45,47,-1,-1,-1,-1,-1,-1,-1,-1,-1,-1,-1,-1,-1,-1,-1,-1,-1,-1,-1,-1,-1],"loss_changes":[2.1012642E1,2.855072E0,8.836201E0,1.0523987E0,4.3022156E-1,7.6170263E0,3.1437383E0,4.8456192E-1,1.1553177E-1,1.6143733E-1,3.124296E-1,6.078629E0,3.405014E0,2.761405E0,0E0,7.679176E-2,1.00329876E-1,7.64384E-2,0E0,0E0,0E0,1.932225E-1,1.8627459E-1,8.830806E0,4.444042E0,3.7037766E-1,2.6486511E0,2.19291E0,0E0,0E0,0E0,0E0,0E0,0E0,0E0,0E0,0E0,0E0,0E0,0E0,0E0,0E0,0E0,0E0,0E0,0E0,0E0,0E0,0E0],"parents":[2147483647,0,0,1,1,2,2,3,3,4,4,5,5,6,6,7,7,8,8,9,9,10,10,11,11,12,12,13,13,15,15,16,16,17,17,21,21,22,22,23,23,24,24,25,25,26,26,27,27],"right_children":[2,4,6,8,10,12,14,16,18,20,22,24,26,28,-1,30,32,34,-1,-1,-1,36,38,40,42,44,46,48,-1,-1,-1,-1,-1,-1,-1,-1,-1,-1,-1,-1,-1,-1,-1,-1,-1,-1,-1,-1,-1],"split_conditions":[-5.176105E-1,1.866175E-1,3.614929E0,9.2757605E-2,-1.3394405E0,1.2335486E0,-2.2439733E0,-4.7845247E-1,-2.722907E-1,8.725799E-1,-4.7747925E-1,9.058787E-1,-2.1711266E-1,4.1441226E0,-9.135066E-2,2.8930518E-1,5.171971E-2,1.694645E-1,1.8445097E-2,-1.03721015E-1,8.9752795E-3,5.7338715E-1,9.351632E-1,-3.2913855E-1,7.715091E-2,1.8458083E-1,1.0013433E0,9.229383E-3,5.390238E-1,-1.9517837E-1,-4.8474353E-2,-1.3854365E-1,-3.6481228E-2,5.894372E-3,-7.973058E-2,-7.409495E-2,3.1568762E-2,1.01212986E-1,-1.9386737E-2,-3.9596524E-2,9.624574E-2,-9.545471E-2,-1.3678807E-2,-4.9087536E-2,5.390596E-2,2.3938866E-1,3.7670545E-2,3.2321187E-3,3.3947736E-1],"split_indices":[24,17,18,14,26,7,22,18,17,17,14,7,18,14,0,0,0,22,0,0,0,17,26,18,3,6,1,17,0,0,0,0,0,0,0,0,0,0,0,0,0,0,0,0,0,0,0,0,0],"split_type":[0,0,0,0,0,0,0,0,0,0,0,0,0,0,0,0,0,0,0,0,0,0,0,0,0,0,0,0,0,0,0,0,0,0,0,0,0,0,0,0,0,0,0,0,0,0,0,0,0],"sum_hessian":[5.876598E2,1.17480194E2,4.701796E2,1.0262453E2,1.4855667E1,4.599591E2,1.0220473E1,9.641009E1,6.214437E0,6.001352E0,8.854316E0,4.2141406E2,3.854507E1,8.643667E0,1.576806E0,6.736981E1,2.9040276E1,4.5543113E0,1.6601257E0,4.7616816E0,1.2396703E0,4.732069E0,4.1222467E0,1.7910551E2,2.4230853E2,1.2655963E1,2.5889109E1,6.0487432E0,2.5949242E0,6.6270004E1,1.099807E0,2.7263748E1,1.776529E0,1.0180861E0,3.5362256E0,2.8626077E0,1.8694612E0,2.882118E0,1.2401286E0,1.0949914E2,6.960638E1,1.346325E2,1.07676025E2,9.018719E0,3.6372445E0,1.6413548E1,9.47556E0,3.7538064E0,2.294937E0],"tree_param":{"num_deleted":"0","num_feature":"28","num_nodes":"49","size_leaf_vector":"1"}},{"base_weights":[-9.8766916E-2,-4.5353386E-1,-3.0133007E-2,-5.2305406E-1,-1.5900658E-1,-1.6971393E-1,7.523885E-2,-5.7335824E-1,-3.0766523E-1,-2.0347716E-1,7.2611816E-2,-3.2087085E-1,-7.0040405E-2,1.8853384E-1,-1.5168491E-1,-1.7425077E-1,-3.3791613E-2,-3.4096178E-1,-6.683311E-2,-2.8540987E-1,5.4128796E-2,-4.5177507E-1,-1.1628999E-1,3.215091E-1,-1.6305289E-1,4.3045445E-3,4.1431436E-1,-6.822663E-2,-5.9550524E-1,-1.0716521E-1,-2.1857778E-2,-3.6897887E-2,8.14821E-3,-9.485184E-2,6.8267393E-3,6.990201E-2,-2.1734312E-2,-1.7697462E-1,-1.10804625E-1,-1.0035857E-1,8.025958E-2,1.1718907E-2,2.3131077E-1,5.1657543E-2,-7.89495E-2,-7.2784185E-2,1.9417706E-1,2.0425566E-1,1.9068003E-2,2.3245115E-2,-7.602304E-2,3.563984E-2,-1.9810112E-1],"categories":[],"categories_nodes":[],"categories_segments":[],"categories_sizes":[],"default_left":[0,0,0,0,0,0,0,0,0,0,0,0,0,0,0,0,0,0,0,0,0,0,0,0,0,0,0,0,0,0,0,0,0,0,0,0,0,0,0,0,0,0,0,0,0,0,0,0,0,0,0,0,0],"id":5,"left_children":[1,3,5,7,9,11,13,15,17,19,-1,21,23,25,27,-1,-1,29,31,33,35,37,39,41,43,45,47,49,51,-1,-1,-1,-1,-1,-1,-1,-1,-1,-1,-1,-1,-1,-1,-1,-1,-1,-1,-1,-1,-1,-1,-1,-1],"loss_changes":[1.381723E1,1.800724E0,7.0287275E0,6.253853E-1,3.8823122E-1,3.0737753E0,7.0346966E0,1.3725662E-1,1.06866E-1,3.880368E-1,0E0,2.1269732E0,4.609295E0,7.5772953E0,3.341254E0,0E0,0E0,3.481686E-2,2.02729E-2,1.3567376E-1,1.3236104E-1,3.432598E-1,2.8622985E0,3.0620577E0,3.460903E0,1.6246723E1,7.6099043E0,2.1237893E0,7.416978E-1,0E0,0E0,0E0,0E0,0E0,0E0,0E0,0E0,0E0,0E0,0E0,0E0,0E0,0E0,0E0,0E0,0E0,0E0,0E0,0E0,0E0,0E0,0E0,0E0],"parents":[2147483647,0,0,1,1,2,2,3,3,4,4,5,5,6,6,7,7,8,8,9,9,11,11,12,12,13,13,14,14,17,17,18,18,19,19,20,20,21,21,22,22,23,23,24,24,25,25,26,26,27,27,28,28],"right_children":[2,4,6,8,10,12,14,16,18,20,-1,22,24,26,28,-1,-1,30,32,34,36,38,40,42,44,46,48,50,52,-1,-1,-1,-1,-1,-1,-1,-1,-1,-1,-1,-1,-1,-1,-1,-1,-1,-1,-1,-1,-1,-1,-1,-1],"split_conditions":[-5.388031E-1,-8.7328525E-3,4.0510482E-1,-4.012421E-1,1.0802704E0,2.3074068E-1,3.2478422E-1,1.252439E0,-1.5495154E-1,-3.0557567E-1,7.2611816E-2,8.182381E-2,-3.045247E-1,-3.8218774E-2,6.8868524E-1,-1.7425077E-1,-3.3791613E-2,2.4382976E-1,-5.106137E-1,5.2359945E-1,-5.319966E-1,-9.192639E-2,-2.6621026E-1,5.992053E-1,7.026208E-1,1.2453084E0,7.026208E-1,7.026208E-1,-3.085893E-1,-1.0716521E-1,-2.1857778E-2,-3.6897887E-2,8.14821E-3,-9.485184E-2,6.8267393E-3,6.990201E-2,-2.1734312E-2,-1.7697462E-1,-1.10804625E-1,-1.0035857E-1,8.025958E-2,1.1718907E-2,2.3131077E-1,5.1657543E-2,-7.89495E-2,-7.2784185E-2,1.9417706E-1,2.0425566E-1,1.9068003E-2,2.3245115E-2,-7.602304E-2,3.563984E-2,-1.9810112E-1],"split_indices":[24,17,26,18,17,17,22,16,18,14,0,14,24,17,14,0,0,14,3,25,16,22,22,17,17,14,17,17,17,0,0,0,0,0,0,0,0,0,0,0,0,0,0,0,0,0,0,0,0,0,0,0,0],"split_type":[0,0,0,0,0,0,0,0,0,0,0,0,0,0,0,0,0,0,0,0,0,0,0,0,0,0,0,0,0,0,0,0,0,0,0,0,0,0,0,0,0,0,0,0,0,0,0,0,0,0,0,0,0],"sum_hessian":[5.670264E2,9.100677E1,4.7601968E2,7.2999954E1,1.8006815E1,2.0450774E2,2.7151196E2,5.7831425E1,1.5168527E1,1.665287E1,1.3539447E0,8.038422E1,1.2412352E2,1.812096E2,9.030235E1,5.6651237E1,1.1801891E0,1.2960844E1,2.2076826E0,1.2552545E1,4.100325E0,4.8281963E1,3.2102257E1,2.3354164E1,1.00769356E2,1.0034804E2,8.086156E1,7.69803E1,1.3322052E1,1.1906538E1,1.0543066E0,1.1888446E0,1.018838E0,1.1389587E1,1.1629577E0,1.3506912E0,2.7496338E0,1.5742253E1,3.2539707E1,2.0547508E1,1.1554748E1,1.5009998E1,8.344165E0,2.3006765E1,7.776259E1,7.2953674E1,2.739437E1,4.5411957E1,3.5449604E1,4.340722E1,3.3573082E1,1.0392597E0,1.2282792E1],"tree_param":{"num_deleted":"0","num_feature":"28","num_nodes":"53","size_leaf_vector":"1"}},{"base_weights":[-7.8028865E-2,-2.0616394E-1,5.349987E-2,-3.981167E-1,-5.9224265E-3,1.1254442E-1,-3.8852492E-1,-4.9897644E-1,-2.8461725E-1,3.908368E-1,-7.9539634E-2,-2.3311064E-2,2.4023587E-1,-3.883307E-2,-5.407932E-1,-5.678422E-1,-3.871452E-1,-3.1820762E-1,5.1368177E-2,7.2540754E-1,2.5538212E-1,-1.0414737E-1,3.3252943E-1,-1.6821837E-1,3.0706286E-1,4.915531E-1,-1.4161962E-1,-2.6246396E-1,2.0707265E-1,-6.7265075E-1,-9.2685714E-2,-1.7266133E-1,-3.7056785E-2,-1.2098695E-1,1.5546629E-2,-1.19796805E-1,-6.019081E-2,-9.9099986E-2,8.944114E-2,2.3830096E-1,6.0431972E-2,1.5851443E-1,4.5695137E-2,4.3854173E-2,-6.419815E-2,-1.765334E-1,-4.076333E-3,-5.404802E-3,2.2459085E-1,6.0994164E-3,2.2571965E-1,1.0380193E-1,-1.2330583E-1,-6.9322246E-3,-9.1750525E-2,1.484647E-1,-3.9974265E-2,-2.2789119E-1,1.2768177E-2,8.171508E-2,-7.617812E-2],"categories":[],"categories_nodes":[],"categories_segments":[],"categories_sizes":[],"default_left":[0,0,0,0,0,0,0,0,0,0,0,0,0,0,0,0,0,0,0,0,0,0,0,0,0,0,0,0,0,0,0,0,0,0,0,0,0,0,0,0,0,0,0,0,0,0,0,0,0,0,0,0,0,0,0,0,0,0,0,0,0],"id":6,"left_children":[1,3,5,7,9,11,13,15,17,19,21,23,25,27,29,31,33,35,37,39,41,43,-1,45,47,49,51,53,55,57,59,-1,-1,-1,-1,-1,-1,-1,-1,-1,-1,-1,-1,-1,-1,-1,-1,-1,-1,-1,-1,-1,-1,-1,-1,-1,-1,-1,-1,-1,-1],"loss_changes":[9.368221E0,1.0815286E1,7.215005E0,1.5027428E0,4.084048E0,4.2239733E0,1.7149978E0,3.558197E-1,8.0557775E-1,8.0660367E-1,3.561296E0,5.7356415E0,1.21075735E1,6.5746546E-1,1.2751012E0,7.975769E-2,2.4505758E-1,5.2751017E-1,7.782645E-1,4.8162222E-2,4.0127945E-1,3.231909E0,0E0,5.3967757E0,5.260522E0,9.310793E0,6.784772E0,5.7138503E-2,6.3232315E-1,1.110455E0,4.4036826E-1,0E0,0E0,0E0,0E0,0E0,0E0,0E0,0E0,0E0,0E0,0E0,0E0,0E0,0E0,0E0,0E0,0E0,0E0,0E0,0E0,0E0,0E0,0E0,0E0,0E0,0E0,0E0,0E0,0E0,0E0],"parents":[2147483647,0,0,1,1,2,2,3,3,4,4,5,5,6,6,7,7,8,8,9,9,10,10,11,11,12,12,13,13,14,14,15,15,16,16,17,17,18,18,19,19,20,20,21,21,23,23,24,24,25,25,26,26,27,27,28,28,29,29,30,30],"right_children":[2,4,6,8,10,12,14,16,18,20,22,24,26,28,30,32,34,36,38,40,42,44,-1,46,48,50,52,54,56,58,60,-1,-1,-1,-1,-1,-1,-1,-1,-1,-1,-1,-1,-1,-1,-1,-1,-1,-1,-1,-1,-1,-1,-1,-1,-1,-1,-1,-1,-1,-1],"split_conditions":[-1.1412702E-1,2.4980208E-1,1.236844E0,-2.3461421E-1,-6.5269166E-1,-1.0405554E-1,2.9774833E-1,8.656705E-1,9.870568E-2,-1.0099878E0,1.5696746E0,1.351109E0,6.8868524E-1,6.1071527E-1,2.051979E0,1.3897552E0,1.165763E0,7.656863E-1,-8.4716856E-1,5.1807135E-1,-3.045247E-1,-3.045247E-1,3.3252943E-1,-1.638057E0,-2.3374922E0,-5.287744E-1,-1.2914045E0,-6.1761137E-2,1.7091509E0,1.5696746E0,1.0136999E0,-1.7266133E-1,-3.7056785E-2,-1.2098695E-1,1.5546629E-2,-1.19796805E-1,-6.019081E-2,-9.9099986E-2,8.944114E-2,2.3830096E-1,6.0431972E-2,1.5851443E-1,4.5695137E-2,4.3854173E-2,-6.419815E-2,-1.765334E-1,-4.076333E-3,-5.404802E-3,2.2459085E-1,6.0994164E-3,2.2571965E-1,1.0380193E-1,-1.2330583E-1,-6.9322246E-3,-9.1750525E-2,1.484647E-1,-3.9974265E-2,-2.2789119E-1,1.2768177E-2,8.171508E-2,-7.617812E-2],"split_indices":[14,17,17,17,25,17,14,26,20,25,16,14,14,0,17,9,9,26,22,22,24,24,0,22,22,26,22,22,17,16,9,0,0,0,0,0,0,0,0,0,0,0,0,0,0,0,0,0,0,0,0,0,0,0,0,0,0,0,0,0,0],"split_type":[0,0,0,0,0,0,0,0,0,0,0,0,0,0,0,0,0,0,0,0,0,0,0,0,0,0,0,0,0,0,0,0,0,0,0,0,0,0,0,0,0,0,0,0,0,0,0,0,0,0,0,0,0,0,0,0,0,0,0,0,0],"sum_hessian":[5.542095E2,2.804389E2,2.7377054E2,1.4267834E2,1.3776054E2,2.4216779E2,3.1602768E1,7.374743E1,6.893092E1,2.0886097E1,1.1687445E2,1.1772907E2,1.2443871E2,9.967324E0,2.1635443E1,4.3117798E1,3.0629627E1,6.2713966E1,6.2169557E0,4.7639265E0,1.612217E1,1.15396454E2,1.4779998E0,8.2176125E1,3.5552944E1,7.487358E1,4.9565132E1,5.184822E0,4.782502E0,1.6329365E1,5.3060794E0,4.2093422E1,1.024375E0,2.9621466E1,1.0081625E0,3.5692535E1,2.702143E1,2.3081236E0,3.908832E0,3.7540689E0,1.0098579E0,3.2875104E0,1.2834659E1,3.509288E1,8.030357E1,2.1349888E1,6.0826237E1,2.1030123E1,1.4522823E1,2.7062576E1,4.7811005E1,1.7537352E1,3.202778E1,1.0304968E0,4.1543255E0,2.3450882E0,2.437414E0,1.45033045E1,1.8260597E0,1.4144063E0,3.8916728E0],"tree_param":{"num_deleted":"0","num_feature":"28","num_nodes":"61","size_leaf_vector":"1"}},{"base_weights":[-6.2098034E-2,-1.5235017E-1,7.702849E-2,-3.076745E-1,-7.407904E-2,1.955414E-1,-7.125756E-2,-3.4953994E-1,1.893713E-1,-2.0078157E-1,2.5743047E-2,6.890912E-2,5.344373E-1,3.5905418E-1,-1.657332E-1,-4.340407E-1,-2.5189584E-1,3.0017707E-1,-1.3027444E-1,-3.3592275E-1,-8.738161E-2,-3.6074355E-2,3.258668E-1,3.4040135E-1,-4.740086E-2,6.465595E-2,7.075534E-1,5.1778E-1,-2.2468737E-1,7.283294E-1,-2.297885E-1,-1.3595861E-1,-8.698156E-3,-1.3154314E-1,-5.7342876E-2,9.446616E-3,1.276394E-1,1.3357275E-2,-7.1232036E-2,-1.0520733E-1,2.122874E-2,6.2527615E-3,-9.432251E-2,6.2841657E-3,-6.733129E-2,2.4080286E-2,1.5229277E-1,1.5077956E-1,9.308491E-3,-2.7607108E-2,1.4272256E-1,8.231156E-2,-5.368384E-2,2.3751341E-1,2.5505198E-2,1.9535948E-1,-6.767125E-3,6.843694E-2,-1.3612671E-1,2.5684115E-1,7.0677385E-2,-3.9808333E-2,-1.5569139E-1],"categories":[],"categories_nodes":[],"categories_segments":[],"categories_sizes":[],"default_left":[0,0,0,0,0,0,0,0,0,0,0,0,0,0,0,0,0,0,0,0,0,0,0,0,0,0,0,0,0,0,0,0,0,0,0,0,0,0,0,0,0,0,0,0,0,0,0,0,0,0,0,0,0,0,0,0,0,0,0,0,0,0,0],"id":7,"left_children":[1,3,5,7,9,11,13,15,17,19,21,23,25,27,29,31,33,35,37,39,41,43,45,47,49,51,53,55,57,59,61,-1,-1,-1,-1,-1,-1,-1,-1,-1,-1,-1,-1,-1,-1,-1,-1,-1,-1,-1,-1,-1,-1,-1,-1,-1,-1,-1,-1,-1,-1,-1,-1],"loss_changes":[6.860427E0,4.003254E0,3.7970757E0,2.3686094E0,2.806825E0,5.109318E0,3.9768105E0,7.3557854E-1,3.6651796E-1,1.4683294E0,2.3269083E0,2.8089375E0,2.595004E0,1.7528701E0,4.7314243E0,4.0203476E-1,4.816966E-1,2.2787231E-1,6.821042E-2,2.9051256E-1,1.3453606E0,1.1257614E0,9.151926E-1,1.3216007E0,1.5096772E0,5.52009E-1,1.1705256E0,1.0376098E0,5.6750625E-1,1.4894032E-1,2.040538E0,0E0,0E0,0E0,0E0,0E0,0E0,0E0,0E0,0E0,0E0,0E0,0E0,0E0,0E0,0E0,0E0,0E0,0E0,0E0,0E0,0E0,0E0,0E0,0E0,0E0,0E0,0E0,0E0,0E0,0E0,0E0,0E0],"parents":[2147483647,0,0,1,1,2,2,3,3,4,4,5,5,6,6,7,7,8,8,9,9,10,10,11,11,12,12,13,13,14,14,15,15,16,16,17,17,18,18,19,19,20,20,21,21,22,22,23,23,24,24,25,25,26,26,27,27,28,28,29,29,30,30],"right_children":[2,4,6,8,10,12,14,16,18,20,22,24,26,28,30,32,34,36,38,40,42,44,46,48,50,52,54,56,58,60,62,-1,-1,-1,-1,-1,-1,-1,-1,-1,-1,-1,-1,-1,-1,-1,-1,-1,-1,-1,-1,-1,-1,-1,-1,-1,-1,-1,-1,-1,-1,-1,-1],"split_conditions":[2.2035328E-1,-4.0705276E-1,7.026208E-1,1.0802704E0,6.0051274E-1,3.3645797E-1,-7.735081E-1,-3.6874285E-1,1.5067229E0,-1.0941486E-1,1.8729407E0,-9.3988985E-1,-1.205511E0,1.2453084E0,-3.045247E-1,7.259922E-1,-9.192639E-2,1.236844E0,4.3794295E-1,1.2872311E0,1.6893826E0,9.367158E-1,1.8898532E0,-1.06636904E-1,3.262344E0,-8.859209E-2,1.2453084E0,1.9342293E0,-1.99139E0,9.4054776E-1,3.185797E-1,-1.3595861E-1,-8.698156E-3,-1.3154314E-1,-5.7342876E-2,9.446616E-3,1.276394E-1,1.3357275E-2,-7.1232036E-2,-1.0520733E-1,2.122874E-2,6.2527615E-3,-9.432251E-2,6.2841657E-3,-6.733129E-2,2.4080286E-2,1.5229277E-1,1.5077956E-1,9.308491E-3,-2.7607108E-2,1.4272256E-1,8.231156E-2,-5.368384E-2,2.3751341E-1,2.5505198E-2,1.9535948E-1,-6.767125E-3,6.843694E-2,-1.3612671E-1,2.5684115E-1,7.0677385E-2,-3.9808333E-2,-1.5569139E-1],"split_indices":[3,14,17,17,26,17,22,23,21,17,19,25,26,14,24,16,22,17,23,7,21,26,27,16,14,16,14,23,22,22,14,0,0,0,0,0,0,0,0,0,0,0,0,0,0,0,0,0,0,0,0,0,0,0,0,0,0,0,0,0,0,0,0],"split_type":[0,0,0,0,0,0,0,0,0,0,0,0,0,0,0,0,0,0,0,0,0,0,0,0,0,0,0,0,0,0,0,0,0,0,0,0,0,0,0,0,0,0,0,0,0,0,0,0,0,0,0,0,0,0,0,0,0,0,0,0,0,0,0],"sum_hessian":[5.4443146E2,3.301599E2,2.1427158E2,1.0964505E2,2.2051486E2,1.18914375E2,9.535721E1,1.0140096E2,8.244085E0,9.672809E1,1.23786766E2,8.744347E1,3.1470903E1,1.6662663E1,7.869455E1,5.251209E1,4.8888874E1,6.1671414E0,2.0769434E0,4.323807E1,5.349002E1,1.0337426E2,2.041251E1,2.5648272E1,6.1795197E1,8.844166E0,2.2626738E1,1.3189333E1,3.4733293E0,4.5678387E0,7.412671E1,5.0027424E1,2.484664E0,1.048144E1,3.8407436E1,2.3591354E0,3.8080063E0,1.0115407E0,1.0654027E0,4.1855804E1,1.3822654E0,3.6837635E1,1.6652388E1,8.003481E1,2.3339445E1,9.2952175E0,1.1117291E1,1.6416767E1,9.2315035E0,5.7697807E1,4.097391E0,4.6847634E0,4.159403E0,1.9692802E1,2.9339356E0,1.0413015E1,2.7763171E0,1.168206E0,2.3051233E0,3.041434E0,1.5264046E0,5.6586475E1,1.7540232E1],"tree_param":{"num_deleted":"0","num_feature":"28","num_nodes":"63","size_leaf_vector":"1"}},{"base_weights":[-4.758104E-2,-1.3540757E-1,5.405409E-2,-1.6080216E-1,6.1823803E-1,6.011595E-1,8.445282E-3,-3.332033E-1,-9.811453E-2,2.062703E-1,3.225145E-1,8.132951E-2,7.9480517E-1,-4.9327757E-2,3.0952454E-1,-3.526162E-1,1.14999965E-1,-2.5246057E-1,-3.3120792E-2,3.186292E-1,-4.869494E-2,-8.125529E-2,2.587658E-1,8.99934E-1,1.5244769E-1,4.201899E-2,-2.0058618E-1,4.99494E-1,3.2713737E-2,-1.3203853E-1,-7.3199086E-2,-8.561002E-2,3.6893473E-3,1.7576389E-2,-4.013597E-2,1.3524041E-2,1.1361228E-1,2.1359911E-2,-4.997184E-2,1.10838816E-1,1.0291817E-2,5.1533032E-2,3.0621752E-1,1.03293665E-1,-3.633092E-2,4.0194266E-2,-5.3708773E-2,-5.2293856E-3,-1.18647896E-1,2.5544295E-1,8.2099944E-2,-2.8455684E-2,1.1563938E-1],"categories":[],"categories_nodes":[],"categories_segments":[],"categories_sizes":[],"default_left":[0,0,0,0,0,0,0,0,0,0,0,0,0,0,0,0,0,0,0,0,0,0,0,0,0,0,0,0,0,0,0,0,0,0,0,0,0,0,0,0,0,0,0,0,0,0,0,0,0,0,0,0,0],"id":8,"left_children":[1,3,5,7,9,11,13,15,17,19,-1,21,23,25,27,29,-1,31,33,35,-1,37,39,41,43,45,47,49,51,-1,-1,-1,-1,-1,-1,-1,-1,-1,-1,-1,-1,-1,-1,-1,-1,-1,-1,-1,-1,-1,-1,-1,-1],"loss_changes":[4.796239E0,5.612937E0,6.2184753E0,2.9878497E0,1.584358E0,1.8658538E0,4.037429E0,1.1660385E0,2.0619283E0,3.1195235E-1,0E0,2.0332162E-1,7.9869175E-1,2.700941E0,1.948514E0,5.834274E-1,0E0,5.349705E-1,1.3591744E0,6.7617476E-2,0E0,6.465008E-2,6.8339035E-2,8.5423374E-1,2.0718591E-1,2.5105808E0,2.618579E0,1.5227032E0,7.690012E-1,0E0,0E0,0E0,0E0,0E0,0E0,0E0,0E0,0E0,0E0,0E0,0E0,0E0,0E0,0E0,0E0,0E0,0E0,0E0,0E0,0E0,0E0,0E0,0E0],"parents":[2147483647,0,0,1,1,2,2,3,3,4,4,5,5,6,6,7,7,8,8,9,9,11,11,12,12,13,13,14,14,15,15,17,17,18,18,19,19,21,21,22,22,23,23,24,24,25,25,26,26,27,27,28,28],"right_children":[2,4,6,8,10,12,14,16,18,20,-1,22,24,26,28,30,-1,32,34,36,-1,38,40,42,44,46,48,50,52,-1,-1,-1,-1,-1,-1,-1,-1,-1,-1,-1,-1,-1,-1,-1,-1,-1,-1,-1,-1,-1,-1,-1,-1],"split_conditions":[-5.399137E-3,1.5696746E0,8.3682436E-1,-3.001967E-1,5.7895595E-1,-1.1815253E0,1.2057517E0,8.517632E-1,-1.3491788E0,9.135716E-1,3.225145E-1,-1.1912534E0,5.256114E-1,3.1722486E-1,8.0001795E-1,8.087152E-1,1.14999965E-1,1.236844E0,-3.045247E-1,-1.3518314E0,-4.869494E-2,7.821065E-1,7.9978824E-1,-2.0708375E0,2.4382976E-1,6.790776E-1,1.8414975E0,1.8195343E0,1.2969481E0,-1.3203853E-1,-7.3199086E-2,-8.561002E-2,3.6893473E-3,1.7576389E-2,-4.013597E-2,1.3524041E-2,1.1361228E-1,2.1359911E-2,-4.997184E-2,1.10838816E-1,1.0291817E-2,5.1533032E-2,3.0621752E-1,1.03293665E-1,-3.633092E-2,4.0194266E-2,-5.3708773E-2,-5.2293856E-3,-1.18647896E-1,2.5544295E-1,8.2099944E-2,-2.8455684E-2,1.1563938E-1],"split_indices":[24,16,7,17,0,4,7,14,26,26,0,1,22,16,4,26,0,17,24,26,0,7,7,22,14,25,12,27,7,0,0,0,0,0,0,0,0,0,0,0,0,0,0,0,0,0,0,0,0,0,0,0,0],"split_type":[0,0,0,0,0,0,0,0,0,0,0,0,0,0,0,0,0,0,0,0,0,0,0,0,0,0,0,0,0,0,0,0,0,0,0,0,0,0,0,0,0,0,0,0,0,0,0,0,0,0,0,0,0],"sum_hessian":[5.3549786E2,2.870851E2,2.4841273E2,2.784879E2,8.597201E0,1.8177828E1,2.3023491E2,7.3109535E1,2.0537839E2,5.2837095E0,3.313492E0,5.3190775E0,1.2858751E1,1.9387003E2,3.6364876E1,7.167554E1,1.4339964E0,6.000208E1,1.4537631E2,4.1531987E0,1.1305108E0,3.0585701E0,2.2605076E0,1.0705666E1,2.1530857E0,1.21323524E2,7.25465E1,2.1088097E1,1.5276777E1,3.8004276E1,3.3671265E1,5.3299747E1,6.7023315E0,7.629127E1,6.9085045E1,1.06309E0,3.0901086E0,1.1568512E0,1.901719E0,1.0812556E0,1.179252E0,1.8678601E0,8.837805E0,1.1134502E0,1.0396354E0,8.595702E1,3.53665E1,3.796244E1,3.4584064E1,7.159142E0,1.3928955E1,1.1756395E1,3.5203826E0],"tree_param":{"num_deleted":"0","num_feature":"28","num_nodes":"53","size_leaf_vector":"1"}},{"base_weights":[-3.528524E-2,-4.8942745E-2,4.7969705E-1,-8.0557555E-2,1.3428532E-1,5.0503635E-3,5.551634E-1,-2.2988853E-1,-4.6753906E-2,9.9084556E-2,7.6155216E-1,2.0222869E-2,6.263961E-1,-2.9983944E-1,1.5877877E-1,-2.2786884E-1,-1.8222291E-2,-2.6008365E-1,1.5167868E-1,6.905819E-2,2.7040085E-1,6.8977314E-1,1.0854907E-2,-1.2005164E-1,-6.734535E-2,1.0750245E-1,3.9147804E-3,-8.2100645E-2,6.449772E-2,1.9425634E-2,-3.274208E-2,-1.22684166E-1,5.6192663E-2,-2.917353E-2,6.646766E-2,8.7780856E-2,2.5359097E-1],"categories":[],"categories_nodes":[],"categories_segments":[],"categories_sizes":[],"default_left":[0,0,0,0,0,0,0,0,0,0,0,0,0,0,0,0,0,0,0,0,0,0,0,0,0,0,0,0,0,0,0,0,0,0,0,0,0],"id":9,"left_children":[1,3,5,7,9,-1,11,13,15,17,19,-1,21,23,25,27,29,31,33,-1,-1,35,-1,-1,-1,-1,-1,-1,-1,-1,-1,-1,-1,-1,-1,-1,-1],"loss_changes":[3.7444532E0,3.0015116E0,4.71318E-1,2.2150714E0,1.6103241E0,0E0,3.6776376E-1,2.2534604E0,1.860295E0,1.4267535E0,8.272958E-2,0E0,3.5568237E-1,4.3264532E-1,3.7423104E-1,1.0530314E0,2.3666854E0,7.2587997E-1,1.1468486E0,0E0,0E0,3.168764E-1,0E0,0E0,0E0,0E0,0E0,0E0,0E0,0E0,0E0,0E0,0E0,0E0,0E0,0E0,0E0],"parents":[2147483647,0,0,1,1,2,2,3,3,4,4,6,6,7,7,8,8,9,9,10,10,12,12,13,13,14,14,15,15,16,16,17,17,18,18,21,21],"right_children":[2,4,6,8,10,-1,12,14,16,18,20,-1,22,24,26,28,30,32,34,-1,-1,36,-1,-1,-1,-1,-1,-1,-1,-1,-1,-1,-1,-1,-1,-1,-1],"split_conditions":[1.3093731E0,1.8560692E0,-4.2109287E-1,-5.5076426E-1,5.993764E0,5.0503635E-3,-6.016958E-1,1.0802704E0,-1.2402865E0,-8.932533E-1,1.898115E0,2.0222869E-2,1.1485479E0,-4.9537006E-1,4.52845E-1,1.0884308E0,9.6019834E-1,3.262344E0,1.01853E0,6.905819E-2,2.7040085E-1,1.796516E-1,1.0854907E-2,-1.2005164E-1,-6.734535E-2,1.0750245E-1,3.9147804E-3,-8.2100645E-2,6.449772E-2,1.9425634E-2,-3.274208E-2,-1.22684166E-1,5.6192663E-2,-2.917353E-2,6.646766E-2,8.7780856E-2,2.5359097E-1],"split_indices":[7,19,18,14,20,0,17,17,1,17,27,0,14,23,22,7,7,14,9,0,0,6,0,0,0,0,0,0,0,0,0,0,0,0,0,0,0],"split_type":[0,0,0,0,0,0,0,0,0,0,0,0,0,0,0,0,0,0,0,0,0,0,0,0,0,0,0,0,0,0,0,0,0,0,0,0,0],"sum_hessian":[5.280454E2,5.1528485E2,1.276057E1,4.3993695E2,7.534791E1,1.9603151E0,1.0800255E1,8.013443E1,3.5980252E2,7.2440674E1,2.9072397E0,1.6243217E0,9.175933E0,6.810559E1,1.2028845E1,4.8016098E1,3.117864E2,8.748892E0,6.369178E1,1.1567792E0,1.7504606E0,8.133838E0,1.0420957E0,2.7362625E1,4.074296E1,4.4609914E0,7.567854E0,4.3862007E1,4.154091E0,1.6316504E2,1.4862138E2,6.629088E0,2.1198037E0,1.38750725E1,4.9816708E1,3.0996702E0,5.0341673E0],"tree_param":{"num_deleted":"0","num_feature":"28","num_nodes":"37","size_leaf_vector":"1"}},{"base_weights":[-2.5492959E-2,1.934948E-2,-1.3623676E-1,-7.796848E-2,1.12690814E-1,-1.1236171E-1,-4.0282905E-1,-2.1398754E-1,4.770964E-2,1.2929422E-1,-5.309732E-1,-2.8460568E-1,-6.510001E-2,2.5077987E-2,-4.5915145E-1,-6.16619E-2,-2.8900525E-1,2.3417461E-1,-7.177966E-2,-1.8053833E-1,1.6355668E-1,-3.2281805E-2,-1.8385053E-1,-3.1055832E-1,6.322456E-2,3.035543E-2,-1.8772617E-1,-5.0048417E-1,-2.8728865E-2,4.4247326E-2,-7.720367E-2,-1.1698842E-1,-4.8517283E-2,-1.967236E-2,1.05278604E-1,-5.2524578E-2,1.1782646E-1,-1.1356468E-1,1.6079144E-1,8.594163E-3,8.6821355E-2,-1.0800376E-1,-6.4317234E-2,-4.439061E-2,8.538231E-2,1.0736647E-1,-8.993942E-2,-6.9415405E-2,-1.7118748E-1],"categories":[],"categories_nodes":[],"categories_segments":[],"categories_sizes":[],"default_left":[0,0,0,0,0,0,0,0,0,0,0,0,0,0,0,0,0,0,0,0,0,0,0,0,0,0,0,0,0,0,0,0,0,0,0,0,0,0,0,0,0,0,0,0,0,0,0,0,0],"id":10,"left_children":[1,3,5,7,9,11,13,15,17,19,21,23,25,-1,27,29,31,33,35,37,39,-1,-1,41,-1,43,45,47,-1,-1,-1,-1,-1,-1,-1,-1,-1,-1,-1,-1,-1,-1,-1,-1,-1,-1,-1,-1,-1],"loss_changes":[2.5993538E0,3.3976321E0,9.147663E-1,3.1425104E0,2.1080773E0,1.1196896E0,3.6743617E-1,9.898081E-1,2.1569579E0,2.012926E0,1.0715556E-1,4.4865632E-1,1.3051381E0,0E0,1.160655E-1,1.280853E0,6.926384E-1,1.3440876E0,2.9147167E0,2.9097877E0,2.8568993E0,0E0,0E0,5.9446335E-2,0E0,2.9113035E0,3.0870361E0,4.8537016E-2,0E0,0E0,0E0,0E0,0E0,0E0,0E0,0E0,0E0,0E0,0E0,0E0,0E0,0E0,0E0,0E0,0E0,0E0,0E0,0E0,0E0],"parents":[2147483647,0,0,1,1,2,2,3,3,4,4,5,5,6,6,7,7,8,8,9,9,10,10,11,11,12,12,14,14,15,15,16,16,17,17,18,18,19,19,20,20,23,23,25,25,26,26,27,27],"right_children":[2,4,6,8,10,12,14,16,18,20,22,24,26,-1,28,30,32,34,36,38,40,-1,-1,42,-1,44,46,48,-1,-1,-1,-1,-1,-1,-1,-1,-1,-1,-1,-1,-1,-1,-1,-1,-1,-1,-1,-1,-1],"split_conditions":[5.363703E-1,6.2864774E-1,6.8868524E-1,2.0382813E-1,2.570126E0,-1.8054542E-1,-2.8150252E-1,-5.7724905E-1,-2.644465E-1,-9.5150334E-1,1.6755942E0,3.0045757E-1,-3.045247E-1,2.5077987E-2,2.5271199E0,-5.0973856E-1,-3.7366858E-1,-4.105544E-1,1.5696746E0,3.262344E0,2.2188146E-2,-3.2281805E-2,-1.8385053E-1,-5.129942E-1,6.322456E-2,4.3263343E-1,5.0488853E-1,1.9081796E-2,-2.8728865E-2,4.4247326E-2,-7.720367E-2,-1.1698842E-1,-4.8517283E-2,-1.967236E-2,1.05278604E-1,-5.2524578E-2,1.1782646E-1,-1.1356468E-1,1.6079144E-1,8.594163E-3,8.6821355E-2,-1.0800376E-1,-6.4317234E-2,-4.439061E-2,8.538231E-2,1.0736647E-1,-8.993942E-2,-6.9415405E-2,-1.7118748E-1],"split_indices":[22,26,14,17,16,17,17,25,16,17,10,6,24,0,17,16,22,14,16,14,14,0,0,18,0,17,17,26,0,0,0,0,0,0,0,0,0,0,0,0,0,0,0,0,0,0,0,0,0],"split_type":[0,0,0,0,0,0,0,0,0,0,0,0,0,0,0,0,0,0,0,0,0,0,0,0,0,0,0,0,0,0,0,0,0,0,0,0,0,0,0,0,0,0,0,0,0,0,0,0,0],"sum_hessian":[5.218969E2,3.720653E2,1.498316E2,1.8223317E2,1.8983215E2,1.3882079E2,1.1010821E1,8.7178665E1,9.50545E1,1.8583757E2,3.9945781E0,2.8808195E1,1.1001259E2,1.0923828E0,9.918439E0,2.9368017E1,5.781065E1,3.6748333E1,5.8306164E1,1.8079239E1,1.6775833E2,1.022252E0,2.9723263E0,2.7728498E1,1.079697E0,6.2282616E1,4.772997E1,8.566764E0,1.3516742E0,1.4314499E1,1.5053518E1,3.1088352E1,2.6722298E1,1.0424161E1,2.6324173E1,4.820871E1,1.0097454E1,1.4534299E1,3.5449402E0,8.155675E1,8.6201584E1,1.6499855E1,1.1228643E1,3.68531E1,2.5429518E1,7.7595835E0,3.9970387E1,2.6600752E0,5.906689E0],"tree_param":{"num_deleted":"0","num_feature":"28","num_nodes":"49","size_leaf_vector":"1"}},{"base_weights":[-2.1555156E-2,-1.8273497E-1,5.4336283E-3,-2.3684525E-1,1.0753537E-1,4.6418823E-2,-1.7017445E-1,-1.438721E-1,-3.4259096E-1,-1.22262605E-1,2.032717E-1,-4.86942E-2,1.108222E-1,-1.808745E-1,9.662626E-2,-2.510713E-1,1.0527254E-2,-3.6101738E-1,-7.467735E-3,-5.281439E-2,-6.9322344E-3,3.599301E-1,-9.794767E-3,-1.19592E-1,2.5759637E-2,6.9277115E-2,2.9958767E-1,-1.1238744E-1,-2.7097622E-1,-8.588334E-2,6.1261196E-2,-3.819121E-2,5.784826E-2,-1.2012581E-1,-6.034605E-2,1.0171192E-2,1.4497182E-1,4.8442177E-2,-6.066042E-2,-6.815915E-2,-1.2489162E-2,1.3978592E-2,-1.4349836E-1,-2.3832815E-2,3.203503E-2,1.461871E-1,5.1738147E-2,-4.993576E-3,-6.1609305E-2,-1.0175869E-1,-4.2095467E-2],"categories":[],"categories_nodes":[],"categories_segments":[],"categories_sizes":[],"default_left":[0,0,0,0,0,0,0,0,0,0,0,0,0,0,0,0,0,0,0,0,0,0,0,0,0,0,0,0,0,0,0,0,0,0,0,0,0,0,0,0,0,0,0,0,0,0,0,0,0,0,0],"id":11,"left_children":[1,3,5,7,9,11,13,15,17,19,21,23,25,27,-1,29,31,33,-1,-1,-1,35,37,39,41,43,45,47,49,-1,-1,-1,-1,-1,-1,-1,-1,-1,-1,-1,-1,-1,-1,-1,-1,-1,-1,-1,-1,-1,-1],"loss_changes":[2.2639396E0,1.1978457E0,3.2220106E0,5.7232237E-1,2.980001E-1,2.2280865E0,5.044813E-1,5.88055E-1,1.5994501E-1,1.8735133E-2,3.0860654E-1,7.8005755E-1,1.6783476E0,4.8514867E-1,0E0,3.9370835E-1,4.1284305E-1,9.079385E-2,0E0,0E0,0E0,1.964351E-1,1.9235069E-1,6.2454E-1,7.8500426E-1,1.0062499E0,8.413768E-1,4.3437588E-1,2.677157E-1,0E0,0E0,0E0,0E0,0E0,0E0,0E0,0E0,0E0,0E0,0E0,0E0,0E0,0E0,0E0,0E0,0E0,0E0,0E0,0E0,0E0,0E0],"parents":[2147483647,0,0,1,1,2,2,3,3,4,4,5,5,6,6,7,7,8,8,9,9,10,10,11,11,12,12,13,13,15,15,16,16,17,17,21,21,22,22,23,23,24,24,25,25,26,26,27,27,28,28],"right_children":[2,4,6,8,10,12,14,16,18,20,22,24,26,28,-1,30,32,34,-1,-1,-1,36,38,40,42,44,46,48,50,-1,-1,-1,-1,-1,-1,-1,-1,-1,-1,-1,-1,-1,-1,-1,-1,-1,-1,-1,-1,-1,-1],"split_conditions":[-1.1975766E0,1.0666075E0,1.1218482E0,8.4701926E-1,1.8960519E-1,-1.3858706E-1,2.2045405E0,-1.0596813E0,2.8368964E0,1.1860787E0,1.8245541E0,7.3022616E-1,1.1465735E0,1.221175E0,9.662626E-2,1.5008576E0,-4.334609E-1,9.959601E-1,-7.467735E-3,-5.281439E-2,-6.9322344E-3,1.1113693E0,1.5203741E-1,-9.192639E-2,2.570126E0,-5.3983104E-1,2.4767406E-2,1.0199339E0,9.281196E-2,-8.588334E-2,6.1261196E-2,-3.819121E-2,5.784826E-2,-1.2012581E-1,-6.034605E-2,1.0171192E-2,1.4497182E-1,4.8442177E-2,-6.066042E-2,-6.815915E-2,-1.2489162E-2,1.3978592E-2,-1.4349836E-1,-2.3832815E-2,3.203503E-2,1.461871E-1,5.1738147E-2,-4.993576E-3,-6.1609305E-2,-1.0175869E-1,-4.2095467E-2],"split_indices":[4,7,4,7,6,3,10,1,13,7,27,26,7,1,0,16,24,7,0,0,0,7,16,22,16,18,1,7,24,0,0,0,0,0,0,0,0,0,0,0,0,0,0,0,0,0,0,0,0,0,0],"split_type":[0,0,0,0,0,0,0,0,0,0,0,0,0,0,0,0,0,0,0,0,0,0,0,0,0,0,0,0,0,0,0,0,0,0,0,0,0,0,0,0,0,0,0,0,0,0,0,0,0,0,0],"sum_hessian":[5.1921204E2,7.364223E1,4.455698E2,6.2226437E1,1.1415789E1,3.6185263E2,8.371716E1,3.436914E1,2.7857296E1,3.275782E0,8.140007E0,1.4619337E2,2.1565924E2,8.255527E1,1.1618959E0,1.9915632E1,1.4453506E1,2.6201279E1,1.6560175E0,1.6210088E0,1.6547735E0,4.2937303E0,3.8462763E0,7.4574455E1,7.161891E1,1.7787749E2,3.778177E1,4.8180336E1,3.437493E1,1.8830654E1,1.0849786E0,8.402403E0,6.0511036E0,1.9813143E1,6.3881373E0,1.5281903E0,2.76554E0,2.1199727E0,1.7263036E0,3.0526491E1,4.4047966E1,6.96477E1,1.9712136E0,3.5599693E1,1.4227779E2,1.4112154E1,2.3669615E1,2.4318052E1,2.3862284E1,2.1534985E1,1.2839948E1],"tree_param":{"num_deleted":"0","num_feature":"28","num_nodes":"51","size_leaf_vector":"1"}},{"base_weights":[-1.6995646E-2,-2.2670407E-2,6.0502154E-1,-2.1648013E-3,-1.7396274E-1,2.4139035E-2,7.254525E-1,-1.4601982E-1,2.7862115E-2,-9.101156E-2,-2.5209057E-1,2.7260494E-1,3.5753857E-2,-1.8957323E-1,1.4658633E-1,-1.7144446E-1,4.5442704E-2,-1.8436264E-1,2.7991605E-1,-2.8415233E-1,5.6309227E-2,-2.9042874E-2,-8.049526E-2,-3.6456916E-2,8.595566E-2,-6.582804E-2,-1.794738E-2,3.827454E-2,-2.545099E-3,-6.488603E-2,2.76094E-2,1.4064147E-1,1.6692119E-2,-9.7405106E-2,-1.5213553E-2],"categories":[],"categories_nodes":[],"categories_segments":[],"categories_sizes":[],"default_left":[0,0,0,0,0,0,0,0,0,0,0,0,0,0,0,0,0,0,0,0,0,0,0,0,0,0,0,0,0,0,0,0,0,0,0],"id":12,"left_children":[1,3,5,7,9,-1,11,13,15,17,19,-1,-1,21,23,25,27,29,31,33,-1,-1,-1,-1,-1,-1,-1,-1,-1,-1,-1,-1,-1,-1,-1],"loss_changes":[1.8398952E0,1.593132E0,2.3938799E-1,1.96233E0,3.7430203E-1,0E0,3.0368137E-1,1.027524E0,1.3249308E0,1.1352477E0,4.9045444E-1,0E0,0E0,4.759953E-1,4.3729347E-1,1.5118706E-1,1.5346693E0,2.4584013E-1,2.5730455E-1,2.6068425E-1,0E0,0E0,0E0,0E0,0E0,0E0,0E0,0E0,0E0,0E0,0E0,0E0,0E0,0E0,0E0],"parents":[2147483647,0,0,1,1,2,2,3,3,4,4,6,6,7,7,8,8,9,9,10,10,13,13,14,14,15,15,16,16,17,17,18,18,19,19],"right_children":[2,4,6,8,10,-1,12,14,16,18,20,-1,-1,22,24,26,28,30,32,34,-1,-1,-1,-1,-1,-1,-1,-1,-1,-1,-1,-1,-1,-1,-1],"split_conditions":[5.993764E0,1.2767457E0,-2.666923E0,-1.1315964E0,1.032359E0,2.4139035E-2,5.992053E-1,1.0980681E0,-5.8557117E-1,2.1116072E-1,1.3327893E0,2.7260494E-1,3.5753857E-2,8.096646E-1,2.0569257E-1,-3.2186916E-1,8.928962E-1,5.8786774E-1,9.472955E-1,1.8750174E0,5.6309227E-2,-2.9042874E-2,-8.049526E-2,-3.6456916E-2,8.595566E-2,-6.582804E-2,-1.794738E-2,3.827454E-2,-2.545099E-3,-6.488603E-2,2.76094E-2,1.4064147E-1,1.6692119E-2,-9.7405106E-2,-1.5213553E-2],"split_indices":[20,1,22,1,7,0,17,7,24,6,7,0,0,7,6,14,7,25,7,27,0,0,0,0,0,0,0,0,0,0,0,0,0,0,0],"split_type":[0,0,0,0,0,0,0,0,0,0,0,0,0,0,0,0,0,0,0,0,0,0,0,0,0,0,0,0,0,0,0,0,0,0,0],"sum_hessian":[5.163606E2,5.1264716E2,3.7134085E0,4.5235144E2,6.029574E1,1.0048289E0,2.7085793E0,7.744753E1,3.749039E2,3.0295162E1,3.0000576E1,1.6969249E0,1.0116544E0,6.7719795E1,9.727736E0,2.96798E1,3.452241E2,2.4605646E1,5.689516E0,2.8291906E1,1.7086705E0,3.2115723E1,3.560407E1,3.381114E0,6.3466225E0,2.0081484E1,9.598318E0,1.3628018E2,2.0894392E2,2.225286E1,2.3527873E0,2.4965618E0,3.192954E0,2.377337E1,4.5185366E0],"tree_param":{"num_deleted":"0","num_feature":"28","num_nodes":"35","size_leaf_vector":"1"}},{"base_weights":[-1.2319755E-2,-2.7425503E-2,1.871597E-1,-3.4234148E-2,4.0257764E-1,2.912243E-1,6.105988E-2,-1.5709989E-1,-1.6224258E-2,4.964417E-1,1.0620123E-1,1.5198004E-1,5.448928E-1,2.1953124E-1,-3.909134E-2,-2.034764E-1,3.6663666E-2,5.4411743E-2,-6.692507E-2,1.879153E-1,6.324998E-1,-6.9646747E-3,5.6344364E-2,2.8096262E-2,3.9176142E-1,2.0226464E-1,4.481372E-2,-2.7829222E-2,3.1078774E-1,4.6207715E-2,-1.368057E-1,2.0963393E-2,-6.6424474E-2,3.2962333E-2,-9.4949655E-2,-5.223068E-3,9.7813316E-2,-7.0607536E-3,-5.3021874E-2,1.04462E-1,-1.9851472E-2,2.2331986E-1,6.0147773E-2,4.6487257E-2,-4.96933E-2,1.4051756E-1,1.639169E-2,1.3003832E-1,-1.9930594E-3,-3.5296608E-2,5.0512195E-2,2.1481276E-3,-8.976552E-2],"categories":[],"categories_nodes":[],"categories_segments":[],"categories_sizes":[],"default_left":[0,0,0,0,0,0,0,0,0,0,0,0,0,0,0,0,0,0,0,0,0,0,0,0,0,0,0,0,0,0,0,0,0,0,0,0,0,0,0,0,0,0,0,0,0,0,0,0,0,0,0,0,0],"id":13,"left_children":[1,3,5,7,9,11,13,15,17,19,21,23,25,27,29,31,33,35,37,39,41,-1,-1,43,45,-1,-1,-1,47,49,51,-1,-1,-1,-1,-1,-1,-1,-1,-1,-1,-1,-1,-1,-1,-1,-1,-1,-1,-1,-1,-1,-1],"loss_changes":[1.5559655E0,1.4170674E0,4.5932257E-1,1.0435685E0,1.572944E-1,6.114013E-1,2.895597E-1,5.495305E-1,1.4842751E0,1.1040008E-1,3.6975987E-2,4.0710875E-1,2.3576164E-1,2.2851941E-1,1.0381398E-1,2.548945E-1,3.578923E-1,3.3867345E0,1.1447612E0,1.490558E-1,1.3536096E-2,0E0,0E0,2.802474E-1,9.628236E-2,0E0,0E0,0E0,2.229814E-1,1.5979344E-1,1.3551673E-1,0E0,0E0,0E0,0E0,0E0,0E0,0E0,0E0,0E0,0E0,0E0,0E0,0E0,0E0,0E0,0E0,0E0,0E0,0E0,0E0,0E0,0E0],"parents":[2147483647,0,0,1,1,2,2,3,3,4,4,5,5,6,6,7,7,8,8,9,9,10,10,11,11,12,12,13,13,14,14,15,15,16,16,17,17,18,18,19,19,20,20,23,23,24,24,28,28,29,29,30,30],"right_children":[2,4,6,8,10,12,14,16,18,20,22,24,26,28,30,32,34,36,38,40,42,-1,-1,44,46,-1,-1,-1,48,50,52,-1,-1,-1,-1,-1,-1,-1,-1,-1,-1,-1,-1,-1,-1,-1,-1,-1,-1,-1,-1,-1,-1],"split_conditions":[1.2519472E0,4.0887766E0,8.082159E-1,-1.3723984E0,8.02263E-1,1.6632847E-1,-4.1482455E-1,1.0802704E0,8.6414343E-1,3.3645797E-1,1.8248975E0,1.3327893E0,1.0446558E0,2.1308906E-1,1.8414975E0,-8.919679E-1,1.4594727E0,7.970375E-2,7.026208E-1,-3.2667994E-2,1.4436629E0,-6.9646747E-3,5.6344364E-2,8.537901E-1,1.1909379E0,2.0226464E-1,4.481372E-2,-2.7829222E-2,3.8169298E-1,2.6695493E-1,7.259922E-1,2.0963393E-2,-6.6424474E-2,3.2962333E-2,-9.4949655E-2,-5.223068E-3,9.7813316E-2,-7.0607536E-3,-5.3021874E-2,1.04462E-1,-1.9851472E-2,2.2331986E-1,6.0147773E-2,4.6487257E-2,-4.96933E-2,1.4051756E-1,1.639169E-2,1.3003832E-1,-1.9930594E-3,-3.5296608E-2,5.0512195E-2,2.1481276E-3,-8.976552E-2],"split_indices":[7,3,21,26,26,14,25,17,7,17,27,7,1,13,12,25,9,6,17,16,17,0,0,4,1,0,0,0,16,24,16,0,0,0,0,0,0,0,0,0,0,0,0,0,0,0,0,0,0,0,0,0,0],"split_type":[0,0,0,0,0,0,0,0,0,0,0,0,0,0,0,0,0,0,0,0,0,0,0,0,0,0,0,0,0,0,0,0,0,0,0,0,0,0,0,0,0,0,0,0,0,0,0,0,0,0,0,0,0],"sum_hessian":[5.136648E2,4.783071E2,3.535769E1,4.717577E2,6.549395E0,1.8653944E1,1.6703745E1,5.932334E1,4.1243436E2,4.4614058E0,2.0879896E0,1.3075592E1,5.5783525E0,6.0069017E0,1.0696843E1,4.782621E1,1.1497133E1,1.7230586E2,2.4012848E2,2.094054E0,2.3673515E0,1.0842313E0,1.0037582E0,9.357952E0,3.7176397E0,3.6727893E0,1.9055632E0,1.3546245E0,4.652277E0,5.9926853E0,4.704158E0,2.7669415E0,4.5059265E1,1.0093608E1,1.4035258E0,1.3701408E2,3.529178E1,1.7299149E2,6.713699E1,1.0568892E0,1.0371648E0,1.3059602E0,1.0613915E0,5.7760057E0,3.581946E0,2.7118373E0,1.0058024E0,3.0918748E0,1.5604023E0,2.5753124E0,3.417373E0,3.000427E0,1.703731E0],"tree_param":{"num_deleted":"0","num_feature":"28","num_nodes":"53","size_leaf_vector":"1"}},{"base_weights":[-8.111039E-3,-1.799697E-1,7.062838E-3,-2.6929396E-1,5.3264016E-1,4.9783126E-2,-6.706619E-2,-5.455441E-1,-1.3428314E-1,5.006607E-4,2.66168E-1,-5.277899E-2,1.0819934E-1,-1.8310152E-2,-2.1017483E-1,-1.4022994E-2,-5.9019554E-1,-3.496091E-1,2.9345897E-1,-1.284657E-1,2.0086457E-1,1.226191E-1,-4.307909E-1,-4.821709E-2,1.6941215E-1,-1.2702908E-1,-3.583875E-1,-2.0060174E-1,-6.581039E-2,-1.600067E-1,-6.1513953E-2,-2.7615624E-2,2.2464933E-1,-6.8474516E-2,2.3250263E-2,1.243369E-1,-7.107056E-2,-2.29456E-2,4.7435127E-2,3.401929E-3,-1.6601263E-1,-4.2534105E-2,9.777727E-3,1.0801274E-1,-7.398813E-3,-5.0912533E-2,2.4347167E-2,-1.1570691E-1,-2.0005998E-4],"categories":[],"categories_nodes":[],"categories_segments":[],"categories_sizes":[],"default_left":[0,0,0,0,0,0,0,0,0,0,0,0,0,0,0,0,0,0,0,0,0,0,0,0,0,0,0,0,0,0,0,0,0,0,0,0,0,0,0,0,0,0,0,0,0,0,0,0,0],"id":14,"left_children":[1,3,5,7,9,11,13,15,17,-1,-1,19,21,23,25,-1,27,29,31,33,35,37,39,41,43,45,47,-1,-1,-1,-1,-1,-1,-1,-1,-1,-1,-1,-1,-1,-1,-1,-1,-1,-1,-1,-1,-1,-1],"loss_changes":[1.3368726E0,2.7907429E0,1.496727E0,1.3298886E0,9.3392444E-1,1.8015406E0,1.2020879E0,2.4021196E-1,2.5523033E0,0E0,0E0,2.1268218E0,1.539608E0,7.380688E-1,4.9453723E-1,0E0,1.7197514E-1,3.7269187E-1,1.7278008E0,1.7625535E0,2.486463E0,1.3344197E0,2.8843492E-1,8.584016E-1,6.7806137E-1,2.7698994E-1,1.4820147E-1,0E0,0E0,0E0,0E0,0E0,0E0,0E0,0E0,0E0,0E0,0E0,0E0,0E0,0E0,0E0,0E0,0E0,0E0,0E0,0E0,0E0,0E0],"parents":[2147483647,0,0,1,1,2,2,3,3,4,4,5,5,6,6,7,7,8,8,11,11,12,12,13,13,14,14,16,16,17,17,18,18,19,19,20,20,21,21,22,22,23,23,24,24,25,25,26,26],"right_children":[2,4,6,8,10,12,14,16,18,-1,-1,20,22,24,26,-1,28,30,32,34,36,38,40,42,44,46,48,-1,-1,-1,-1,-1,-1,-1,-1,-1,-1,-1,-1,-1,-1,-1,-1,-1,-1,-1,-1,-1,-1],"split_conditions":[-8.015304E-1,4.1441226E0,4.3926027E-1,-2.4365425E0,-3.1702738E0,3.5393384E-1,9.367158E-1,1.4006847E0,9.153292E-1,5.006607E-4,2.66168E-1,9.6437985E-1,2.570126E0,5.8786774E-1,-1.6179265E-1,-1.4022994E-2,3.262344E0,-7.735081E-1,7.572665E-1,1.5292922E-1,1.8414975E0,-4.47715E-1,1.351109E0,-5.3767806E-1,8.141248E-1,4.1263783E-1,8.355749E-1,-2.0060174E-1,-6.581039E-2,-1.600067E-1,-6.1513953E-2,-2.7615624E-2,2.2464933E-1,-6.8474516E-2,2.3250263E-2,1.243369E-1,-7.107056E-2,-2.29456E-2,4.7435127E-2,3.401929E-3,-1.6601263E-1,-4.2534105E-2,9.777727E-3,1.0801274E-1,-7.398813E-3,-5.0912533E-2,2.4347167E-2,-1.1570691E-1,-2.0005998E-4],"split_indices":[17,14,22,22,22,26,26,18,14,0,0,17,16,25,14,0,14,22,26,14,12,14,14,18,7,25,0,0,0,0,0,0,0,0,0,0,0,0,0,0,0,0,0,0,0,0,0,0,0],"split_type":[0,0,0,0,0,0,0,0,0,0,0,0,0,0,0,0,0,0,0,0,0,0,0,0,0,0,0,0,0,0,0,0,0,0,0,0,0,0,0,0,0,0,0,0,0,0,0,0,0],"sum_hessian":[5.1116385E2,4.0589417E1,4.7057443E2,3.6621128E1,3.9682863E0,2.9874005E2,1.7183437E2,1.102394E1,2.5597189E1,1.9912373E0,1.977049E0,1.08442566E2,1.902975E2,1.2900967E2,4.2824688E1,1.0739307E0,9.950009E0,1.7147684E1,8.449505E0,8.390038E1,2.454218E1,1.8609145E2,4.206054E0,1.1192199E2,1.708768E1,2.8623997E1,1.4200691E1,7.5492086E0,2.4008012E0,6.366319E0,1.0781364E1,5.0078163E0,3.441688E0,5.6446228E1,2.7454157E1,1.6530157E1,8.012023E0,2.7983023E1,1.5810843E2,1.1100142E0,3.0960398E0,5.1518314E1,6.040368E1,8.188926E0,8.898756E0,2.3907623E1,4.7163734E0,1.3121068E1,1.0796229E0],"tree_param":{"num_deleted":"0","num_feature":"28","num_nodes":"49","size_leaf_vector":"1"}},{"base_weights":[-8.180031E-3,-5.8124095E-2,3.9921977E-2,-1.6585714E-1,5.150041E-2,9.050444E-2,-2.7537593E-1,-4.8404574E-1,-9.801189E-2,2.2708806E-1,-1.5113048E-1,2.1883456E-1,-7.308007E-3,4.3908927E-1,-4.612277E-1,-5.11535E-1,-2.5703346E-2,-1.2778632E-1,5.7616293E-1,-1.4219561E-1,2.8947848E-1,-3.1628552E-1,1.1939514E-1,9.910629E-2,6.032478E-1,-4.7476713E-2,6.8307865E-1,5.4359716E-1,-2.7633319E-2,-5.185042E-1,-6.2319227E-3,-1.5878531E-1,-2.963767E-2,-4.3303423E-2,4.3362286E-2,4.5475677E-2,2.1040638E-1,-1.0894191E-1,1.4265254E-1,5.2578423E-2,1.6826549E-1,-2.0004387E-1,-2.206729E-2,-8.285623E-2,9.563856E-2,-7.910426E-3,5.9794728E-2,2.3410237E-1,8.5640855E-2,1.1771292E-1,-3.5725746E-2,2.778502E-1,-1.922907E-2,6.997932E-2,2.2873126E-1,-8.7001085E-2,-2.0746078E-1,-6.1763685E-2,6.6929266E-2],"categories":[],"categories_nodes":[],"categories_segments":[],"categories_sizes":[],"default_left":[0,0,0,0,0,0,0,0,0,0,0,0,0,0,0,0,0,0,0,0,0,0,0,0,0,0,0,0,0,0,0,0,0,0,0,0,0,0,0,0,0,0,0,0,0,0,0,0,0,0,0,0,0,0,0,0,0,0,0],"id":15,"left_children":[1,3,5,7,9,11,13,15,17,19,21,23,25,27,29,31,-1,33,35,37,39,41,43,45,47,49,51,53,-1,55,57,-1,-1,-1,-1,-1,-1,-1,-1,-1,-1,-1,-1,-1,-1,-1,-1,-1,-1,-1,-1,-1,-1,-1,-1,-1,-1,-1,-1],"loss_changes":[1.2300682E0,2.974441E0,4.1861815E0,2.6919138E0,4.490143E0,2.8333805E0,5.0251102E0,1.9761467E-1,2.1983142E0,1.5962255E0,2.6622329E0,4.4327087E0,3.609553E0,4.9471986E-1,7.6058626E-1,9.7332E-2,0E0,4.8166394E-1,1.4129877E-1,1.5955546E0,1.7017951E0,3.0775628E0,1.9017259E0,9.561425E-1,1.0707312E0,3.9156246E0,1.3593452E0,2.8652358E-1,0E0,8.2823086E-1,2.42312E-1,0E0,0E0,0E0,0E0,0E0,0E0,0E0,0E0,0E0,0E0,0E0,0E0,0E0,0E0,0E0,0E0,0E0,0E0,0E0,0E0,0E0,0E0,0E0,0E0,0E0,0E0,0E0,0E0],"parents":[2147483647,0,0,1,1,2,2,3,3,4,4,5,5,6,6,7,7,8,8,9,9,10,10,11,11,12,12,13,13,14,14,15,15,17,17,18,18,19,19,20,20,21,21,22,22,23,23,24,24,25,25,26,26,27,27,29,29,30,30],"right_children":[2,4,6,8,10,12,14,16,18,20,22,24,26,28,30,32,-1,34,36,38,40,42,44,46,48,50,52,54,-1,56,58,-1,-1,-1,-1,-1,-1,-1,-1,-1,-1,-1,-1,-1,-1,-1,-1,-1,-1,-1,-1,-1,-1,-1,-1,-1,-1,-1,-1],"split_conditions":[1.7852868E-1,1.2716688E-1,8.517632E-1,-6.094127E-1,-3.382002E-2,7.026208E-1,-1.7681732E0,1.4308871E0,4.8491576E-1,-1.0909792E0,1.6062666E0,1.1505392E-1,1.5696746E0,3.5554411E0,2.051979E0,9.918514E-1,-2.5703346E-2,9.97748E-1,1.716565E-1,3.262344E0,1.0622209E0,-1.99139E0,-9.034378E-1,6.2632315E-2,-7.01551E-2,-3.045247E-1,2.051979E0,4.8549435E-1,-2.7633319E-2,1.4752755E0,1.5354862E0,-1.5878531E-1,-2.963767E-2,-4.3303423E-2,4.3362286E-2,4.5475677E-2,2.1040638E-1,-1.0894191E-1,1.4265254E-1,5.2578423E-2,1.6826549E-1,-2.0004387E-1,-2.206729E-2,-8.285623E-2,9.563856E-2,-7.910426E-3,5.9794728E-2,2.3410237E-1,8.5640855E-2,1.1771292E-1,-3.5725746E-2,2.778502E-1,-1.922907E-2,6.997932E-2,2.2873126E-1,-8.7001085E-2,-2.0746078E-1,-6.1763685E-2,6.6929266E-2],"split_indices":[17,14,14,22,0,17,22,23,6,17,14,14,16,12,17,16,0,25,24,14,14,22,17,26,16,24,17,17,0,14,3,0,0,0,0,0,0,0,0,0,0,0,0,0,0,0,0,0,0,0,0,0,0,0,0,0,0,0,0],"split_type":[0,0,0,0,0,0,0,0,0,0,0,0,0,0,0,0,0,0,0,0,0,0,0,0,0,0,0,0,0,0,0,0,0,0,0,0,0,0,0,0,0,0,0,0,0,0,0,0,0,0,0,0,0,0,0,0,0,0,0],"sum_hessian":[5.100485E2,2.5013072E2,2.599178E2,1.2589498E2,1.2423574E2,2.2459889E2,3.531889E1,2.104783E1,1.0484715E2,6.6494736E1,5.7741005E1,9.6609604E1,1.2798928E2,7.0095763E0,2.8309313E1,1.9423445E1,1.6243857E0,1.0118868E2,3.6584685E0,9.425695E0,5.706904E1,3.5747883E1,2.1993122E1,7.462494E1,2.1984665E1,1.2183198E2,6.1573076E0,5.8377295E0,1.1718471E0,2.5020111E1,3.289203E0,1.835189E1,1.0715531E0,9.583175E1,5.3569303E0,1.3365374E0,2.3219311E0,7.246012E0,2.1796832E0,4.1324173E1,1.5744864E1,1.3911252E1,2.1836632E1,7.2416277E0,1.4751495E1,3.3462593E1,4.1162346E1,1.3182581E1,8.802084E0,1.6430365E1,1.0540161E2,4.465069E0,1.6922388E0,3.2685623E0,2.569167E0,1.1935047E1,1.3085064E1,1.8130636E0,1.4761393E0],"tree_param":{"num_deleted":"0","num_feature":"28","num_nodes":"59","size_leaf_vector":"1"}},{"base_weights":[-8.231286E-3,-1.286427E-1,1.0904039E-2,-1.6979264E-1,6.497465E-2,3.0439122E-2,-1.6102415E-1,-1.01951085E-1,-2.4357896E-1,1.12882555E-1,-5.054931E-2,2.1404198E-1,1.7376147E-2,-1.7819695E-1,1.09109856E-1,-2.2069857E-1,-4.006387E-2,-2.589966E-1,-1.3614312E-3,-2.7680732E-3,3.5614213E-1,4.0310976E-1,-2.3520926E-2,8.328852E-3,2.4018343E-1,-1.0554492E-1,-2.4233672E-1,-1.7322572E-2,6.330743E-2,-7.573441E-2,1.202054E-2,-2.5567358E-2,4.228308E-2,-8.748959E-2,-3.5852756E-2,-2.398785E-2,2.754188E-2,1.5182662E-1,5.6589455E-3,-8.7703094E-2,1.455973E-1,8.268547E-2,-1.3377386E-1,1.6529588E-2,-1.23520065E-2,1.1076816E-1,7.7476325E-3,-5.0121784E-2,5.7245497E-2,-8.026121E-2,3.8729616E-2],"categories":[],"categories_nodes":[],"categories_segments":[],"categories_sizes":[],"default_left":[0,0,0,0,0,0,0,0,0,0,0,0,0,0,0,0,0,0,0,0,0,0,0,0,0,0,0,0,0,0,0,0,0,0,0,0,0,0,0,0,0,0,0,0,0,0,0,0,0,0,0],"id":16,"left_children":[1,3,5,7,9,11,13,15,17,19,-1,21,23,25,27,29,31,33,-1,35,37,39,41,43,45,47,49,-1,-1,-1,-1,-1,-1,-1,-1,-1,-1,-1,-1,-1,-1,-1,-1,-1,-1,-1,-1,-1,-1,-1,-1],"loss_changes":[1.178375E0,5.6972945E-1,1.488377E0,2.6604736E-1,1.6458929E-1,9.4956213E-1,2.2923934E-1,2.2627953E-1,9.8755956E-2,3.2163107E-1,0E0,1.1913062E0,7.481877E-1,1.7433858E-1,6.869829E-2,9.903079E-2,1.9392744E-1,8.102107E-2,0E0,7.097887E-2,1.7657915E-1,9.8275614E-1,1.7156577E0,8.326579E-1,3.9117092E-1,4.309886E-1,2.4059856E-1,0E0,0E0,0E0,0E0,0E0,0E0,0E0,0E0,0E0,0E0,0E0,0E0,0E0,0E0,0E0,0E0,0E0,0E0,0E0,0E0,0E0,0E0,0E0,0E0],"parents":[2147483647,0,0,1,1,2,2,3,3,4,4,5,5,6,6,7,7,8,8,9,9,11,11,12,12,13,13,14,14,15,15,16,16,17,17,19,19,20,20,21,21,22,22,23,23,24,24,25,25,26,26],"right_children":[2,4,6,8,10,12,14,16,18,20,-1,22,24,26,28,30,32,34,-1,36,38,40,42,44,46,48,50,-1,-1,-1,-1,-1,-1,-1,-1,-1,-1,-1,-1,-1,-1,-1,-1,-1,-1,-1,-1,-1,-1,-1,-1],"split_conditions":[-1.1975766E0,1.063103E0,1.4348501E0,8.2997465E-1,2.464114E0,-1.0428799E0,2.118069E0,-1.4772798E0,2.8368964E0,7.7854633E-1,-5.054931E-2,6.8868524E-1,1.2969481E0,1.0040841E0,1.872655E0,1.1087912E0,3.6396554E-1,9.959601E-1,-1.3614312E-3,2.783473E-1,1.9736461E-1,-3.4516513E-1,-1.3439381E0,9.225251E-1,9.60204E-1,-4.1833792E-2,1.3432232E0,-1.7322572E-2,6.330743E-2,-7.573441E-2,1.202054E-2,-2.5567358E-2,4.228308E-2,-8.748959E-2,-3.5852756E-2,-2.398785E-2,2.754188E-2,1.5182662E-1,5.6589455E-3,-8.7703094E-2,1.455973E-1,8.268547E-2,-1.3377386E-1,1.6529588E-2,-1.23520065E-2,1.1076816E-1,7.7476325E-3,-5.0121784E-2,5.7245497E-2,-8.026121E-2,3.8729616E-2],"split_indices":[4,7,4,7,20,25,10,1,13,6,0,14,7,7,27,16,25,7,0,6,16,17,22,7,21,18,7,0,0,0,0,0,0,0,0,0,0,0,0,0,0,0,0,0,0,0,0,0,0,0,0],"split_type":[0,0,0,0,0,0,0,0,0,0,0,0,0,0,0,0,0,0,0,0,0,0,0,0,0,0,0,0,0,0,0,0,0,0,0,0,0,0,0,0,0,0,0,0,0,0,0,0,0,0,0],"sum_hessian":[5.0981393E2,6.912342E1,4.4069052E2,5.710897E1,1.2014449E1,3.9646567E2,4.422486E1,3.0993885E1,2.6115086E1,1.0397429E1,1.6170193E0,2.5312183E1,3.7115347E2,4.1901463E1,2.3233979E0,9.739623E0,2.1254263E1,2.4454348E1,1.6607372E0,7.7171555E0,2.6802745E0,1.37066765E1,1.1605507E1,3.5766745E2,1.3486035E1,2.088747E1,2.1013992E1,1.0453746E0,1.2780232E0,8.710934E0,1.0286895E0,1.7433771E1,3.8204918E0,1.8933746E1,5.520602E0,4.3341565E0,3.382999E0,1.5089324E0,1.171342E0,1.1788567E0,1.252782E1,6.9974065E0,4.6081004E0,1.8385133E2,1.7381612E2,7.9672575E0,5.5187774E0,1.7657806E1,3.2296636E0,1.9940798E1,1.0731949E0],"tree_param":{"num_deleted":"0","num_feature":"28","num_nodes":"51","size_leaf_vector":"1"}},{"base_weights":[-6.487268E-3,1.879857E-2,-7.769933E-2,-2.8830862E-2,8.8191E-2,-2.8044455E-2,-1.7042139E-1,5.292097E-3,-2.864445E-1,1.2661035E-1,-3.0423507E-1,3.855485E-2,-1.21083476E-1,-1.299865E-1,-1.3088335E-1,-1.1777952E-1,1.1895445E-1,-4.4170988E-1,2.4145512E-1,2.7510005E-1,3.451012E-2,3.060325E-1,-4.6681264E-1,-2.187975E-2,4.4568607E-1,9.0263896E-2,-2.4072693E-1,-1.637415E-1,3.8940236E-2,-1.302132E-1,-1.5310964E-2,4.3713294E-2,-1.2264179E-1,-1.7546237E-1,1.7980553E-3,-5.7844672E-2,1.4413771E-1,1.3409115E-2,1.1606831E-1,-5.9154633E-2,4.1595012E-2,1.3453376E-1,1.0977732E-3,-1.6280669E-1,1.8671859E-2,4.371113E-2,-2.3033498E-2,1.4797041E-1,2.6033942E-2,5.787619E-2,-4.1383345E-2,-9.3105175E-2,2.518014E-3,-1.8552209E-3,-5.6112308E-2,3.0200021E-2,-2.8897792E-2],"categories":[],"categories_nodes":[],"categories_segments":[],"categories_sizes":[],"default_left":[0,0,0,0,0,0,0,0,0,0,0,0,0,0,0,0,0,0,0,0,0,0,0,0,0,0,0,0,0,0,0,0,0,0,0,0,0,0,0,0,0,0,0,0,0,0,0,0,0,0,0,0,0,0,0,0,0],"id":17,"left_children":[1,3,5,7,9,11,13,15,17,19,21,23,25,27,-1,29,31,33,35,37,39,41,43,45,47,49,51,53,55,-1,-1,-1,-1,-1,-1,-1,-1,-1,-1,-1,-1,-1,-1,-1,-1,-1,-1,-1,-1,-1,-1,-1,-1,-1,-1,-1,-1],"loss_changes":[9.192338E-1,1.2483658E0,6.110238E-1,1.9729913E0,2.3552837E0,5.518135E-1,4.4261646E-1,2.7980547E0,2.2582345E0,1.9142761E0,1.5315291E0,1.294653E0,9.593428E-1,2.4439365E-1,0E0,2.0054903E0,1.5276445E0,1.3262796E0,7.789705E-1,1.3660464E0,2.1497338E0,1.5115783E-1,4.9333286E-1,4.383007E-1,7.318485E-2,3.5765114E-1,4.1799748E-1,1.2726372E-1,7.4486114E-2,0E0,0E0,0E0,0E0,0E0,0E0,0E0,0E0,0E0,0E0,0E0,0E0,0E0,0E0,0E0,0E0,0E0,0E0,0E0,0E0,0E0,0E0,0E0,0E0,0E0,0E0,0E0,0E0],"parents":[2147483647,0,0,1,1,2,2,3,3,4,4,5,5,6,6,7,7,8,8,9,9,10,10,11,11,12,12,13,13,15,15,16,16,17,17,18,18,19,19,20,20,21,21,22,22,23,23,24,24,25,25,26,26,27,27,28,28],"right_children":[2,4,6,8,10,12,14,16,18,20,22,24,26,28,-1,30,32,34,36,38,40,42,44,46,48,50,52,54,56,-1,-1,-1,-1,-1,-1,-1,-1,-1,-1,-1,-1,-1,-1,-1,-1,-1,-1,-1,-1,-1,-1,-1,-1,-1,-1,-1,-1],"split_conditions":[5.570083E-1,3.02233E-1,9.27385E-1,1.1330824E0,1.4752755E0,7.026208E-1,4.375652E-1,1.3978007E-1,2.7607827E0,7.026208E-1,-2.1538942E0,1.9737148E-1,-3.045247E-1,4.1263783E-1,-1.3088335E-1,-8.1012267E-1,2.570126E0,5.233508E-1,-8.3458436E-1,-2.0871514E-1,8.725799E-1,2.7596629E0,2.051979E0,-6.5269166E-1,8.9481395E-1,1.3186734E0,8.355749E-1,-7.5428665E-1,9.762075E-1,-1.302132E-1,-1.5310964E-2,4.3713294E-2,-1.2264179E-1,-1.7546237E-1,1.7980553E-3,-5.7844672E-2,1.4413771E-1,1.3409115E-2,1.1606831E-1,-5.9154633E-2,4.1595012E-2,1.3453376E-1,1.0977732E-3,-1.6280669E-1,1.8671859E-2,4.371113E-2,-2.3033498E-2,1.4797041E-1,2.6033942E-2,5.787619E-2,-4.1383345E-2,-9.3105175E-2,2.518014E-3,-1.8552209E-3,-5.6112308E-2,3.0200021E-2,-2.8897792E-2],"split_indices":[22,17,26,0,14,17,14,14,14,17,22,6,24,25,0,22,16,16,17,26,17,9,17,25,26,22,0,25,7,0,0,0,0,0,0,0,0,0,0,0,0,0,0,0,0,0,0,0,0,0,0,0,0,0,0,0,0],"split_type":[0,0,0,0,0,0,0,0,0,0,0,0,0,0,0,0,0,0,0,0,0,0,0,0,0,0,0,0,0,0,0,0,0,0,0,0,0,0,0,0,0,0,0,0,0,0,0,0,0,0,0,0,0,0,0,0,0],"sum_hessian":[5.0868805E2,3.759371E2,1.3275096E2,2.232724E2,1.526647E2,8.730142E1,4.5449543E1,1.9802225E2,2.5250153E1,1.3966824E2,1.2996451E1,5.1221554E1,3.6079872E1,4.074192E1,4.707624E0,9.505842E1,1.0296383E2,1.963762E1,5.612531E0,5.270577E1,8.696248E1,2.5483453E0,1.0448106E1,4.542493E1,5.7966228E0,1.3130576E1,2.2949295E1,3.3982265E1,6.7596526E0,1.5605915E1,7.94525E1,9.868459E1,4.279229E0,1.4647363E1,4.9902577E0,2.0609796E0,3.5515518E0,1.7676048E1,3.502972E1,2.6689592E1,6.0272884E1,1.4039966E0,1.1443489E0,9.115054E0,1.3330517E0,1.0800685E1,3.462425E1,4.7880244E0,1.0085986E0,9.163236E0,3.9673398E0,1.7744352E1,5.204942E0,4.540904E0,2.9441362E1,4.817194E0,1.9424586E0],"tree_param":{"num_deleted":"0","num_feature":"28","num_nodes":"57","size_leaf_vector":"1"}},{"base_weights":[-7.195509E-3,-1.3579881E-1,5.188811E-3,-1.8139243E-1,5.9090417E-2,2.98262E-2,-8.3749615E-2,-8.6983E-2,-2.6798835E-1,-4.771268E-2,1.4509994E-1,2.9064864E-3,1.461942E-1,-1.974938E-2,-1.4723954E-1,-1.243274E-1,1.0038038E-1,-3.208187E-1,-9.782788E-2,2.4203609E-1,-2.3392249E-2,4.2327426E-2,-8.8122614E-2,1.9356006E-1,-7.133438E-2,-1.0243618E-1,2.6965237E-1,-1.9911666E-1,1.1076273E-2,-6.0669526E-2,-1.2346023E-2,5.6491673E-2,-1.8431565E-2,-1.0545495E-1,-3.1891722E-2,-5.2988302E-2,9.56438E-3,1.6934177E-2,9.1671735E-2,2.94552E-2,-3.3591155E-2,-8.534165E-3,3.1196423E-2,-4.1538175E-2,2.2657711E-2,6.4492705E-3,7.406022E-2,-4.8355866E-2,2.243938E-2,-3.6729038E-2,4.8747256E-2,1.358966E-1,2.5183264E-2,-6.755394E-2,-1.5950494E-3,3.935891E-2,-2.971452E-2],"categories":[],"categories_nodes":[],"categories_segments":[],"categories_sizes":[],"default_left":[0,0,0,0,0,0,0,0,0,0,0,0,0,0,0,0,0,0,0,0,0,0,0,0,0,0,0,0,0,0,0,0,0,0,0,0,0,0,0,0,0,0,0,0,0,0,0,0,0,0,0,0,0,0,0,0,0],"id":18,"left_children":[1,3,5,7,9,11,13,15,17,-1,19,21,23,25,27,29,31,33,35,37,39,41,43,45,47,49,51,53,55,-1,-1,-1,-1,-1,-1,-1,-1,-1,-1,-1,-1,-1,-1,-1,-1,-1,-1,-1,-1,-1,-1,-1,-1,-1,-1,-1,-1],"loss_changes":[8.120994E-1,4.0868634E-1,1.0228789E0,2.7543604E-1,1.9653861E-1,1.1442001E0,4.0862173E-1,1.4516193E-1,1.3563406E-1,0E0,1.2250692E-1,1.0722476E0,7.208965E-1,1.2621833E0,4.1849387E-1,9.702325E-2,6.427987E-2,5.310166E-2,6.532617E-2,3.733957E-2,4.894946E-2,9.126742E-1,7.5437945E-1,5.140655E-1,1.8277398E-1,2.362794E-1,3.6168873E-1,1.9190156E-1,1.910085E-1,0E0,0E0,0E0,0E0,0E0,0E0,0E0,0E0,0E0,0E0,0E0,0E0,0E0,0E0,0E0,0E0,0E0,0E0,0E0,0E0,0E0,0E0,0E0,0E0,0E0,0E0,0E0,0E0],"parents":[2147483647,0,0,1,1,2,2,3,3,4,4,5,5,6,6,7,7,8,8,10,10,11,11,12,12,13,13,14,14,15,15,16,16,17,17,18,18,19,19,20,20,21,21,22,22,23,23,24,24,25,25,26,26,27,27,28,28],"right_children":[2,4,6,8,10,12,14,16,18,-1,20,22,24,26,28,30,32,34,36,38,40,42,44,46,48,50,52,54,56,-1,-1,-1,-1,-1,-1,-1,-1,-1,-1,-1,-1,-1,-1,-1,-1,-1,-1,-1,-1,-1,-1,-1,-1,-1,-1,-1,-1],"split_conditions":[-1.414354E0,1.0385715E0,9.4577235E-1,7.9978824E-1,1.6998331E-1,1.1374141E0,1.0153145E0,7.1113214E-2,6.380421E-1,-4.771268E-2,1.678553E0,9.7254366E-1,1.0191193E0,2.1700923E-1,1.248602E0,-1.2657951E0,7.756551E-1,1.8639226E0,1.712942E0,1.103086E0,1.7813278E0,-3.4788412E-1,1.8157701E0,1.796516E-1,1.2452568E0,8.966589E-1,1.7536669E0,2.068534E0,-1.5512821E-1,-6.0669526E-2,-1.2346023E-2,5.6491673E-2,-1.8431565E-2,-1.0545495E-1,-3.1891722E-2,-5.2988302E-2,9.56438E-3,1.6934177E-2,9.1671735E-2,2.94552E-2,-3.3591155E-2,-8.534165E-3,3.1196423E-2,-4.1538175E-2,2.2657711E-2,6.4492705E-3,7.406022E-2,-4.8355866E-2,2.243938E-2,-3.6729038E-2,4.8747256E-2,1.358966E-1,2.5183264E-2,-6.755394E-2,-1.5950494E-3,3.935891E-2,-2.971452E-2],"split_indices":[1,7,1,7,6,7,7,6,3,0,10,7,4,6,7,4,7,27,21,7,19,1,19,6,7,0,10,10,25,0,0,0,0,0,0,0,0,0,0,0,0,0,0,0,0,0,0,0,0,0,0,0,0,0,0,0,0],"split_type":[0,0,0,0,0,0,0,0,0,0,0,0,0,0,0,0,0,0,0,0,0,0,0,0,0,0,0,0,0,0,0,0,0,0,0,0,0,0,0,0,0,0,0,0,0,0,0,0,0,0,0,0,0,0,0,0,0],"sum_hessian":[5.0845743E2,4.3787426E1,4.6466998E2,3.5541805E1,8.245621E0,3.643921E2,1.0027789E2,1.7962755E1,1.7579052E1,2.0916834E0,6.1539373E0,2.9676553E2,6.7626564E1,5.059116E1,4.968673E1,1.5258032E1,2.704723E0,1.2738648E1,4.840402E0,3.6294034E0,2.524534E0,2.0745874E2,8.930679E1,5.562472E1,1.2001844E1,3.9851093E1,1.0740066E1,3.722958E1,1.2457152E1,7.139468E0,8.118564E0,1.6464401E0,1.0582827E0,1.0585187E1,2.1534617E0,2.786096E0,2.0543063E0,1.4072552E0,2.222148E0,1.0183607E0,1.5061733E0,9.684167E1,1.1061708E2,6.8416046E1,2.089075E1,1.3488984E1,4.213574E1,7.3683057E0,4.633539E0,3.7554726E1,2.2963688E0,4.6802964E0,6.059769E0,3.267356E1,4.5560174E0,5.8666615E0,6.590491E0],"tree_param":{"num_deleted":"0","num_feature":"28","num_nodes":"57","size_leaf_vector":"1"}},{"base_weights":[-5.8767223E-3,-1.0974406E-1,7.958311E-3,-1.792788E-1,2.7658397E-1,3.371212E-2,-9.3163155E-2,-4.436624E-1,-6.7067415E-2,-1.2038279E-1,7.249534E-1,-1.5705826E-2,1.5486199E-1,9.0182585E-1,-2.2172578E-1,3.035146E-2,-4.9057993E-1,-2.525281E-1,5.556639E-1,-3.770613E-1,8.047282E-2,2.6550362E-1,2.86306E-2,-3.0717894E-2,3.81274E-1,-2.1691957E-2,2.1562527E-1,-2.7301827E-2,1.0791746E0,-3.779831E-2,-3.6459008E-1,-1.6117528E-1,-2.2983948E-2,-1.545022E-1,-4.5801643E-2,1.9663662E-2,2.9351953E-1,-1.3191098E-1,-3.8902402E-2,-1.4794202E-2,3.609166E-2,4.7271017E-2,1.7150384E-1,-8.8422224E-2,8.499311E-2,1.4753406E-1,1.9633356E-2,4.0672413E-1,7.969151E-2,-4.3809406E-2,9.494043E-2,-5.4134723E-2,-1.8334073E-1],"categories":[],"categories_nodes":[],"categories_segments":[],"categories_sizes":[],"default_left":[0,0,0,0,0,0,0,0,0,0,0,0,0,0,0,0,0,0,0,0,0,0,0,0,0,0,0,0,0,0,0,0,0,0,0,0,0,0,0,0,0,0,0,0,0,0,0,0,0,0,0,0,0],"id":19,"left_children":[1,3,5,7,9,11,13,15,17,19,21,23,25,27,29,-1,31,33,35,37,-1,-1,-1,39,41,43,45,-1,47,49,51,-1,-1,-1,-1,-1,-1,-1,-1,-1,-1,-1,-1,-1,-1,-1,-1,-1,-1,-1,-1,-1,-1],"loss_changes":[7.3123634E-1,1.6562456E0,1.1736102E0,1.491938E0,1.7810376E0,2.151443E0,1.1903998E1,4.357574E-1,4.4351826E0,6.9017977E-1,3.8015914E-1,1.5365009E0,1.1213396E0,1.9763975E0,2.1364217E0,0E0,2.3084116E-1,6.9041336E-1,1.7686923E0,4.5332313E-3,0E0,0E0,0E0,7.009154E-1,3.102014E-1,2.3786876E0,3.1831815E0,0E0,1.6936665E0,1.4606683E0,1.9753656E0,0E0,0E0,0E0,0E0,0E0,0E0,0E0,0E0,0E0,0E0,0E0,0E0,0E0,0E0,0E0,0E0,0E0,0E0,0E0,0E0,0E0,0E0],"parents":[2147483647,0,0,1,1,2,2,3,3,4,4,5,5,6,6,7,7,8,8,9,9,10,10,11,11,12,12,13,13,14,14,16,16,17,17,18,18,19,19,23,23,24,24,25,25,26,26,28,28,29,29,30,30],"right_children":[2,4,6,8,10,12,14,16,18,20,22,24,26,28,30,-1,32,34,36,38,-1,-1,-1,40,42,44,46,-1,48,50,52,-1,-1,-1,-1,-1,-1,-1,-1,-1,-1,-1,-1,-1,-1,-1,-1,-1,-1,-1,-1,-1,-1],"split_conditions":[-6.465273E-1,3.262344E0,6.8868524E-1,-2.0708375E0,-2.9655247E0,1.5076526E-1,-3.6825842E-1,9.655273E-1,8.517632E-1,3.3792207E0,4.9329355E-1,1.6437776E0,-1.3964038E0,-2.5578924E-2,-1.1434572E0,3.035146E-2,2.6984694E0,-9.257702E-1,7.20746E-1,-3.1702738E0,8.047282E-2,2.6550362E-1,2.86306E-2,2.2682163E-1,-3.045247E-1,3.6154875E-1,5.0488853E-1,-2.7301827E-2,7.302273E-1,4.1733062E-1,7.956569E-1,-1.6117528E-1,-2.2983948E-2,-1.545022E-1,-4.5801643E-2,1.9663662E-2,2.9351953E-1,-1.3191098E-1,-3.8902402E-2,-1.4794202E-2,3.609166E-2,4.7271017E-2,1.7150384E-1,-8.8422224E-2,8.499311E-2,1.4753406E-1,1.9633356E-2,4.0672413E-1,7.969151E-2,-4.3809406E-2,9.494043E-2,-5.4134723E-2,-1.8334073E-1],"split_indices":[17,14,14,22,22,24,17,18,14,13,16,16,22,26,22,0,12,22,26,22,0,0,0,14,24,17,17,0,0,17,26,0,0,0,0,0,0,0,0,0,0,0,0,0,0,0,0,0,0,0,0,0,0],"split_type":[0,0,0,0,0,0,0,0,0,0,0,0,0,0,0,0,0,0,0,0,0,0,0,0,0,0,0,0,0,0,0,0,0,0,0,0,0,0,0,0,0,0,0,0,0,0,0,0,0,0,0,0,0],"sum_hessian":[5.072526E2,5.8808907E1,4.484437E2,5.0292717E1,8.51619E0,3.5794754E2,9.0496155E1,1.4105247E1,3.618747E1,4.905014E0,3.6111753E0,2.54859E2,1.03088554E2,9.66681E0,8.0829346E1,1.0266631E0,1.3078583E1,2.8341375E1,7.846094E0,2.971898E0,1.933116E0,2.5555546E0,1.0556206E0,2.464615E2,8.397491E0,2.6559687E1,7.652886E1,1.538856E0,8.127954E0,3.5889187E1,4.494016E1,1.1485846E1,1.5927374E0,6.664835E0,2.167654E1,4.1683555E0,3.677739E0,1.7511003E0,1.2207978E0,2.2004051E2,2.6420986E1,4.7014227E0,3.696069E0,1.4031679E1,1.25280075E1,2.615677E1,5.0372093E1,5.5684123E0,2.5595412E0,2.7940722E1,7.9484644E0,2.6717323E1,1.8222836E1],"tree_param":{"num_deleted":"0","num_feature":"28","num_nodes":"53","size_leaf_vector":"1"}},{"base_weights":[-5.8885263E-3,-9.337027E-3,3.3932245E-1,3.5242402E-4,-1.493776E-1,4.1947764E-1,3.5487504E-3,-6.8001193E-3,2.0074868E-1,9.779356E-3,-2.5327635E-1,1.2453859E-2,1.5987806E-1,-9.427493E-2,1.0571785E-2,-4.9960367E-2,3.5533032E-1,-2.790652E-1,1.2995471E-1,-3.643753E-1,-1.5090321E-1,-3.3761136E-2,6.547056E-2,6.1641894E-3,-4.040809E-2,1.6820712E-2,-4.2939067E-2,-1.08515965E-2,1.2799536E-1,-1.2694943E-1,-8.429436E-3,7.235582E-2,-1.3156981E-2,-1.17871046E-1,-2.3701148E-2,-8.1513755E-2,-1.619048E-2],"categories":[],"categories_nodes":[],"categories_segments":[],"categories_sizes":[],"default_left":[0,0,0,0,0,0,0,0,0,0,0,0,0,0,0,0,0,0,0,0,0,0,0,0,0,0,0,0,0,0,0,0,0,0,0,0,0],"id":20,"left_children":[1,3,5,7,9,11,-1,13,15,17,19,-1,-1,21,23,25,27,29,31,33,35,-1,-1,-1,-1,-1,-1,-1,-1,-1,-1,-1,-1,-1,-1,-1,-1],"loss_changes":[6.0806274E-1,6.840276E-1,1.27666E-1,6.785393E-1,5.4191893E-1,1.5068126E-1,0E0,6.9565296E-1,6.500064E-1,5.169381E-1,1.6991985E-1,0E0,0E0,4.5739883E-1,5.567395E-1,7.8155234E-2,3.0065966E-1,1.4673632E-1,2.1282598E-1,4.040718E-2,1.2584352E-1,0E0,0E0,0E0,0E0,0E0,0E0,0E0,0E0,0E0,0E0,0E0,0E0,0E0,0E0,0E0,0E0],"parents":[2147483647,0,0,1,1,2,2,3,3,4,4,5,5,7,7,8,8,9,9,10,10,13,13,14,14,15,15,16,16,17,17,18,18,19,19,20,20],"right_children":[2,4,6,8,10,12,-1,14,16,18,20,-1,-1,22,24,26,28,30,32,34,36,-1,-1,-1,-1,-1,-1,-1,-1,-1,-1,-1,-1,-1,-1,-1,-1],"split_conditions":[5.993764E0,2.0919485E0,8.537901E-1,1.4143043E0,6.4570045E-1,-8.275923E-1,3.5487504E-3,-6.6198397E-1,1.8742471E0,-2.0033032E-1,9.745216E-1,1.2453859E-2,1.5987806E-1,1.5008576E0,2.6984694E0,-1.572772E0,1.2647549E0,-9.257702E-1,6.784449E-1,9.0623426E-1,6.0051274E-1,-3.3761136E-2,6.547056E-2,6.1641894E-3,-4.040809E-2,1.6820712E-2,-4.2939067E-2,-1.08515965E-2,1.2799536E-1,-1.2694943E-1,-8.429436E-3,7.235582E-2,-1.3156981E-2,-1.17871046E-1,-2.3701148E-2,-8.1513755E-2,-1.619048E-2],"split_indices":[20,20,4,20,14,4,0,23,27,17,8,0,0,16,12,22,21,22,23,26,26,0,0,0,0,0,0,0,0,0,0,0,0,0,0,0,0],"split_type":[0,0,0,0,0,0,0,0,0,0,0,0,0,0,0,0,0,0,0,0,0,0,0,0,0,0,0,0,0,0,0,0,0,0,0,0,0],"sum_hessian":[5.0711823E2,5.0306577E2,4.052445E0,4.714439E2,3.1621868E1,3.0299737E0,1.0224712E0,4.561298E2,1.5314118E1,1.2847439E1,1.877443E1,1.0148475E0,2.0151262E0,7.4842026E1,3.8128778E2,6.0990863E0,9.215033E0,3.3862793E0,9.46116E0,7.7761683E0,1.09982605E1,7.131451E1,3.52752E0,3.5759027E2,2.3697502E1,3.038926E0,3.0601604E0,1.4959766E0,7.719056E0,1.7152727E0,1.6710066E0,5.532792E0,3.9283674E0,6.726878E0,1.0492902E0,4.0935097E0,6.9047503E0],"tree_param":{"num_deleted":"0","num_feature":"28","num_nodes":"37","size_leaf_vector":"1"}},{"base_weights":[-4.5992658E-3,2.4213616E-3,-1.6444361E-1,-1.8780053E-2,7.29234E-2,-3.4142312E-1,1.4284346E-1,-5.5767264E-2,2.9985597E-2,1.2646723E-1,-2.9761182E-2,-1.1589489E-1,-5.7210606E-1,1.5834229E-1,-3.1844895E-2,-2.7684054E-1,-2.2153808E-2,-1.23722635E-1,6.048819E-2,-3.7084138E-1,1.5407062E-1,8.340753E-2,-3.5599062E-1,-7.7063575E-2,5.635101E-2,-1.935304E-1,-2.6154548E-2,-1.479519E-1,5.7485905E-2,-1.07511096E-1,4.878195E-2,-1.2233591E-2,7.242604E-2,-9.623521E-2,5.6763936E-2,4.0917E-2,-2.973599E-2,-1.2934667E-1,-2.8769778E-2,2.1861874E-2,8.5162655E-2,-2.6336962E-2,6.19332E-2,-4.19056E-2,-1.6082954E-1,4.7620166E-2,-4.2412587E-2,-1.0705685E-2,-6.636019E-2],"categories":[],"categories_nodes":[],"categories_segments":[],"categories_sizes":[],"default_left":[0,0,0,0,0,0,0,0,0,0,0,0,0,0,0,0,0,0,0,0,0,0,0,0,0,0,0,0,0,0,0,0,0,0,0,0,0,0,0,0,0,0,0,0,0,0,0,0,0],"id":21,"left_children":[1,3,5,7,9,11,13,15,17,19,21,23,25,-1,27,29,31,33,35,37,39,41,43,-1,45,-1,-1,47,-1,-1,-1,-1,-1,-1,-1,-1,-1,-1,-1,-1,-1,-1,-1,-1,-1,-1,-1,-1,-1],"loss_changes":[5.6987166E-1,7.294484E-1,1.2106824E0,6.78557E-1,6.240539E-1,6.5435517E-1,5.8930457E-1,1.5823224E0,7.6943547E-1,1.0776708E0,1.487088E0,2.1501914E-1,1.7715836E-1,0E0,2.0475486E-1,1.0659335E0,9.260378E-1,1.7404253E0,1.6644478E0,2.8349936E-2,7.2911835E-1,6.5252817E-1,3.2860196E-1,0E0,1.1428991E-1,0E0,0E0,3.3540063E-2,0E0,0E0,0E0,0E0,0E0,0E0,0E0,0E0,0E0,0E0,0E0,0E0,0E0,0E0,0E0,0E0,0E0,0E0,0E0,0E0,0E0],"parents":[2147483647,0,0,1,1,2,2,3,3,4,4,5,5,6,6,7,7,8,8,9,9,10,10,11,11,12,12,14,14,15,15,16,16,17,17,18,18,19,19,20,20,21,21,22,22,24,24,27,27],"right_children":[2,4,6,8,10,12,14,16,18,20,22,24,26,-1,28,30,32,34,36,38,40,42,44,-1,46,-1,-1,48,-1,-1,-1,-1,-1,-1,-1,-1,-1,-1,-1,-1,-1,-1,-1,-1,-1,-1,-1,-1,-1],"split_conditions":[1.7091509E0,7.1403646E-1,2.051979E0,4.108058E-3,6.4570045E-1,-4.681868E-3,2.5271199E0,-4.71045E-1,-1.9140296E0,-2.628397E-1,-1.1929207E0,-7.741575E-2,1.5008576E0,1.5834229E-1,2.4022713E0,8.725799E-1,1.236844E0,2.4204056E0,4.0832463E-1,-1.8379868E0,4.8491576E-1,-2.8004076E0,7.4854434E-1,-7.7063575E-2,5.7373124E-1,-1.935304E-1,-2.6154548E-2,1.7191746E0,5.7485905E-2,-1.07511096E-1,4.878195E-2,-1.2233591E-2,7.242604E-2,-9.623521E-2,5.6763936E-2,4.0917E-2,-2.973599E-2,-1.2934667E-1,-2.8769778E-2,2.1861874E-2,8.5162655E-2,-2.6336962E-2,6.19332E-2,-4.19056E-2,-1.6082954E-1,4.7620166E-2,-4.2412587E-2,-1.0705685E-2,-6.636019E-2],"split_indices":[17,3,17,14,14,14,17,22,22,17,22,25,16,0,3,17,17,14,16,22,6,22,17,0,23,0,0,19,0,0,0,0,0,0,0,0,0,0,0,0,0,0,0,0,0,0,0,0,0],"split_type":[0,0,0,0,0,0,0,0,0,0,0,0,0,0,0,0,0,0,0,0,0,0,0,0,0,0,0,0,0,0,0,0,0,0,0,0,0,0,0,0,0,0,0,0,0,0,0,0,0],"sum_hessian":[5.064582E2,4.8609305E2,2.0365156E1,3.742746E2,1.1181845E2,1.2852039E1,7.5131173E0,2.1275958E2,1.6151501E2,7.3342926E1,3.847553E1,7.2583137E0,5.5937257E0,1.7141616E0,5.798956E0,2.712492E1,1.8563466E2,2.6238453E1,1.3527657E2,3.202966E0,7.013996E1,2.911863E1,9.356899E0,3.7211747E0,3.537139E0,4.5747747E0,1.018951E0,4.0385413E0,1.7604145E0,2.3035656E1,4.0892634E0,1.7417245E2,1.1462195E1,1.6084602E1,1.0153849E1,9.1777275E1,4.3499294E1,2.1607852E0,1.0421808E0,4.4109344E1,2.6030611E1,1.22960005E1,1.6822628E1,5.0579667E0,4.2989326E0,2.460364E0,1.076775E0,2.1817765E0,1.8567647E0],"tree_param":{"num_deleted":"0","num_feature":"28","num_nodes":"49","size_leaf_vector":"1"}},{"base_weights":[-5.2103857E-3,-1.6374661E-1,1.4967422E-3,-2.6370722E-1,2.0246169E-1,-1.0540948E-1,1.1455186E-2,-4.388363E-1,-2.671996E-2,-1.6441697E-2,1.3255244E-1,-1.412274E-1,3.1155389E-2,2.1717971E-2,-1.1214899E-1,-1.4742771E-1,-1.2850848E-2,-8.649764E-2,1.0987825E-1,-7.022467E-2,7.121416E-2,-8.3312735E-2,-2.2141165E-1,1.7570527E-1,-5.7611067E-2,2.900938E-2,-1.464307E-1,-1.4460155E-1,1.808638E-2,-3.295317E-2,7.440984E-2,-3.370998E-2,1.0359962E-2,-7.485497E-2,-1.000911E-2,-6.9668074E-4,9.306277E-2,1.8951535E-2,-5.1257588E-2,-1.0490298E-2,1.4969433E-2,-8.529896E-2,2.568241E-2,-4.9294785E-2,1.2766875E-2,-2.2208743E-2,3.7556745E-2],"categories":[],"categories_nodes":[],"categories_segments":[],"categories_sizes":[],"default_left":[0,0,0,0,0,0,0,0,0,0,0,0,0,0,0,0,0,0,0,0,0,0,0,0,0,0,0,0,0,0,0,0,0,0,0,0,0,0,0,0,0,0,0,0,0,0,0],"id":22,"left_children":[1,3,5,7,9,11,13,15,17,19,-1,21,23,25,27,-1,-1,-1,29,-1,-1,31,33,35,37,39,41,43,45,-1,-1,-1,-1,-1,-1,-1,-1,-1,-1,-1,-1,-1,-1,-1,-1,-1,-1],"loss_changes":[5.392618E-1,8.069161E-1,5.200316E-1,6.774334E-1,2.6820248E-1,2.08009E-1,5.690945E-1,1.7645323E-1,3.2188684E-1,2.525145E-1,0E0,1.3553011E-1,1.3161115E-1,5.109689E-1,1.4804247E-1,0E0,0E0,0E0,2.111797E-1,0E0,0E0,7.52863E-2,6.1976373E-2,9.289018E-2,1.0133148E-1,5.3223705E-1,5.7925975E-1,1.0903537E-1,8.57532E-2,0E0,0E0,0E0,0E0,0E0,0E0,0E0,0E0,0E0,0E0,0E0,0E0,0E0,0E0,0E0,0E0,0E0,0E0],"parents":[2147483647,0,0,1,1,2,2,3,3,4,4,5,5,6,6,7,7,8,8,9,9,11,11,12,12,13,13,14,14,18,18,21,21,22,22,23,23,24,24,25,25,26,26,27,27,28,28],"right_children":[2,4,6,8,10,12,14,16,18,20,-1,22,24,26,28,-1,-1,-1,30,-1,-1,32,34,36,38,40,42,44,46,-1,-1,-1,-1,-1,-1,-1,-1,-1,-1,-1,-1,-1,-1,-1,-1,-1,-1],"split_conditions":[-1.0092651E0,4.1441226E0,-1.433532E0,-2.4988875E-1,-2.9655247E0,1.032359E0,1.515107E0,-7.735081E-1,-2.666923E0,3.3792207E0,1.3255244E-1,8.4701926E-1,-4.568979E-1,1.7091509E0,6.466241E-1,-1.4742771E-1,-1.2850848E-2,-8.649764E-2,8.2701904E-1,-7.022467E-2,7.121416E-2,3.6396554E-1,4.001108E-1,2.1656185E-1,1.57347E0,-4.1036296E-1,2.051979E0,9.8486257E-1,8.725799E-1,-3.295317E-2,7.440984E-2,-3.370998E-2,1.0359962E-2,-7.485497E-2,-1.000911E-2,-6.9668074E-4,9.306277E-2,1.8951535E-2,-5.1257588E-2,-1.0490298E-2,1.4969433E-2,-8.529896E-2,2.568241E-2,-4.9294785E-2,1.2766875E-2,-2.2208743E-2,3.7556745E-2],"split_indices":[17,14,4,16,22,7,4,22,22,13,0,7,16,17,0,0,0,0,26,0,0,25,22,24,10,3,17,14,17,0,0,0,0,0,0,0,0,0,0,0,0,0,0,0,0,0,0],"split_type":[0,0,0,0,0,0,0,0,0,0,0,0,0,0,0,0,0,0,0,0,0,0,0,0,0,0,0,0,0,0,0,0,0,0,0,0,0,0,0,0,0,0,0,0,0,0,0],"sum_hessian":[5.0591736E2,1.9584528E1,4.8633282E2,1.56048975E1,3.979631E0,4.062534E1,4.457075E2,8.4838E0,7.121098E0,2.5651853E0,1.4144456E0,3.215711E1,8.468232E0,4.1229883E2,3.340865E1,7.276498E0,1.2073019E0,2.0617638E0,5.0593343E0,1.4228928E0,1.1422924E0,1.9855265E1,1.2301842E1,2.8491626E0,5.61907E0,3.959565E2,1.6342329E1,2.6656076E1,6.7525744E0,2.0322104E0,3.0271237E0,1.5965588E1,3.8896778E0,1.041794E1,1.8839022E0,1.649131E0,1.2000316E0,2.933045E0,2.686025E0,9.729422E1,2.986623E2,1.0109162E1,6.233166E0,2.4226236E1,2.4298396E0,3.7963033E0,2.9562714E0],"tree_param":{"num_deleted":"0","num_feature":"28","num_nodes":"47","size_leaf_vector":"1"}},{"base_weights":[-4.512415E-3,-3.2728635E-2,2.964944E-2,-1.4649191E-1,8.787292E-3,1.366591E-1,-5.046219E-2,-2.15235E-1,1.5805207E-2,7.7326424E-2,-6.190207E-2,-2.0897038E-2,2.196905E-1,-5.9159956E-4,-3.2951567E-1,-3.8295484E-1,-7.60126E-2,-1.265902E-1,3.6080858E-1,1.2734351E-2,1.8551992E-1,2.5802882E-2,-2.1136463E-1,9.6341275E-2,-1.6992635E-1,2.41401E-1,-2.653921E-1,-2.9118713E-2,1.49178E-1,-1.22024715E-1,-5.052578E-1,-1.3400869E-1,1.0332416E-2,-2.9899927E-2,8.702147E-2,-6.612713E-2,5.0967634E-2,1.8783341E-1,-5.2833945E-2,3.9689425E-2,-1.2765551E-2,9.357447E-2,-6.613904E-2,-1.2477884E-2,1.442464E-1,-7.357167E-2,2.1969583E-2,-1.4664452E-2,6.870107E-2,-8.0504075E-2,1.7440459E-2,8.309701E-2,-3.1316288E-2,3.1042178E-3,-1.1873256E-1,6.8903035E-3,-3.4743115E-2,1.23878516E-1,-4.3952342E-2,3.554045E-2,-5.3266827E-2,-6.2454123E-2,-1.7232814E-1],"categories":[],"categories_nodes":[],"categories_segments":[],"categories_sizes":[],"default_left":[0,0,0,0,0,0,0,0,0,0,0,0,0,0,0,0,0,0,0,0,0,0,0,0,0,0,0,0,0,0,0,0,0,0,0,0,0,0,0,0,0,0,0,0,0,0,0,0,0,0,0,0,0,0,0,0,0,0,0,0,0,0,0],"id":23,"left_children":[1,3,5,7,9,11,13,15,17,19,21,23,25,27,29,31,33,35,37,39,41,43,45,47,49,51,53,55,57,59,61,-1,-1,-1,-1,-1,-1,-1,-1,-1,-1,-1,-1,-1,-1,-1,-1,-1,-1,-1,-1,-1,-1,-1,-1,-1,-1,-1,-1,-1,-1,-1,-1],"loss_changes":[4.8907405E-1,1.3133112E0,1.9750129E0,8.32674E-1,9.954245E-1,1.2939456E0,1.837076E0,1.1916852E0,1.1779118E0,7.262297E-1,1.3321731E0,6.2662446E-1,7.4471974E-1,4.8715997E-1,6.6818357E-1,6.3970613E-1,2.8709096E-1,5.1189417E-1,1.1064038E0,4.4425982E-1,2.0649104E0,2.0032969E0,3.7982845E-1,4.0011004E-1,3.6891112E-1,7.966533E-1,1.2076078E-1,4.350675E-1,1.4832962E0,1.6121772E-1,9.654713E-2,0E0,0E0,0E0,0E0,0E0,0E0,0E0,0E0,0E0,0E0,0E0,0E0,0E0,0E0,0E0,0E0,0E0,0E0,0E0,0E0,0E0,0E0,0E0,0E0,0E0,0E0,0E0,0E0,0E0,0E0,0E0,0E0],"parents":[2147483647,0,0,1,1,2,2,3,3,4,4,5,5,6,6,7,7,8,8,9,9,10,10,11,11,12,12,13,13,14,14,15,15,16,16,17,17,18,18,19,19,20,20,21,21,22,22,23,23,24,24,25,25,26,26,27,27,28,28,29,29,30,30],"right_children":[2,4,6,8,10,12,14,16,18,20,22,24,26,28,30,32,34,36,38,40,42,44,46,48,50,52,54,56,58,60,62,-1,-1,-1,-1,-1,-1,-1,-1,-1,-1,-1,-1,-1,-1,-1,-1,-1,-1,-1,-1,-1,-1,-1,-1,-1,-1,-1,-1,-1,-1,-1,-1],"split_conditions":[7.3022616E-1,-1.6553763E-1,-4.7438495E-2,1.1485479E0,-2.4117495E-1,-3.3138162E-1,4.375652E-1,-1.22636184E-1,-1.638057E0,1.3978007E-1,1.5813918E0,-1.5512821E-1,2.1220584E0,2.783473E-1,-2.5749534E-1,1.0763392E0,2.1656185E-1,4.1441226E0,-3.0222043E-1,-6.5269166E-1,8.725799E-1,1.7346961E0,2.9805014E0,-2.2960788E-1,2.2169645E-1,1.0802704E0,8.656705E-1,-3.045247E-1,7.026208E-1,-3.5896596E-1,9.152243E-1,-1.3400869E-1,1.0332416E-2,-2.9899927E-2,8.702147E-2,-6.612713E-2,5.0967634E-2,1.8783341E-1,-5.2833945E-2,3.9689425E-2,-1.2765551E-2,9.357447E-2,-6.613904E-2,-1.2477884E-2,1.442464E-1,-7.357167E-2,2.1969583E-2,-1.4664452E-2,6.870107E-2,-8.0504075E-2,1.7440459E-2,8.309701E-2,-3.1316288E-2,3.1042178E-3,-1.1873256E-1,6.8903035E-3,-3.4743115E-2,1.23878516E-1,-4.3952342E-2,3.554045E-2,-5.3266827E-2,-6.2454123E-2,-1.7232814E-1],"split_indices":[26,17,22,14,16,16,14,22,22,14,10,25,16,6,16,16,24,14,16,25,17,16,3,17,17,17,26,24,17,17,26,0,0,0,0,0,0,0,0,0,0,0,0,0,0,0,0,0,0,0,0,0,0,0,0,0,0,0,0,0,0,0,0],"split_type":[0,0,0,0,0,0,0,0,0,0,0,0,0,0,0,0,0,0,0,0,0,0,0,0,0,0,0,0,0,0,0,0,0,0,0,0,0,0,0,0,0,0,0,0,0,0,0,0,0,0,0,0,0,0,0,0,0,0,0,0,0,0,0],"sum_hessian":[5.0537445E2,2.7679535E2,2.2857909E2,7.332882E1,2.0346654E2,9.7558624E1,1.3102046E2,5.1281628E1,2.2047188E1,1.0325675E2,1.0020979E2,3.3927628E1,6.3631E1,1.1200567E2,1.9014791E1,2.2466177E1,2.881545E1,1.6054138E1,5.9930496E0,6.535636E1,3.790039E1,6.3673443E1,3.6536346E1,1.9187082E1,1.4740544E1,6.1385944E1,2.245057E0,9.476167E1,1.7243996E1,9.496744E0,9.518047E0,1.9428974E1,3.0372033E0,2.7750175E1,1.0652742E0,1.2389521E1,3.6646178E0,3.8999174E0,2.0931325E0,2.022473E1,4.5131634E1,2.9078938E1,8.821452E0,5.625041E1,7.4230337E0,3.277373E1,3.7626173E0,9.461405E0,9.725677E0,1.0173495E1,4.5670495E0,5.5837986E1,5.547955E0,1.0163265E0,1.2287306E0,5.965476E1,3.5106915E1,8.904612E0,8.339384E0,1.5688934E0,7.927851E0,2.554854E0,6.9631934E0],"tree_param":{"num_deleted":"0","num_feature":"28","num_nodes":"63","size_leaf_vector":"1"}},{"base_weights":[-5.2479273E-3,-1.419963E-1,6.2401954E-4,-1.8397334E-1,9.88741E-3,1.792713E-2,-4.725516E-2,-7.6275036E-2,-2.7943915E-1,-1.3974306E-1,1.5959986E-1,-4.2202324E-3,1.01582244E-1,9.616082E-3,-1.06679335E-1,-1.2972516E-1,2.5304645E-2,-9.3753316E-2,-3.2352872E-2,-1.3184625E-2,-5.0799932E-2,8.3243296E-2,-8.966559E-3,5.124946E-2,-6.646756E-2,1.6834311E-1,-5.141561E-3,-6.068355E-2,1.9126761E-1,-1.2690736E-1,1.5702717E-1,-4.4298053E-2,-5.992646E-3,-2.2543104E-2,3.2994185E-2,2.3965812E-3,6.844121E-2,-4.911998E-2,-1.2311534E-2,8.573081E-2,1.5974004E-2,2.5129512E-2,-3.4254253E-2,-2.7551098E-2,1.5791811E-2,-1.8770155E-2,7.9452105E-2,-1.8890804E-2,-5.77564E-2,6.697162E-2,-9.036367E-3],"categories":[],"categories_nodes":[],"categories_segments":[],"categories_sizes":[],"default_left":[0,0,0,0,0,0,0,0,0,0,0,0,0,0,0,0,0,0,0,0,0,0,0,0,0,0,0,0,0,0,0,0,0,0,0,0,0,0,0,0,0,0,0,0,0,0,0,0,0,0,0],"id":24,"left_children":[1,3,5,7,9,11,13,15,17,19,21,23,25,27,29,31,33,-1,-1,-1,-1,-1,-1,35,37,39,41,43,45,47,49,-1,-1,-1,-1,-1,-1,-1,-1,-1,-1,-1,-1,-1,-1,-1,-1,-1,-1,-1,-1],"loss_changes":[4.064548E-1,1.3468939E-1,4.0367088E-1,1.4708406E-1,1.4465125E-1,6.634942E-1,4.3816438E-1,5.253712E-2,1.3440371E-2,1.8120483E-3,7.970055E-2,9.8376775E-1,5.3491634E-1,8.67347E-1,3.5778648E-1,9.07173E-3,4.198434E-2,0E0,0E0,0E0,0E0,0E0,0E0,1.1514041E0,3.2527298E-1,6.0838306E-1,2.9859704E-1,1.7808184E-1,3.7025255E-1,2.3698223E-1,6.817607E-2,0E0,0E0,0E0,0E0,0E0,0E0,0E0,0E0,0E0,0E0,0E0,0E0,0E0,0E0,0E0,0E0,0E0,0E0,0E0,0E0],"parents":[2147483647,0,0,1,1,2,2,3,3,4,4,5,5,6,6,7,7,8,8,9,9,10,10,11,11,12,12,13,13,14,14,15,15,16,16,23,23,24,24,25,25,26,26,27,27,28,28,29,29,30,30],"right_children":[2,4,6,8,10,12,14,16,18,20,22,24,26,28,30,32,34,-1,-1,-1,-1,-1,-1,36,38,40,42,44,46,48,50,-1,-1,-1,-1,-1,-1,-1,-1,-1,-1,-1,-1,-1,-1,-1,-1,-1,-1,-1,-1],"split_conditions":[-1.7011976E0,9.9930525E-1,7.414678E-1,7.8887653E-1,4.0395573E-1,1.1145552E0,1.0153145E0,-4.0474957E-1,4.0832463E-1,-1.4596254E-1,6.8868524E-1,8.5331136E-1,1.8208729E0,1.432608E-1,1.3327893E0,3.1722486E-1,-1.15312144E-1,-9.3753316E-2,-3.2352872E-2,-1.3184625E-2,-5.0799932E-2,8.3243296E-2,-8.966559E-3,7.8229725E-2,-4.694438E-2,-1.4354393E-4,5.377242E-1,1.9409786E-1,1.0098017E-1,-6.592145E-2,1.1682976E0,-4.4298053E-2,-5.992646E-3,-2.2543104E-2,3.2994185E-2,2.3965812E-3,6.844121E-2,-4.911998E-2,-1.2311534E-2,8.573081E-2,1.5974004E-2,2.5129512E-2,-3.4254253E-2,-2.7551098E-2,1.5791811E-2,-1.8770155E-2,7.9452105E-2,-1.8890804E-2,-5.77564E-2,6.697162E-2,-9.036367E-3],"split_indices":[1,7,1,7,6,7,7,18,16,18,14,7,27,6,7,16,3,0,0,0,0,0,0,6,24,4,23,25,4,25,8,0,0,0,0,0,0,0,0,0,0,0,0,0,0,0,0,0,0,0,0],"split_type":[0,0,0,0,0,0,0,0,0,0,0,0,0,0,0,0,0,0,0,0,0,0,0,0,0,0,0,0,0,0,0,0,0,0,0,0,0,0,0,0,0,0,0,0,0,0,0,0,0,0,0],"sum_hessian":[5.0507312E2,1.9840357E1,4.8523276E2,1.53787565E1,4.461601E0,3.5688373E2,1.2834904E2,8.071732E0,7.3070254E0,2.2647152E0,2.1968853E0,2.8292896E2,7.395477E1,6.601158E1,6.233746E1,5.107266E0,2.9644654E0,5.4377947E0,1.8692306E0,1.1209675E0,1.1437477E0,1.0680907E0,1.1287946E0,1.497028E2,1.3322614E2,4.5140102E1,2.8814672E1,4.8073097E1,1.7938484E1,5.8378223E1,3.959238E0,4.092975E0,1.0142909E0,1.4074396E0,1.5570259E0,1.21124886E2,2.8577927E1,2.6484566E1,1.0674158E2,2.1609898E1,2.3530205E1,1.6000359E1,1.2814312E1,3.785581E1,1.0217287E1,4.064624E0,1.3873859E1,3.055924E1,2.7818981E1,2.7821076E0,1.1771306E0],"tree_param":{"num_deleted":"0","num_feature":"28","num_nodes":"51","size_leaf_vector":"1"}},{"base_weights":[-4.334653E-3,-5.8989007E-2,9.006843E-3,-8.624555E-2,2.3249062E-2,3.9503507E-2,-2.3058774E-2,-1.5257447E-2,-1.6317903E-1,-4.7755226E-2,1.4806883E-1,-2.7818168E-2,1.0481164E-1,-5.2601762E-2,5.177822E-2,-4.4349875E-2,1.6955754E-1,-1.9213185E-1,-7.845316E-2,-8.695266E-2,6.875912E-2,2.5317654E-1,-3.333352E-2,-6.601406E-2,1.5914597E-1,-2.3061972E-2,1.533941E-1,-1.08988555E-2,-1.14593044E-1,8.197959E-2,-8.872248E-2,-2.0343268E-2,3.0665493E-2,-1.8554797E-2,8.024485E-2,-6.2055636E-2,2.262481E-2,1.0131293E-2,-6.0564745E-2,-9.52909E-3,-4.950363E-2,9.970172E-2,8.8612514E-4,4.5828372E-2,-5.035924E-2,-2.1713862E-2,7.1166605E-2,1.4960984E-2,7.5546354E-2,3.588895E-2,-3.7171025E-2,2.36666E-2,7.315057E-2,-2.643712E-2,4.3449357E-2,2.3071941E-2,-4.804501E-2,-6.1356917E-4,4.306167E-2,-4.764493E-2,8.06922E-3],"categories":[],"categories_nodes":[],"categories_segments":[],"categories_sizes":[],"default_left":[0,0,0,0,0,0,0,0,0,0,0,0,0,0,0,0,0,0,0,0,0,0,0,0,0,0,0,0,0,0,0,0,0,0,0,0,0,0,0,0,0,0,0,0,0,0,0,0,0,0,0,0,0,0,0,0,0,0,0,0,0],"id":25,"left_children":[1,3,5,7,9,11,13,15,17,19,21,23,25,27,29,31,33,35,37,39,-1,41,43,45,47,49,51,53,55,57,59,-1,-1,-1,-1,-1,-1,-1,-1,-1,-1,-1,-1,-1,-1,-1,-1,-1,-1,-1,-1,-1,-1,-1,-1,-1,-1,-1,-1,-1,-1],"loss_changes":[3.689315E-1,2.2450832E-1,3.9888212E-1,4.0583807E-1,2.3304915E-1,9.216198E-1,4.4272125E-1,2.2252943E-1,7.269108E-2,2.0457011E-1,1.893656E-1,7.509246E-1,6.637529E-1,3.689055E-1,2.4842507E-1,1.2846325E-1,1.444859E-1,1.1790037E-1,1.5644902E-1,6.2070005E-2,0E0,1.20330185E-1,1.3491723E-1,1.8471527E-1,1.6853231E-1,4.4835448E-1,5.005928E-1,1.0554714E0,5.137658E-1,2.449322E-1,8.9650355E-2,0E0,0E0,0E0,0E0,0E0,0E0,0E0,0E0,0E0,0E0,0E0,0E0,0E0,0E0,0E0,0E0,0E0,0E0,0E0,0E0,0E0,0E0,0E0,0E0,0E0,0E0,0E0,0E0,0E0,0E0],"parents":[2147483647,0,0,1,1,2,2,3,3,4,4,5,5,6,6,7,7,8,8,9,9,10,10,11,11,12,12,13,13,14,14,15,15,16,16,17,17,18,18,19,19,21,21,22,22,23,23,24,24,25,25,26,26,27,27,28,28,29,29,30,30],"right_children":[2,4,6,8,10,12,14,16,18,20,22,24,26,28,30,32,34,36,38,40,-1,42,44,46,48,50,52,54,56,58,60,-1,-1,-1,-1,-1,-1,-1,-1,-1,-1,-1,-1,-1,-1,-1,-1,-1,-1,-1,-1,-1,-1,-1,-1,-1,-1,-1,-1,-1,-1],"split_conditions":[-9.487803E-1,1.0246332E0,9.547823E-1,7.9978824E-1,7.891814E-1,-4.0474957E-1,1.2057517E0,1.4971164E-1,1.8747759E0,1.0420651E0,1.7489202E-1,3.3017975E-1,-5.995874E-1,1.304505E-1,1.3748119E0,5.2359945E-1,-2.5276035E-1,1.9659514E0,2.2037718E-1,1.5367244E0,6.875912E-2,1.0732651E0,7.92342E-1,1.0763392E0,4.4810122E-1,8.0464673E-1,2.4116406E-1,1.2198843E0,-3.6825842E-1,3.3294934E-1,8.02263E-1,-2.0343268E-2,3.0665493E-2,-1.8554797E-2,8.024485E-2,-6.2055636E-2,2.262481E-2,1.0131293E-2,-6.0564745E-2,-9.52909E-3,-4.950363E-2,9.970172E-2,8.8612514E-4,4.5828372E-2,-5.035924E-2,-2.1713862E-2,7.1166605E-2,1.4960984E-2,7.5546354E-2,3.588895E-2,-3.7171025E-2,2.36666E-2,7.315057E-2,-2.643712E-2,4.3449357E-2,2.3071941E-2,-4.804501E-2,-6.1356917E-4,4.306167E-2,-4.764493E-2,8.06922E-3],"split_indices":[4,7,7,7,6,18,7,6,21,0,16,25,1,16,1,25,17,16,16,10,0,25,14,16,0,7,6,9,17,6,26,0,0,0,0,0,0,0,0,0,0,0,0,0,0,0,0,0,0,0,0,0,0,0,0,0,0,0,0,0,0],"split_type":[0,0,0,0,0,0,0,0,0,0,0,0,0,0,0,0,0,0,0,0,0,0,0,0,0,0,0,0,0,0,0,0,0,0,0,0,0,0,0,0,0,0,0,0,0,0,0,0,0,0,0,0,0,0,0,0,0,0,0,0,0],"sum_hessian":[5.0423166E2,9.826419E1,4.0596747E2,7.376664E1,2.449755E1,2.0795534E2,1.9801215E2,3.8989006E1,3.4777637E1,1.6008467E1,8.489082E0,1.0268178E2,1.0527355E2,1.4218118E2,5.5830967E1,3.4342976E1,4.6460276E0,2.49753E1,9.802337E0,1.4624657E1,1.38381E0,5.1243057E0,3.3647764E0,8.580013E1,1.6881647E1,2.9128883E1,7.614467E1,8.570281E1,5.6478367E1,4.629593E1,9.535036E0,3.0067453E1,4.275524E0,1.4910159E0,3.155012E0,2.3887869E1,1.087431E0,5.5146832E0,4.287654E0,9.391594E0,5.2330623E0,3.6434593E0,1.4808466E0,1.3549607E0,2.0098157E0,8.478172E1,1.0184127E0,8.452809E0,8.428838E0,1.1984444E1,1.7144442E1,4.277712E1,3.3367546E1,5.7582424E1,2.8120392E1,1.0721639E1,4.575673E1,1.998473E1,2.6311201E1,5.7036314E0,3.8314044E0],"tree_param":{"num_deleted":"0","num_feature":"28","num_nodes":"61","size_leaf_vector":"1"}},{"base_weights":[-3.09174E-3,-1.4953536E-1,2.999004E-3,-2.2580217E-1,1.0553281E-1,8.211287E-3,-1.8366116E-1,-3.2291603E-1,7.3215246E-2,-9.8797105E-2,2.955087E-1,-8.234148E-4,1.0466526E-1,2.4902174E-1,-2.9006714E-1,-1.438483E-1,-1.5642144E-1,-9.0957984E-2,9.194712E-2,2.6570784E-2,-6.885663E-2,1.0604304E-1,2.709104E-2,-2.8387952E-1,1.4228078E-2,4.8589015E-1,-1.1519479E-1,1.0962364E-1,5.326713E-4,-3.5232675E-1,-2.1354351E-2,-8.688072E-2,4.8431125E-2,3.4512643E-2,-6.7418054E-2,-1.4238282E-1,1.3844128E-1,-3.3037113E-3,3.505241E-2,-4.1916496E-3,2.0329861E-1,8.331032E-2,-1.11251E-1,-1.5250266E-2,-1.1740967E-1,2.8882366E-2,-3.8669758E-2],"categories":[],"categories_nodes":[],"categories_segments":[],"categories_sizes":[],"default_left":[0,0,0,0,0,0,0,0,0,0,0,0,0,0,0,0,0,0,0,0,0,0,0,0,0,0,0,0,0,0,0,0,0,0,0,0,0,0,0,0,0,0,0,0,0,0,0],"id":26,"left_children":[1,3,5,7,9,11,13,15,17,19,21,23,25,27,29,-1,31,33,-1,-1,-1,-1,-1,35,37,39,41,-1,-1,43,45,-1,-1,-1,-1,-1,-1,-1,-1,-1,-1,-1,-1,-1,-1,-1,-1],"loss_changes":[4.4998002E-1,4.1569594E-1,4.7322434E-1,4.8320258E-1,2.3563796E-1,4.119509E-1,6.8059367E-1,2.412405E-1,2.0768283E-1,1.014452E-1,3.8430393E-3,1.8494072E0,3.44941E0,8.9889884E-2,1.7763537E-1,0E0,3.5846552E-1,1.23037934E-1,0E0,0E0,0E0,0E0,0E0,3.3347735E0,1.0689529E0,1.4474142E0,2.7632675E0,0E0,0E0,8.510554E-2,5.221343E-2,0E0,0E0,0E0,0E0,0E0,0E0,0E0,0E0,0E0,0E0,0E0,0E0,0E0,0E0,0E0,0E0],"parents":[2147483647,0,0,1,1,2,2,3,3,4,4,5,5,6,6,7,7,8,8,9,9,10,10,11,11,12,12,13,13,14,14,16,16,17,17,23,23,24,24,25,25,26,26,29,29,30,30],"right_children":[2,4,6,8,10,12,14,16,18,20,22,24,26,28,30,-1,32,34,-1,-1,-1,-1,-1,36,38,40,42,-1,-1,44,46,-1,-1,-1,-1,-1,-1,-1,-1,-1,-1,-1,-1,-1,-1,-1,-1],"split_conditions":[-1.0092651E0,4.1441226E0,3.5554411E0,3.685163E-1,7.20746E-1,1.4752755E0,-2.5763017E-1,-2.3374922E0,8.529343E-1,9.559609E-2,1.8197912E0,-2.0708375E0,-3.6825842E-1,2.5630486E-1,2.023561E0,-1.438483E-1,1.7645566E0,8.5818225E-1,9.194712E-2,2.6570784E-2,-6.885663E-2,1.0604304E-1,2.709104E-2,5.7338715E-1,4.501007E-1,-2.8004076E0,-1.7681732E0,1.0962364E-1,5.326713E-4,-1.99139E0,1.809039E0,-8.688072E-2,4.8431125E-2,3.4512643E-2,-6.7418054E-2,-1.4238282E-1,1.3844128E-1,-3.3037113E-3,3.505241E-2,-4.1916496E-3,2.0329861E-1,8.331032E-2,-1.11251E-1,-1.5250266E-2,-1.1740967E-1,2.8882366E-2,-3.8669758E-2],"split_indices":[17,14,12,16,26,14,17,22,26,0,19,22,17,16,3,0,14,18,0,0,0,0,0,17,24,22,22,0,0,22,19,0,0,0,0,0,0,0,0,0,0,0,0,0,0,0,0],"split_type":[0,0,0,0,0,0,0,0,0,0,0,0,0,0,0,0,0,0,0,0,0,0,0,0,0,0,0,0,0,0,0,0,0,0,0,0,0,0,0,0,0,0,0,0,0,0,0],"sum_hessian":[5.029871E2,1.914402E1,4.8384308E2,1.4825769E1,4.31825E0,4.7162933E2,1.2213728E1,1.1130817E1,3.6949522E0,2.3117647E0,2.0064855E0,4.3214264E2,3.9486702E1,2.1462097E0,1.0067518E1,4.7674103E0,6.363407E0,2.5267625E0,1.1681896E0,1.0825855E0,1.2291793E0,1.0011265E0,1.0053589E0,2.0917156E1,4.112255E2,1.4000547E1,2.5486155E1,1.1343089E0,1.0119007E0,7.921074E0,2.1464443E0,4.547095E0,1.8163124E0,1.0499159E0,1.4768467E0,1.6944437E1,3.97272E0,3.307592E2,8.0466286E1,4.139054E0,9.861493E0,1.0012168E1,1.5473986E1,1.171999E0,6.749075E0,1.075211E0,1.0712333E0],"tree_param":{"num_deleted":"0","num_feature":"28","num_nodes":"47","size_leaf_vector":"1"}},{"base_weights":[-3.099609E-3,5.2347244E-3,-1.1074443E-1,2.2747652E-3,3.235815E-1,-1.8272161E-1,1.6387448E-1,-2.4014474E-1,6.745765E-3,5.0260097E-1,-2.988355E-2,-2.6877183E-1,-2.8289655E-2,-4.8753805E-2,2.6285788E-1,-3.74458E-1,4.40343E-2,-1.2042618E-3,2.3656666E-1,2.9119315E-2,2.0246501E-1,-3.174134E-1,-5.356817E-2,-2.1929687E-1,7.957948E-2,4.31681E-1,3.6179695E-2,-1.254022E-2,-1.3101274E-1,-2.8964944E-2,4.673837E-2,-1.1073219E-1,1.4771045E-3,1.14729084E-1,-1.1362782E-2,-1.1950094E-1,-3.0310025E-2,-6.0301606E-2,2.5560869E-2,-1.7928582E-2,-1.12070054E-1,8.808957E-2,-3.2496367E-2,3.8553298E-2,1.580502E-1,4.1354645E-2,-3.838061E-2],"categories":[],"categories_nodes":[],"categories_segments":[],"categories_sizes":[],"default_left":[0,0,0,0,0,0,0,0,0,0,0,0,0,0,0,0,0,0,0,0,0,0,0,0,0,0,0,0,0,0,0,0,0,0,0,0,0,0,0,0,0,0,0,0,0,0,0],"id":27,"left_children":[1,3,5,7,9,11,13,15,17,19,-1,21,23,-1,25,27,29,31,33,-1,-1,35,37,39,41,43,45,-1,-1,-1,-1,-1,-1,-1,-1,-1,-1,-1,-1,-1,-1,-1,-1,-1,-1,-1,-1],"loss_changes":[4.5218474E-1,4.404084E-1,7.4584365E-1,5.054562E-1,3.762667E-1,3.8002926E-1,3.0274266E-1,3.388448E-1,8.36009E-1,1.5745038E-1,0E0,1.7784941E-1,2.55533E-1,0E0,2.3533672E-1,1.0268515E-1,7.168771E-2,1.0008045E0,6.269155E-1,0E0,0E0,2.220515E-1,1.1195257E-1,8.6869135E-2,3.5833767E-1,3.808081E-2,8.255381E-2,0E0,0E0,0E0,0E0,0E0,0E0,0E0,0E0,0E0,0E0,0E0,0E0,0E0,0E0,0E0,0E0,0E0,0E0,0E0,0E0],"parents":[2147483647,0,0,1,1,2,2,3,3,4,4,5,5,6,6,7,7,8,8,9,9,11,11,12,12,14,14,15,15,16,16,17,17,18,18,21,21,22,22,23,23,24,24,25,25,26,26],"right_children":[2,4,6,8,10,12,14,16,18,20,-1,22,24,-1,26,28,30,32,34,-1,-1,36,38,40,42,44,46,-1,-1,-1,-1,-1,-1,-1,-1,-1,-1,-1,-1,-1,-1,-1,-1,-1,-1,-1,-1],"split_conditions":[2.0919485E0,4.2346563E0,4.8743644E0,-2.9655247E0,-2.8004076E0,1.7852868E-1,2.0766218E0,3.2937562E0,2.5362992E0,3.6555986E0,-2.988355E-2,8.99679E-1,1.2433368E0,-4.8753805E-2,2.0282017E-1,4.0510482E-1,2.4022713E0,-2.4365425E0,3.0487993E-1,2.9119315E-2,2.0246501E-1,-1.3964038E0,8.457012E-1,9.3529415E-1,4.1101682E-1,-2.4860738E-1,1.2622217E0,-1.254022E-2,-1.3101274E-1,-2.8964944E-2,4.673837E-2,-1.1073219E-1,1.4771045E-3,1.14729084E-1,-1.1362782E-2,-1.1950094E-1,-3.0310025E-2,-6.0301606E-2,2.5560869E-2,-1.7928582E-2,-1.12070054E-1,8.808957E-2,-3.2496367E-2,3.8553298E-2,1.580502E-1,4.1354645E-2,-3.838061E-2],"split_indices":[20,6,20,22,22,17,19,24,18,13,0,26,9,0,15,26,3,22,16,0,0,22,6,24,14,17,7,0,0,0,0,0,0,0,0,0,0,0,0,0,0,0,0,0,0,0,0],"split_type":[0,0,0,0,0,0,0,0,0,0,0,0,0,0,0,0,0,0,0,0,0,0,0,0,0,0,0,0,0,0,0,0,0,0,0,0,0,0,0,0,0,0,0,0,0,0,0],"sum_hessian":[5.023786E2,4.6716037E2,3.521823E1,4.6385464E2,3.3057332E0,2.8169647E1,7.0485845E0,7.4454875E0,4.5640915E2,2.1911798E0,1.1145533E0,1.7614418E1,1.0555229E1,1.4908501E0,5.5577345E0,4.8401675E0,2.6053202E0,4.4211032E2,1.429884E1,1.1194658E0,1.071714E0,1.3979704E1,3.6347153E0,3.4367247E0,7.1185045E0,2.6670313E0,2.890703E0,1.0264603E0,3.813707E0,1.2141414E0,1.391179E0,6.27287E0,4.3583746E2,9.079626E0,5.2192135E0,9.562536E0,4.4171667E0,1.5448858E0,2.0898294E0,2.3715858E0,1.0651387E0,3.0646381E0,4.0538664E0,1.1986248E0,1.4684066E0,1.8837621E0,1.006941E0],"tree_param":{"num_deleted":"0","num_feature":"28","num_nodes":"47","size_leaf_vector":"1"}},{"base_weights":[-2.6369002E-3,-8.115175E-2,6.4653624E-3,2.0937268E-2,-1.3077815E-1,-9.1449454E-2,1.4839714E-2,-5.6756657E-2,1.4563006E-1,-1.9991463E-1,-6.3315384E-2,-2.3676679E-2,-1.7132539E-1,2.1212792E-2,-1.2332148E-1,-1.1869518E-1,-2.3218159E-2,1.9717018E-1,-2.4048323E-2,-2.6589823E-1,-1.9959693E-3,-1.4157394E-1,3.0217873E-2,-6.0716145E-2,1.3072173E-1,3.2834426E-2,-2.1563123E-1,2.986588E-2,-8.327524E-2,5.7724223E-2,-1.6133696E-1,-4.5488827E-2,-3.7115638E-3,2.3616042E-2,-2.129003E-2,7.6220885E-2,-1.0911457E-2,-8.752745E-2,